//Numpy array shape [32, 10]
//Min -1.000000000000
//Max 0.875000000000
//Number of zeros 162

#ifndef W11_H_
#define W11_H_

#ifndef __SYNTHESIS__
weight11_t w11[320];
#else
weight11_t w11[320] = {0.000, 0.000, 0.000, 0.000, -0.750, 0.250, 0.000, 0.000, 0.000, 0.500, 0.000, 0.000, 0.250, 0.000, 0.750, -0.625, 0.250, -0.750, -0.500, 0.000, -0.625, 0.500, -0.625, 0.750, 0.625, 0.000, -0.250, 0.000, 0.000, -0.500, 0.125, 0.625, 0.000, 0.000, 0.000, 0.625, 0.750, -0.250, 0.000, 0.625, -0.875, 0.000, -0.750, 0.000, 0.000, -0.500, 0.000, 0.000, 0.000, -0.625, 0.000, 0.000, -0.625, 0.000, -0.750, 0.000, -0.625, 0.500, 0.000, 0.500, 0.625, 0.000, 0.000, -0.750, 0.000, 0.625, 0.000, 0.000, 0.000, 0.000, 0.000, 0.750, 0.000, -0.375, 0.000, 0.000, -0.500, 0.000, 0.625, 0.875, 0.250, 0.000, 0.000, 0.000, -0.625, 0.000, -0.625, 0.000, 0.000, -0.875, 0.000, 0.000, -0.750, 0.000, 0.000, 0.500, 0.250, 0.625, 0.000, 0.000, 0.750, 0.000, 0.000, 0.000, 0.500, 0.375, 0.000, 0.000, 0.000, 0.000, 0.000, 0.000, 0.000, 0.000, 0.250, 0.000, 0.875, 0.000, 0.000, 0.000, 0.000, -0.875, 0.500, 0.000, -0.875, 0.000, 0.000, 0.000, 0.000, -0.500, -0.500, 0.000, 0.750, -0.375, 0.750, 0.000, 0.500, 0.250, -0.500, 0.750, -0.250, 0.500, -0.625, 0.750, 0.250, 0.875, -0.625, -1.000, 0.000, 0.000, -0.750, 0.000, -0.625, -0.625, 0.500, 0.000, 0.000, -0.625, 0.000, -0.875, 0.000, -0.750, 0.250, 0.000, 0.000, -0.375, 0.875, 0.000, -0.875, -0.375, 0.000, 0.000, 0.000, 0.000, -0.500, 0.000, -0.500, 0.000, 0.500, 0.500, 0.750, 0.000, 0.000, 0.625, 0.000, 0.000, 0.250, 0.375, 0.000, 0.000, 0.000, -0.625, -0.250, 0.625, 0.375, 0.000, 0.000, -0.500, 0.000, -0.500, 0.750, 0.000, 0.625, -0.500, 0.000, 0.000, 0.000, -0.625, 0.000, -0.875, 0.625, -0.875, -0.750, 0.000, 0.000, -0.875, -1.000, -0.625, 0.250, 0.000, 0.000, 0.000, 0.625, -0.750, 0.000, 0.625, 0.000, 0.000, 0.000, 0.250, 0.000, 0.875, 0.000, -0.250, -0.750, 0.000, 0.000, 0.500, 0.000, 0.875, 0.000, 0.000, 0.000, -0.875, 0.000, 0.250, 0.000, 0.000, 0.000, 0.000, 0.000, -0.875, 0.000, 0.625, 0.000, 0.000, 0.000, -0.625, 0.000, -1.000, 0.000, 0.250, 0.875, 0.625, 0.500, 0.000, -0.750, 0.000, 0.500, 0.750, 0.875, 0.000, 0.000, 0.000, 0.625, -0.750, -0.500, -0.500, 0.000, 0.000, 0.000, -0.625, -0.375, 0.000, -0.625, 0.000, 0.000, -0.500, 0.000, 0.000, 0.375, 0.000, 0.000, 0.000, 0.625, 0.500, -0.750, 0.375, -0.625, 0.625, 0.000, 0.000, -0.500, 0.000, 0.500, 0.000, -0.750, 0.000, 0.625, 0.000, 0.500, 0.000, -0.625, 0.750, 0.000, -0.750, 0.000, 0.000, -0.500, 0.750};

#endif

#endif
