//Numpy array shape [3, 3, 32, 32]
//Min -0.375000000000
//Max 0.500000000000
//Number of zeros 4269

#ifndef W5_H_
#define W5_H_

#ifndef __SYNTHESIS__
weight5_t w5[9216];
#else
weight5_t w5[9216] = {0.125, 0.000, 0.000, 0.125, 0.000, -0.125, 0.000, -0.125, 0.125, 0.000, -0.250, 0.125, 0.125, 0.125, 0.000, 0.125, -0.125, 0.000, 0.000, -0.125, 0.125, -0.125, 0.125, -0.125, -0.125, 0.125, 0.000, 0.000, 0.000, 0.000, 0.125, 0.125, -0.125, -0.125, -0.125, 0.000, -0.125, 0.000, 0.125, 0.125, -0.125, -0.125, 0.000, -0.125, 0.000, 0.000, 0.125, 0.125, 0.000, -0.125, 0.000, -0.125, 0.000, 0.125, 0.125, -0.125, -0.125, -0.125, -0.125, 0.000, 0.000, 0.000, 0.000, 0.125, 0.000, 0.000, -0.250, 0.000, 0.000, 0.000, 0.125, -0.125, 0.000, -0.125, 0.000, 0.000, 0.125, -0.125, 0.000, -0.125, -0.125, -0.250, 0.125, -0.250, -0.125, 0.125, 0.000, -0.125, 0.000, -0.250, -0.125, 0.000, -0.125, 0.000, 0.000, 0.250, 0.125, 0.000, 0.000, 0.125, 0.000, -0.125, 0.125, 0.125, 0.000, 0.000, -0.125, 0.250, 0.000, 0.125, 0.000, 0.000, -0.125, 0.125, 0.000, 0.000, 0.125, 0.000, 0.000, 0.125, 0.000, -0.125, -0.125, 0.000, -0.125, 0.125, 0.125, 0.250, 0.000, 0.125, 0.000, -0.125, -0.125, 0.000, 0.000, -0.125, 0.125, 0.000, -0.250, 0.000, 0.000, 0.000, 0.125, -0.125, -0.125, -0.125, 0.125, 0.000, 0.125, 0.000, 0.000, 0.000, -0.125, 0.000, -0.125, 0.000, 0.250, 0.125, -0.125, 0.125, 0.000, 0.000, 0.125, 0.000, 0.125, -0.125, -0.250, 0.125, 0.125, 0.000, -0.125, -0.125, -0.125, -0.125, 0.000, 0.000, -0.250, 0.000, -0.125, -0.125, 0.125, 0.000, 0.000, -0.125, -0.125, 0.000, 0.125, -0.250, -0.125, 0.000, 0.000, 0.250, 0.125, -0.125, -0.125, 0.000, 0.000, 0.125, 0.000, 0.000, -0.125, 0.000, -0.125, 0.000, 0.250, 0.125, 0.000, -0.125, -0.250, -0.125, 0.125, 0.125, 0.125, -0.125, -0.125, 0.000, 0.000, -0.125, 0.000, 0.000, 0.125, 0.000, 0.000, 0.000, -0.125, 0.000, -0.250, 0.000, -0.125, 0.000, 0.000, -0.125, 0.000, -0.125, -0.250, 0.000, 0.000, 0.000, 0.125, -0.250, -0.375, -0.125, 0.125, -0.125, 0.000, 0.000, -0.125, 0.000, -0.125, -0.125, -0.125, 0.000, 0.125, 0.000, 0.000, 0.000, -0.125, 0.000, 0.000, 0.000, 0.000, 0.000, 0.125, 0.125, -0.125, 0.125, -0.125, 0.000, 0.125, -0.125, -0.125, 0.000, -0.125, -0.125, 0.125, 0.000, 0.125, 0.250, 0.000, 0.000, -0.125, -0.125, 0.125, 0.000, 0.125, 0.000, 0.000, 0.125, 0.125, 0.000, 0.000, 0.000, 0.125, -0.125, 0.000, 0.125, 0.000, 0.125, 0.000, -0.125, 0.000, 0.000, 0.000, 0.125, 0.125, 0.000, 0.125, 0.000, 0.125, 0.000, 0.000, -0.125, 0.000, 0.000, -0.125, 0.000, 0.000, 0.000, 0.000, 0.125, 0.125, 0.125, -0.125, 0.000, 0.000, -0.125, -0.125, 0.000, 0.125, -0.125, 0.000, 0.000, -0.125, 0.000, 0.000, -0.250, 0.000, 0.125, 0.125, -0.125, -0.125, 0.125, 0.000, 0.125, 0.000, 0.000, 0.000, 0.000, 0.000, 0.000, -0.125, 0.000, 0.000, 0.125, -0.125, -0.125, 0.000, -0.125, 0.000, 0.000, 0.125, 0.000, -0.125, 0.125, 0.000, -0.125, 0.000, 0.000, -0.125, 0.000, 0.000, 0.125, 0.125, 0.000, -0.125, -0.125, 0.000, 0.000, -0.125, 0.000, -0.125, -0.125, 0.125, -0.125, 0.000, 0.125, 0.000, 0.000, -0.125, 0.125, 0.000, 0.125, 0.125, 0.000, -0.125, 0.000, -0.125, 0.000, 0.125, -0.125, 0.000, 0.000, 0.125, 0.000, 0.125, 0.125, -0.125, 0.000, -0.125, 0.000, -0.125, 0.000, 0.000, 0.000, 0.125, 0.000, 0.000, 0.125, -0.125, -0.125, 0.000, 0.000, 0.000, 0.000, 0.000, 0.000, 0.125, -0.125, 0.000, 0.000, 0.125, 0.125, 0.125, 0.000, 0.125, 0.125, 0.125, -0.125, 0.000, -0.125, -0.125, -0.125, 0.125, -0.125, 0.000, -0.125, -0.125, 0.125, -0.125, 0.125, 0.125, -0.125, -0.125, 0.000, -0.125, -0.125, -0.250, 0.125, 0.000, 0.000, -0.125, 0.000, 0.000, -0.250, -0.125, 0.125, 0.000, 0.125, 0.125, 0.000, 0.000, 0.000, -0.125, 0.000, 0.125, 0.000, 0.000, 0.000, -0.125, -0.125, 0.000, 0.000, 0.000, 0.125, 0.000, 0.125, 0.000, 0.000, 0.000, 0.000, 0.000, -0.125, 0.000, 0.000, -0.125, -0.125, -0.125, 0.000, 0.125, 0.125, 0.000, 0.125, 0.000, 0.000, -0.125, 0.125, 0.000, 0.000, 0.125, 0.125, -0.125, -0.125, 0.000, 0.000, -0.125, 0.000, 0.125, 0.125, 0.000, -0.125, -0.125, -0.125, 0.000, -0.125, 0.125, 0.125, 0.125, 0.125, 0.125, 0.000, 0.125, -0.125, 0.125, 0.125, -0.125, 0.000, -0.125, 0.000, 0.000, 0.125, 0.000, 0.000, 0.000, 0.000, -0.125, 0.125, 0.000, 0.000, 0.125, 0.125, 0.000, 0.125, -0.125, 0.000, 0.125, -0.125, -0.125, 0.000, 0.000, 0.125, 0.125, 0.125, 0.125, 0.125, 0.125, 0.125, 0.000, 0.000, -0.125, 0.000, 0.125, 0.125, 0.000, 0.000, -0.125, 0.000, 0.000, 0.125, 0.000, 0.000, 0.000, 0.125, 0.000, -0.125, 0.000, 0.125, -0.125, 0.000, -0.125, 0.000, 0.000, 0.125, -0.125, 0.125, 0.000, -0.125, 0.125, 0.000, 0.000, 0.000, 0.125, 0.000, -0.125, 0.125, 0.000, 0.000, 0.125, -0.125, -0.125, 0.000, 0.000, -0.125, 0.125, 0.000, -0.125, 0.000, -0.125, 0.125, 0.125, 0.000, 0.000, 0.125, 0.000, 0.250, 0.250, 0.125, -0.125, -0.125, 0.000, 0.125, 0.125, 0.000, 0.125, 0.000, 0.000, 0.000, 0.000, 0.125, -0.125, 0.000, 0.000, 0.125, 0.125, 0.000, 0.000, 0.000, 0.000, -0.125, -0.125, 0.125, 0.125, 0.000, -0.125, -0.125, -0.125, 0.125, 0.250, -0.125, 0.000, -0.125, -0.125, 0.000, 0.000, 0.000, -0.125, -0.125, 0.125, 0.000, 0.000, -0.125, -0.125, 0.000, 0.000, 0.125, 0.000, 0.000, 0.000, 0.000, -0.125, 0.000, -0.125, 0.125, -0.125, -0.125, 0.000, 0.125, -0.125, -0.125, -0.125, 0.000, 0.125, -0.125, 0.000, 0.000, -0.125, 0.000, -0.125, 0.000, -0.125, 0.000, 0.000, 0.000, 0.000, 0.125, 0.000, 0.125, 0.000, 0.000, 0.000, 0.125, -0.125, 0.000, -0.125, 0.000, 0.000, -0.125, 0.000, 0.000, -0.125, 0.125, 0.000, 0.000, 0.125, 0.000, 0.125, -0.125, 0.000, -0.125, 0.000, -0.125, 0.125, 0.125, 0.000, -0.125, 0.000, -0.125, 0.125, -0.125, 0.000, 0.125, 0.125, 0.125, -0.125, -0.125, 0.000, 0.000, -0.125, 0.000, 0.000, 0.000, 0.000, 0.125, 0.000, 0.000, 0.125, 0.000, 0.125, 0.125, 0.000, -0.125, 0.000, 0.000, 0.000, 0.125, 0.125, 0.125, 0.000, 0.125, 0.000, 0.125, 0.000, -0.125, 0.000, 0.125, 0.000, 0.250, -0.125, 0.125, 0.000, 0.125, 0.000, -0.125, 0.125, 0.000, 0.125, -0.125, 0.000, 0.125, 0.125, 0.000, 0.000, -0.125, -0.125, -0.125, 0.125, 0.250, 0.000, 0.125, 0.000, -0.125, 0.125, 0.000, 0.000, -0.125, 0.125, 0.000, -0.125, 0.125, -0.125, 0.125, -0.125, 0.125, 0.000, -0.125, -0.125, -0.250, 0.000, 0.000, 0.250, 0.000, 0.125, 0.000, 0.000, 0.000, -0.125, -0.125, 0.000, -0.125, 0.125, 0.000, 0.000, 0.000, 0.000, -0.125, 0.000, -0.125, 0.000, 0.000, -0.250, 0.000, -0.125, 0.125, 0.000, -0.125, 0.000, 0.125, -0.125, -0.125, 0.000, -0.125, 0.125, 0.125, 0.125, 0.000, -0.250, 0.000, 0.000, 0.125, 0.000, 0.000, 0.000, 0.125, 0.000, 0.125, 0.000, 0.000, 0.000, 0.000, 0.000, 0.125, 0.000, 0.125, -0.125, 0.000, 0.000, -0.250, 0.000, 0.125, 0.000, 0.125, 0.000, -0.125, 0.000, -0.125, 0.000, 0.125, -0.250, 0.125, 0.125, 0.000, -0.125, 0.000, 0.000, 0.125, 0.000, 0.000, 0.125, 0.125, 0.125, -0.125, -0.125, 0.000, 0.000, 0.125, 0.125, 0.000, 0.000, -0.125, 0.000, 0.000, 0.125, 0.125, -0.125, 0.000, -0.125, -0.125, 0.000, 0.125, 0.000, 0.000, 0.000, 0.125, -0.125, 0.000, 0.000, -0.125, 0.000, 0.000, 0.000, 0.000, 0.000, 0.125, 0.125, 0.125, 0.125, 0.125, 0.000, 0.125, -0.125, 0.000, 0.125, 0.000, 0.125, 0.000, 0.000, 0.250, 0.125, 0.125, 0.000, 0.125, -0.125, 0.000, 0.000, 0.000, 0.000, 0.250, 0.000, 0.000, 0.125, 0.000, -0.250, 0.125, -0.125, -0.125, 0.000, -0.125, 0.000, 0.000, -0.125, 0.000, 0.250, -0.125, 0.000, 0.000, -0.125, 0.125, 0.000, 0.125, -0.125, 0.000, 0.000, 0.125, -0.125, 0.000, 0.125, 0.000, -0.125, -0.125, 0.000, -0.125, 0.000, 0.000, 0.125, 0.000, -0.125, -0.125, -0.250, 0.000, 0.000, -0.125, 0.125, 0.000, -0.125, -0.125, -0.125, 0.000, -0.125, 0.000, 0.000, 0.125, -0.125, 0.000, 0.000, -0.125, 0.125, 0.000, 0.125, 0.000, 0.000, -0.125, 0.125, 0.000, 0.000, 0.000, -0.125, 0.000, -0.125, 0.000, -0.125, -0.125, 0.125, -0.250, 0.000, -0.125, 0.000, 0.000, 0.000, -0.125, -0.125, -0.125, -0.125, 0.000, 0.125, 0.250, 0.000, -0.125, 0.000, 0.125, 0.250, 0.000, 0.000, 0.125, 0.000, 0.000, -0.125, 0.000, 0.000, 0.125, 0.000, 0.000, -0.250, 0.000, 0.125, 0.000, -0.125, 0.000, 0.000, -0.125, -0.125, -0.125, -0.125, 0.000, 0.125, 0.125, 0.125, 0.125, 0.125, 0.000, 0.125, 0.000, 0.000, -0.125, -0.125, 0.125, -0.125, 0.000, -0.125, -0.125, -0.250, 0.000, -0.125, 0.125, -0.125, -0.125, 0.000, 0.000, -0.125, 0.125, 0.000, 0.125, -0.125, 0.000, 0.125, 0.125, 0.000, -0.125, 0.125, -0.125, 0.000, 0.000, 0.375, 0.125, 0.000, -0.125, 0.125, 0.125, -0.125, 0.000, 0.000, 0.000, -0.125, 0.000, 0.000, -0.125, 0.125, -0.250, 0.125, 0.000, -0.125, 0.000, 0.125, 0.125, 0.125, 0.125, 0.000, 0.000, 0.125, -0.125, -0.125, 0.125, -0.125, 0.000, 0.000, 0.125, -0.125, -0.250, 0.000, 0.250, 0.000, 0.000, 0.000, -0.125, 0.000, 0.125, 0.125, -0.125, -0.125, -0.125, -0.125, 0.000, 0.000, 0.000, 0.000, 0.000, 0.000, 0.000, 0.000, -0.125, -0.125, 0.000, 0.000, 0.125, 0.000, -0.125, -0.125, 0.000, -0.125, 0.125, -0.125, 0.000, 0.125, 0.000, -0.125, 0.125, 0.000, 0.125, -0.125, 0.000, 0.000, 0.000, 0.000, 0.125, 0.000, -0.125, -0.125, 0.125, 0.000, 0.000, -0.125, -0.125, -0.125, -0.125, -0.125, -0.125, -0.125, 0.000, 0.125, 0.000, -0.125, 0.000, 0.125, 0.125, 0.000, -0.125, -0.125, 0.125, 0.000, -0.125, -0.125, -0.125, 0.125, -0.125, 0.250, 0.250, 0.000, 0.000, 0.000, 0.250, -0.125, -0.125, 0.000, -0.125, 0.125, -0.125, 0.000, -0.125, 0.000, 0.000, 0.000, -0.125, 0.125, 0.000, 0.125, 0.125, -0.125, 0.000, 0.000, -0.125, 0.125, -0.125, 0.000, 0.000, 0.125, -0.125, -0.250, -0.125, 0.000, -0.125, -0.125, 0.125, 0.000, 0.000, 0.000, -0.125, -0.125, -0.250, 0.000, 0.125, 0.000, -0.125, 0.000, 0.000, -0.250, -0.125, 0.125, 0.000, 0.000, 0.000, -0.125, 0.000, 0.000, 0.000, 0.125, 0.125, 0.000, 0.000, 0.000, 0.125, 0.125, 0.125, -0.250, 0.125, 0.000, 0.125, 0.000, 0.000, 0.000, 0.000, 0.000, 0.250, -0.125, 0.000, 0.000, -0.125, 0.000, -0.125, 0.000, 0.125, 0.000, 0.000, 0.125, -0.125, 0.125, 0.000, 0.125, 0.125, 0.000, 0.125, 0.250, -0.125, 0.125, 0.000, -0.125, 0.000, 0.000, 0.000, 0.000, -0.125, 0.125, 0.000, 0.000, 0.125, 0.000, 0.125, 0.000, -0.125, 0.000, 0.000, 0.000, 0.125, -0.125, 0.000, 0.000, -0.125, 0.000, 0.000, 0.125, -0.125, 0.125, -0.125, 0.000, 0.000, 0.125, -0.125, -0.125, 0.000, 0.000, -0.125, 0.125, 0.125, -0.125, 0.000, 0.250, 0.125, -0.250, -0.125, -0.125, 0.000, -0.125, -0.125, 0.125, 0.000, 0.000, 0.125, -0.125, 0.000, 0.000, 0.000, 0.000, -0.125, -0.125, 0.000, 0.000, 0.000, 0.000, 0.000, 0.000, 0.000, 0.125, 0.000, -0.125, 0.125, 0.000, 0.000, 0.125, 0.000, 0.125, 0.000, 0.000, 0.000, 0.125, 0.125, 0.000, 0.000, 0.000, 0.125, 0.000, 0.000, 0.000, 0.125, 0.000, 0.125, 0.000, 0.125, -0.125, 0.000, 0.125, -0.125, 0.000, -0.125, 0.000, -0.125, 0.000, 0.000, 0.000, 0.000, -0.125, 0.000, 0.000, 0.125, 0.125, 0.000, 0.250, -0.250, 0.125, 0.000, 0.125, 0.125, -0.125, 0.000, -0.125, 0.000, 0.000, 0.125, 0.000, 0.000, 0.125, 0.125, -0.125, -0.125, 0.000, -0.125, -0.125, 0.000, 0.000, 0.125, 0.000, -0.125, 0.000, 0.000, 0.000, -0.125, 0.125, 0.000, 0.000, -0.125, 0.000, 0.000, 0.000, -0.125, 0.000, -0.250, 0.000, -0.125, 0.000, 0.000, 0.125, -0.125, -0.125, 0.125, 0.000, 0.000, 0.000, 0.125, 0.125, 0.125, 0.000, 0.000, -0.250, -0.125, -0.125, 0.000, 0.000, 0.000, 0.000, -0.125, -0.250, 0.000, -0.125, 0.125, 0.000, 0.000, 0.000, -0.250, 0.125, -0.125, 0.125, 0.125, 0.000, 0.000, 0.000, 0.125, -0.125, 0.000, 0.000, -0.125, 0.000, 0.125, 0.125, -0.375, -0.250, 0.000, 0.125, -0.125, 0.125, 0.000, 0.125, 0.000, 0.000, 0.125, -0.125, 0.000, 0.125, 0.000, 0.000, 0.000, 0.250, -0.125, 0.000, 0.000, 0.125, -0.125, 0.000, 0.125, -0.125, 0.000, 0.125, 0.125, -0.125, -0.125, -0.125, -0.375, 0.000, -0.125, 0.000, 0.250, 0.250, 0.125, 0.000, 0.000, 0.000, 0.000, 0.000, 0.000, -0.250, 0.125, 0.000, 0.125, 0.000, 0.125, 0.250, 0.000, -0.125, 0.000, -0.125, 0.000, -0.125, 0.000, -0.250, 0.125, 0.125, 0.000, -0.125, -0.250, -0.125, -0.125, 0.125, 0.000, 0.000, 0.000, 0.000, 0.000, 0.000, -0.125, 0.000, 0.000, -0.125, 0.125, -0.125, 0.000, 0.125, 0.000, 0.000, 0.125, 0.000, -0.125, 0.000, 0.000, 0.125, 0.000, -0.250, 0.000, 0.125, 0.125, 0.000, -0.125, -0.125, -0.125, 0.250, 0.000, 0.000, 0.000, -0.250, 0.125, -0.125, 0.000, -0.125, 0.125, 0.000, 0.000, -0.125, 0.125, -0.125, -0.125, 0.250, -0.125, 0.000, 0.000, -0.125, 0.000, 0.000, 0.125, -0.125, 0.000, 0.000, 0.000, 0.125, -0.125, -0.125, 0.000, 0.000, 0.125, -0.125, 0.000, 0.000, -0.250, -0.125, -0.125, -0.125, 0.000, 0.125, 0.000, 0.125, 0.000, 0.000, 0.000, 0.000, 0.125, 0.125, -0.125, 0.000, 0.125, 0.125, 0.000, 0.000, -0.125, 0.000, 0.125, 0.125, 0.000, -0.125, 0.000, 0.000, 0.125, 0.000, 0.000, -0.125, 0.000, -0.125, -0.125, 0.000, 0.000, 0.000, 0.125, 0.000, 0.125, 0.000, 0.000, 0.125, 0.000, 0.000, 0.000, -0.250, 0.000, 0.000, -0.125, -0.125, 0.125, 0.000, 0.000, 0.000, 0.000, -0.125, -0.125, 0.125, 0.000, 0.125, 0.000, -0.125, 0.125, -0.125, 0.125, 0.000, 0.000, -0.125, -0.250, 0.000, 0.000, 0.000, 0.000, 0.000, -0.125, -0.125, 0.000, 0.000, 0.000, 0.000, 0.125, 0.125, 0.000, -0.125, 0.125, 0.125, 0.000, -0.125, 0.000, 0.000, -0.125, -0.125, 0.000, 0.000, 0.125, 0.000, 0.125, 0.125, 0.000, 0.000, 0.000, 0.125, -0.125, -0.125, 0.000, 0.000, 0.125, 0.125, 0.000, -0.125, 0.125, 0.000, 0.000, -0.125, 0.125, 0.000, 0.250, 0.000, 0.000, 0.000, 0.125, 0.000, 0.000, 0.000, 0.000, -0.250, 0.125, 0.250, 0.000, 0.000, 0.125, 0.000, 0.000, 0.125, -0.125, -0.250, 0.000, 0.000, 0.000, 0.000, 0.000, 0.000, 0.000, 0.000, 0.000, -0.125, 0.125, 0.125, 0.000, -0.125, -0.250, -0.250, 0.125, 0.125, 0.125, 0.000, -0.125, -0.250, 0.000, 0.000, 0.125, 0.000, 0.000, 0.000, 0.000, 0.125, -0.125, 0.125, 0.125, 0.125, -0.125, 0.000, -0.125, 0.000, 0.125, 0.000, 0.000, 0.250, -0.125, 0.000, -0.125, -0.125, 0.250, 0.250, 0.000, -0.125, 0.000, 0.000, 0.000, 0.250, 0.000, -0.125, 0.000, -0.125, 0.000, -0.125, -0.125, -0.125, 0.000, 0.000, 0.125, -0.125, 0.000, -0.125, 0.125, 0.250, 0.000, 0.000, 0.125, 0.125, 0.000, -0.125, 0.000, -0.125, 0.125, 0.125, -0.125, -0.125, 0.000, 0.000, 0.000, 0.250, -0.125, 0.000, 0.000, 0.125, -0.125, -0.125, -0.125, -0.250, -0.125, 0.000, 0.000, 0.000, 0.000, 0.000, 0.000, 0.000, 0.000, -0.125, 0.125, 0.125, 0.375, -0.125, 0.125, 0.000, 0.125, 0.000, -0.250, 0.125, 0.000, -0.125, 0.000, 0.125, 0.125, 0.000, -0.125, 0.250, -0.125, 0.000, -0.250, 0.000, -0.125, -0.125, 0.000, 0.000, 0.000, 0.000, -0.125, 0.125, 0.125, 0.000, 0.125, -0.125, -0.250, 0.125, 0.000, -0.125, -0.250, 0.125, -0.125, 0.000, 0.000, 0.125, 0.000, -0.125, 0.000, -0.125, -0.125, -0.125, 0.125, 0.000, 0.125, 0.000, 0.000, 0.000, -0.125, -0.125, 0.000, 0.000, 0.000, -0.125, 0.000, -0.125, 0.125, -0.125, -0.125, 0.125, 0.000, 0.000, 0.000, -0.125, 0.000, 0.000, 0.000, 0.000, 0.375, 0.125, 0.000, 0.000, -0.125, -0.125, -0.125, 0.000, 0.000, 0.000, -0.125, 0.000, -0.250, 0.000, 0.125, 0.000, -0.125, 0.000, 0.000, 0.125, 0.000, -0.125, -0.125, 0.000, 0.000, 0.000, 0.250, 0.125, 0.000, 0.000, 0.000, 0.000, 0.000, -0.125, 0.000, 0.125, -0.125, -0.125, 0.000, -0.125, 0.000, 0.000, 0.000, 0.000, 0.125, 0.000, -0.125, 0.000, 0.000, 0.000, 0.000, 0.000, 0.125, -0.125, -0.125, -0.125, 0.000, 0.000, -0.125, -0.125, 0.000, 0.000, 0.125, -0.125, 0.000, 0.000, 0.000, 0.000, 0.000, 0.000, 0.000, 0.000, 0.000, 0.125, 0.125, -0.125, 0.125, 0.125, -0.125, 0.000, -0.125, 0.000, 0.000, 0.000, 0.250, 0.000, -0.125, 0.125, -0.125, -0.125, -0.250, 0.000, 0.125, -0.125, 0.125, 0.250, 0.125, -0.125, -0.125, -0.125, 0.000, 0.125, 0.000, -0.125, 0.000, 0.000, 0.000, -0.125, 0.000, -0.125, 0.000, -0.125, 0.000, 0.000, 0.000, 0.000, 0.125, -0.125, 0.125, 0.000, -0.125, 0.125, -0.250, 0.125, 0.000, 0.125, 0.000, 0.000, 0.000, 0.125, -0.125, 0.125, 0.000, 0.125, 0.125, 0.000, 0.125, 0.125, 0.000, 0.000, 0.125, -0.125, 0.125, 0.000, 0.000, 0.000, 0.000, 0.000, 0.000, 0.000, 0.000, 0.000, 0.125, 0.125, 0.125, 0.000, 0.000, 0.000, -0.125, -0.125, 0.000, 0.125, 0.125, 0.000, 0.125, 0.000, 0.000, -0.125, 0.000, 0.125, 0.000, 0.000, 0.000, 0.125, 0.125, 0.000, -0.125, 0.125, 0.125, 0.000, -0.125, -0.125, 0.000, 0.000, 0.125, -0.125, 0.000, 0.000, 0.000, 0.125, 0.125, -0.125, 0.000, 0.000, 0.125, 0.000, 0.000, 0.000, 0.000, 0.000, 0.125, 0.000, 0.000, 0.000, 0.000, 0.000, -0.125, 0.000, 0.000, 0.125, -0.125, 0.000, 0.000, 0.000, 0.000, -0.125, 0.000, 0.000, 0.000, 0.125, 0.125, 0.000, 0.000, 0.000, 0.000, 0.000, 0.000, 0.000, -0.125, 0.125, 0.125, -0.125, 0.000, 0.000, 0.000, 0.125, -0.125, 0.000, 0.000, 0.125, 0.000, 0.000, 0.000, 0.000, 0.000, 0.125, 0.125, 0.000, 0.000, 0.000, -0.125, 0.000, 0.125, -0.125, 0.000, -0.125, 0.000, 0.000, 0.000, 0.125, 0.125, 0.000, 0.000, 0.125, 0.000, 0.125, -0.125, 0.000, 0.000, 0.000, 0.000, 0.000, -0.125, 0.000, -0.125, 0.000, 0.000, 0.125, 0.000, 0.000, 0.000, 0.000, -0.125, 0.125, 0.125, -0.125, -0.125, -0.125, 0.000, 0.125, 0.000, 0.000, 0.000, -0.125, 0.125, 0.000, 0.000, -0.125, -0.125, 0.000, 0.000, 0.000, 0.000, 0.000, -0.125, 0.125, 0.000, -0.125, -0.125, 0.000, 0.000, 0.125, 0.000, 0.125, 0.000, 0.125, 0.250, 0.000, -0.125, -0.250, 0.125, 0.250, -0.125, 0.000, 0.000, 0.125, 0.125, 0.125, -0.125, -0.125, -0.125, 0.000, -0.125, -0.125, 0.000, 0.000, -0.125, 0.250, 0.125, 0.000, 0.000, 0.000, 0.000, -0.125, -0.125, -0.125, 0.000, 0.250, -0.125, -0.250, 0.000, -0.125, -0.125, 0.250, 0.000, 0.125, -0.250, 0.000, -0.125, -0.250, -0.125, -0.125, -0.250, -0.125, 0.125, 0.000, 0.000, -0.125, -0.125, 0.000, 0.000, 0.125, 0.000, 0.250, 0.125, -0.125, -0.125, -0.125, 0.000, 0.125, 0.125, -0.250, -0.125, 0.000, -0.125, 0.000, 0.000, 0.125, -0.125, 0.000, 0.000, 0.000, -0.125, 0.000, -0.125, 0.000, 0.000, 0.000, -0.125, 0.000, 0.125, -0.125, -0.125, -0.125, -0.125, 0.250, -0.125, -0.125, -0.125, 0.000, 0.250, 0.000, 0.125, 0.000, -0.125, 0.000, -0.125, 0.000, 0.125, 0.250, 0.000, 0.000, 0.000, -0.125, 0.000, -0.125, -0.125, 0.125, -0.125, 0.125, 0.000, 0.125, 0.000, 0.000, 0.125, -0.125, 0.000, 0.000, 0.000, 0.000, 0.000, 0.000, 0.000, 0.000, 0.000, 0.000, 0.000, -0.125, -0.125, 0.125, 0.125, 0.125, 0.000, -0.125, 0.000, -0.250, 0.125, -0.125, 0.000, 0.125, -0.125, 0.125, 0.000, 0.000, -0.125, 0.000, 0.000, 0.125, 0.125, 0.000, 0.000, 0.000, 0.125, 0.000, 0.125, 0.125, -0.125, -0.125, -0.125, 0.000, 0.125, 0.000, 0.000, 0.000, 0.125, 0.000, 0.000, 0.000, 0.000, -0.125, -0.125, 0.000, -0.125, -0.125, 0.000, 0.000, 0.125, 0.000, 0.125, -0.125, -0.125, 0.125, 0.000, -0.125, -0.125, 0.000, 0.125, 0.125, -0.250, 0.000, -0.125, -0.250, -0.125, -0.125, -0.125, -0.125, 0.000, 0.000, 0.000, 0.000, 0.125, 0.000, -0.125, 0.125, 0.000, 0.125, 0.000, -0.125, 0.125, 0.000, -0.125, 0.125, -0.125, 0.125, 0.125, -0.125, 0.125, 0.000, 0.125, -0.125, 0.000, 0.000, 0.000, 0.125, 0.000, -0.125, 0.000, 0.125, 0.125, 0.125, 0.000, 0.125, 0.125, 0.125, 0.125, 0.000, 0.000, 0.000, 0.000, 0.125, 0.000, 0.125, -0.125, 0.125, 0.000, 0.125, -0.125, 0.125, -0.125, 0.125, 0.125, -0.125, 0.125, -0.250, -0.125, 0.125, 0.125, 0.125, -0.125, 0.125, -0.125, -0.125, 0.125, 0.000, -0.125, 0.000, -0.125, 0.000, 0.000, 0.000, 0.000, 0.000, 0.000, 0.125, -0.125, -0.125, -0.125, 0.250, -0.125, 0.000, 0.000, 0.000, 0.250, 0.000, -0.125, 0.000, -0.125, 0.000, 0.125, 0.125, 0.000, -0.125, 0.125, 0.125, 0.000, 0.125, 0.250, 0.000, 0.125, -0.250, -0.125, -0.125, 0.125, 0.125, 0.000, -0.125, 0.125, 0.000, -0.125, 0.000, 0.000, 0.000, 0.000, 0.125, 0.125, -0.125, -0.125, 0.250, 0.000, 0.000, -0.125, 0.000, 0.125, 0.000, 0.125, -0.125, 0.125, 0.000, 0.000, 0.125, 0.000, 0.125, 0.000, -0.125, 0.000, -0.125, 0.000, -0.125, 0.000, 0.000, 0.000, 0.125, -0.250, 0.125, 0.000, 0.125, 0.000, 0.000, 0.000, -0.125, -0.125, 0.125, -0.125, -0.125, 0.125, -0.125, 0.000, 0.000, -0.250, -0.125, -0.125, 0.000, 0.000, -0.125, 0.000, -0.125, 0.125, 0.000, 0.000, 0.000, -0.125, 0.000, 0.000, 0.000, 0.000, 0.125, 0.000, 0.000, 0.125, 0.000, 0.125, 0.125, -0.125, -0.125, 0.000, -0.125, -0.125, 0.000, -0.125, -0.125, 0.125, 0.000, 0.125, 0.000, 0.125, 0.000, 0.000, 0.000, 0.125, -0.125, 0.125, -0.125, 0.000, 0.000, 0.000, 0.125, 0.125, -0.125, 0.125, 0.000, -0.125, 0.000, -0.125, 0.125, 0.000, -0.125, 0.125, -0.125, 0.125, 0.250, 0.000, 0.000, 0.000, 0.000, 0.000, 0.125, 0.125, -0.125, 0.000, -0.125, 0.000, 0.000, 0.000, -0.125, 0.000, -0.125, 0.000, 0.000, 0.000, 0.000, 0.125, 0.000, -0.125, -0.125, 0.125, 0.000, 0.125, -0.125, 0.125, 0.000, 0.125, 0.125, -0.125, 0.000, 0.000, 0.000, -0.125, 0.000, 0.125, 0.000, 0.000, -0.125, -0.125, 0.000, 0.000, 0.000, -0.125, -0.125, 0.000, 0.000, 0.125, 0.000, 0.125, 0.000, 0.000, -0.125, 0.125, 0.000, 0.000, 0.000, -0.125, 0.000, 0.125, -0.125, -0.125, -0.125, 0.125, 0.125, 0.000, 0.125, 0.000, 0.000, 0.000, -0.125, 0.125, 0.000, 0.125, 0.000, 0.125, 0.125, 0.125, 0.125, 0.000, 0.000, 0.000, 0.125, 0.000, 0.000, 0.125, -0.125, 0.000, 0.125, 0.000, 0.000, 0.000, 0.125, 0.125, -0.125, -0.125, 0.000, 0.000, 0.000, 0.000, 0.125, 0.125, 0.125, 0.125, -0.125, 0.000, 0.000, 0.000, -0.125, 0.125, 0.125, 0.000, 0.000, 0.000, -0.125, -0.250, 0.125, -0.125, 0.000, 0.125, 0.125, -0.125, 0.125, 0.000, 0.000, 0.125, -0.125, -0.125, 0.125, -0.125, -0.125, 0.000, 0.000, 0.000, 0.000, 0.000, 0.125, 0.000, 0.000, 0.000, -0.125, 0.000, 0.125, 0.125, 0.000, 0.000, 0.125, -0.250, 0.000, -0.125, 0.000, 0.000, 0.000, 0.000, 0.000, 0.000, 0.125, 0.000, 0.125, 0.125, 0.125, 0.125, 0.125, 0.000, 0.000, 0.250, -0.250, 0.125, -0.125, 0.000, -0.125, -0.125, 0.000, 0.000, 0.000, 0.000, 0.000, 0.000, 0.000, -0.250, -0.250, 0.000, 0.000, 0.000, 0.125, -0.125, 0.000, 0.125, -0.125, 0.125, -0.125, 0.000, 0.125, 0.000, 0.000, 0.000, 0.000, 0.125, 0.000, 0.000, 0.000, -0.125, 0.000, -0.125, 0.000, -0.125, -0.125, 0.250, 0.000, -0.125, 0.000, -0.125, -0.125, -0.250, 0.000, 0.000, 0.125, 0.000, 0.000, 0.125, -0.125, 0.000, 0.000, 0.000, 0.000, -0.125, -0.125, 0.125, 0.125, 0.000, -0.125, 0.000, 0.000, -0.125, 0.125, 0.000, 0.000, 0.125, -0.250, -0.125, 0.000, -0.250, -0.125, -0.125, -0.125, 0.000, -0.250, 0.000, 0.000, 0.125, 0.125, -0.250, -0.125, 0.000, -0.125, -0.125, 0.000, -0.125, 0.125, 0.125, -0.125, 0.250, 0.125, -0.125, 0.000, 0.000, -0.125, 0.000, 0.000, 0.125, 0.000, 0.125, 0.000, 0.125, 0.000, 0.125, 0.000, 0.000, 0.000, 0.000, 0.000, -0.125, 0.125, -0.125, 0.000, -0.125, -0.125, 0.000, 0.125, -0.250, 0.000, 0.125, 0.000, 0.000, 0.000, 0.000, 0.000, 0.000, 0.000, 0.000, 0.125, 0.000, -0.125, 0.000, 0.000, -0.125, 0.125, 0.000, -0.125, 0.000, 0.125, 0.000, -0.125, 0.125, 0.125, 0.000, 0.000, 0.125, 0.000, -0.125, 0.125, -0.125, -0.125, 0.000, 0.000, 0.000, 0.000, 0.000, 0.000, -0.125, 0.000, 0.125, 0.125, -0.125, -0.125, -0.125, 0.125, -0.125, 0.000, 0.000, 0.000, 0.125, -0.125, 0.000, 0.000, 0.125, 0.000, 0.000, 0.000, 0.000, 0.000, -0.125, 0.000, 0.000, 0.000, 0.000, 0.000, 0.000, 0.000, -0.125, 0.000, -0.125, -0.250, -0.125, -0.250, 0.125, 0.000, -0.125, -0.250, 0.125, 0.000, -0.125, -0.125, 0.000, 0.000, 0.000, 0.000, 0.000, 0.000, -0.125, 0.000, -0.125, -0.125, 0.000, -0.250, -0.125, 0.000, 0.000, 0.000, -0.125, 0.000, 0.000, 0.125, -0.125, 0.125, 0.000, 0.000, 0.000, -0.125, 0.125, 0.000, 0.125, 0.000, 0.000, -0.125, 0.000, -0.125, -0.125, 0.000, -0.125, 0.000, 0.125, 0.000, 0.125, 0.125, 0.000, 0.000, 0.000, 0.000, 0.000, 0.125, -0.125, 0.125, 0.000, 0.000, 0.000, 0.000, 0.000, 0.125, 0.125, -0.125, 0.125, -0.125, -0.125, 0.125, -0.125, 0.000, 0.000, 0.000, 0.125, 0.125, 0.000, -0.125, 0.125, 0.000, 0.000, 0.125, 0.000, 0.125, 0.000, 0.000, 0.000, 0.125, 0.000, 0.125, 0.000, 0.000, 0.125, 0.125, 0.000, -0.125, 0.000, 0.125, -0.125, 0.125, 0.000, 0.000, 0.125, 0.000, 0.000, 0.125, 0.000, 0.125, 0.000, 0.000, 0.000, -0.125, 0.125, 0.000, 0.000, 0.000, 0.125, 0.000, 0.125, -0.250, 0.000, -0.125, -0.125, -0.375, 0.000, 0.000, -0.125, 0.125, 0.000, 0.125, -0.125, 0.000, -0.125, -0.125, 0.000, -0.250, -0.125, 0.125, 0.000, 0.125, -0.125, 0.000, -0.125, -0.125, 0.000, 0.000, 0.125, 0.000, 0.125, -0.125, 0.125, -0.125, 0.250, -0.125, 0.000, 0.000, 0.000, 0.125, -0.125, -0.125, -0.125, 0.000, 0.125, 0.000, 0.125, -0.125, 0.125, -0.125, -0.125, -0.125, 0.000, 0.000, -0.125, 0.000, 0.000, 0.000, 0.000, 0.000, -0.125, 0.000, 0.000, 0.000, 0.125, -0.125, 0.000, 0.000, 0.125, 0.000, 0.000, 0.000, -0.125, 0.000, 0.000, -0.125, -0.125, 0.000, 0.000, 0.125, -0.125, 0.000, -0.125, 0.125, -0.125, 0.000, 0.125, 0.000, -0.125, -0.125, 0.000, 0.000, 0.125, 0.000, 0.125, 0.125, 0.000, -0.125, 0.125, -0.125, -0.125, -0.125, 0.125, 0.125, -0.250, 0.125, 0.000, 0.000, 0.125, 0.000, 0.000, 0.000, -0.125, -0.125, -0.125, 0.000, 0.000, -0.250, -0.125, -0.125, -0.125, 0.000, -0.125, 0.000, 0.000, 0.000, -0.250, 0.000, 0.125, 0.000, 0.125, 0.000, 0.000, 0.125, -0.125, 0.125, 0.000, 0.125, 0.000, 0.000, 0.000, -0.125, -0.125, -0.125, -0.125, 0.000, 0.125, -0.125, 0.125, 0.125, 0.000, 0.000, 0.000, 0.000, 0.000, 0.125, 0.000, 0.000, 0.000, 0.125, 0.125, -0.125, 0.125, 0.000, 0.000, 0.000, 0.000, -0.125, -0.125, -0.125, -0.125, -0.250, 0.125, 0.125, 0.000, 0.000, -0.125, -0.125, 0.125, 0.125, -0.125, -0.125, -0.250, 0.000, 0.000, 0.000, -0.125, 0.000, 0.000, 0.000, 0.000, 0.000, 0.125, -0.125, 0.000, 0.000, -0.125, 0.000, 0.125, -0.125, -0.125, 0.000, 0.125, -0.125, 0.000, 0.000, 0.000, 0.000, 0.000, -0.125, -0.250, -0.125, -0.250, 0.125, 0.125, -0.250, -0.125, 0.125, -0.125, -0.125, -0.125, 0.000, -0.125, 0.000, 0.125, 0.000, 0.000, 0.000, 0.000, 0.125, -0.125, -0.125, 0.125, 0.125, 0.000, -0.125, 0.125, -0.125, 0.000, 0.125, 0.000, 0.000, 0.000, 0.125, 0.125, 0.250, 0.000, 0.000, -0.125, -0.125, 0.125, 0.000, -0.125, -0.125, 0.125, 0.000, -0.250, 0.000, 0.000, -0.125, -0.125, 0.000, 0.000, 0.000, -0.125, -0.250, -0.125, 0.000, 0.125, 0.000, 0.000, 0.000, 0.125, 0.000, 0.000, -0.125, -0.125, 0.125, 0.125, 0.000, 0.125, 0.000, -0.125, 0.000, 0.000, 0.000, 0.000, -0.125, 0.125, 0.000, 0.000, 0.000, 0.000, 0.000, -0.125, 0.125, -0.125, 0.000, -0.125, 0.000, -0.125, -0.125, -0.125, -0.125, 0.000, -0.125, 0.125, -0.125, 0.000, 0.000, 0.000, -0.125, -0.125, -0.125, 0.000, -0.125, 0.000, 0.000, 0.000, 0.125, -0.125, 0.125, -0.125, 0.125, 0.000, 0.125, 0.000, -0.125, -0.125, 0.125, 0.000, 0.125, 0.000, -0.125, 0.125, 0.000, 0.125, -0.250, 0.000, 0.000, 0.125, 0.000, 0.000, -0.125, 0.000, -0.250, 0.000, 0.000, 0.125, 0.000, 0.000, 0.000, -0.125, 0.125, 0.000, -0.125, 0.000, -0.125, -0.125, 0.000, 0.000, -0.125, 0.000, 0.125, 0.125, -0.125, -0.125, 0.125, 0.125, 0.000, -0.125, -0.125, 0.000, 0.000, 0.125, 0.250, 0.000, -0.125, -0.125, 0.125, 0.000, -0.125, 0.000, -0.125, 0.000, 0.000, -0.125, -0.125, 0.125, 0.125, 0.000, 0.125, 0.000, 0.125, -0.125, -0.125, 0.000, -0.125, 0.000, 0.000, 0.000, -0.250, 0.000, 0.000, 0.000, 0.000, 0.000, -0.125, 0.125, -0.125, 0.125, 0.125, 0.125, -0.125, 0.000, 0.000, 0.000, 0.000, -0.250, -0.125, 0.000, 0.000, 0.000, 0.000, 0.000, 0.125, 0.125, -0.125, -0.125, 0.000, 0.125, 0.125, -0.125, 0.000, 0.125, -0.125, -0.125, -0.125, 0.000, 0.000, 0.000, -0.125, 0.000, 0.125, 0.000, -0.125, 0.125, 0.000, 0.000, 0.125, 0.000, 0.000, 0.250, 0.125, -0.125, 0.125, 0.000, -0.125, 0.125, 0.125, 0.125, 0.000, -0.125, 0.000, 0.000, 0.125, -0.125, -0.125, -0.125, 0.000, 0.125, -0.125, 0.125, 0.000, 0.000, 0.000, 0.000, 0.125, 0.000, -0.125, 0.000, 0.000, -0.250, 0.125, 0.000, 0.125, -0.125, -0.125, 0.125, 0.125, 0.000, 0.000, -0.125, 0.000, -0.125, -0.125, 0.000, 0.125, -0.125, -0.125, 0.125, -0.125, 0.125, 0.000, -0.125, 0.000, 0.000, -0.125, 0.000, 0.000, 0.000, 0.000, 0.125, 0.000, -0.250, 0.000, 0.125, 0.125, 0.000, 0.125, -0.125, 0.000, 0.125, 0.125, 0.000, -0.125, 0.000, 0.125, -0.125, 0.125, 0.000, 0.000, 0.000, 0.125, -0.125, -0.125, 0.000, -0.125, -0.125, -0.125, 0.000, 0.125, 0.125, 0.125, 0.125, 0.125, 0.000, -0.125, 0.125, 0.125, -0.125, 0.000, 0.000, -0.125, 0.000, 0.000, -0.125, 0.000, 0.125, 0.000, 0.000, -0.125, 0.125, 0.125, 0.125, 0.125, 0.000, -0.125, 0.000, -0.250, 0.000, -0.125, 0.000, -0.125, 0.000, -0.125, 0.000, 0.125, -0.125, -0.125, 0.000, -0.125, 0.000, -0.250, -0.125, 0.000, 0.125, -0.125, -0.125, -0.125, 0.125, 0.000, 0.000, 0.000, -0.125, 0.125, 0.000, 0.125, 0.000, -0.125, 0.000, 0.000, -0.125, -0.125, 0.125, -0.125, 0.000, 0.000, 0.000, 0.000, -0.250, 0.000, 0.125, -0.125, 0.000, 0.000, 0.125, 0.000, 0.000, 0.125, 0.000, 0.125, 0.000, 0.000, -0.125, 0.125, 0.000, 0.000, -0.125, -0.125, 0.000, -0.125, -0.125, 0.125, 0.000, 0.000, 0.125, 0.000, -0.125, 0.000, 0.125, 0.000, 0.000, -0.125, 0.125, 0.000, -0.125, -0.125, 0.125, -0.125, 0.000, -0.125, -0.125, 0.000, 0.125, 0.000, 0.125, -0.125, 0.125, 0.125, 0.125, -0.125, -0.125, 0.000, 0.000, -0.125, 0.000, 0.125, 0.125, 0.000, 0.000, 0.000, 0.000, -0.125, -0.125, -0.125, 0.125, 0.125, 0.000, -0.125, 0.125, 0.000, -0.125, -0.125, -0.250, 0.000, 0.125, 0.000, 0.000, -0.250, -0.125, 0.000, 0.000, 0.000, -0.125, -0.125, -0.125, 0.000, 0.000, 0.000, 0.000, -0.250, 0.000, 0.000, 0.000, -0.125, 0.125, 0.000, 0.125, -0.125, -0.250, 0.000, 0.000, 0.000, -0.125, 0.000, 0.000, 0.000, 0.000, 0.125, 0.000, 0.000, -0.125, 0.125, -0.125, 0.125, 0.000, 0.000, -0.125, -0.125, 0.000, 0.125, -0.125, -0.125, 0.000, 0.000, 0.000, 0.000, -0.125, 0.125, 0.000, 0.000, 0.000, 0.000, -0.125, 0.000, 0.000, 0.250, -0.250, 0.000, 0.000, 0.000, 0.125, 0.000, 0.000, -0.125, -0.125, 0.000, 0.125, -0.125, 0.000, 0.125, 0.125, 0.000, 0.000, 0.000, 0.000, 0.125, 0.125, 0.000, 0.000, 0.000, 0.125, 0.125, 0.000, 0.125, 0.000, 0.125, 0.000, 0.000, -0.125, 0.125, 0.000, 0.000, 0.125, 0.000, -0.125, 0.000, 0.000, -0.125, 0.125, 0.000, -0.125, -0.125, 0.000, 0.125, 0.000, 0.000, -0.125, 0.000, -0.125, -0.125, 0.125, 0.125, 0.000, 0.000, 0.125, -0.125, 0.125, 0.000, -0.125, 0.000, 0.125, -0.125, -0.125, -0.125, 0.250, 0.125, 0.000, 0.000, -0.250, 0.000, -0.125, -0.125, 0.000, -0.125, -0.125, 0.125, -0.125, 0.000, 0.000, -0.125, 0.125, -0.125, 0.000, -0.125, 0.000, -0.125, -0.125, -0.125, -0.125, -0.125, 0.000, 0.000, -0.125, 0.000, 0.125, 0.125, 0.000, -0.125, 0.125, -0.125, 0.000, 0.000, 0.000, -0.125, 0.000, -0.250, 0.000, 0.125, 0.125, 0.000, 0.000, 0.000, 0.000, 0.000, 0.250, 0.000, 0.000, 0.125, -0.125, 0.125, 0.125, 0.125, 0.000, -0.125, 0.125, 0.000, 0.000, 0.000, -0.125, -0.125, 0.000, 0.125, 0.000, 0.000, 0.000, 0.000, -0.125, -0.125, -0.125, 0.125, 0.125, 0.125, 0.000, -0.125, -0.250, 0.125, 0.000, 0.000, 0.000, 0.000, -0.125, 0.125, 0.125, 0.000, -0.250, 0.000, 0.000, 0.000, -0.125, 0.000, 0.125, 0.125, -0.125, -0.250, 0.000, 0.125, -0.125, 0.000, 0.000, -0.125, -0.250, 0.250, 0.125, -0.125, 0.125, -0.125, 0.000, 0.125, 0.000, -0.125, 0.000, -0.125, 0.125, -0.125, -0.125, 0.125, 0.000, 0.000, -0.125, -0.125, 0.000, 0.125, 0.000, 0.000, 0.000, -0.125, 0.000, 0.000, 0.000, 0.125, 0.000, 0.125, -0.125, 0.125, -0.125, 0.125, -0.125, 0.125, -0.125, -0.125, 0.125, 0.000, -0.125, 0.125, 0.125, 0.125, 0.000, 0.000, 0.000, -0.125, 0.000, 0.000, -0.125, 0.000, 0.125, 0.125, -0.125, 0.125, 0.000, -0.125, 0.125, -0.125, 0.000, 0.250, 0.125, 0.125, 0.125, 0.125, 0.000, 0.125, 0.125, 0.000, 0.000, 0.125, 0.125, 0.000, 0.125, 0.000, 0.000, 0.000, 0.125, 0.000, 0.000, 0.000, 0.125, 0.000, 0.125, 0.000, 0.125, -0.125, 0.000, 0.000, 0.000, -0.125, 0.000, 0.125, 0.125, 0.000, 0.000, -0.125, 0.000, 0.000, -0.125, -0.125, 0.000, -0.125, 0.000, -0.250, 0.000, 0.000, 0.000, 0.000, 0.000, 0.125, -0.125, -0.125, -0.125, 0.000, 0.000, -0.125, 0.000, 0.000, -0.125, 0.000, 0.000, 0.125, 0.125, 0.125, 0.125, 0.000, 0.000, 0.125, 0.000, 0.000, -0.250, 0.000, 0.125, -0.125, 0.000, -0.250, 0.000, 0.000, -0.125, 0.000, -0.125, 0.250, 0.000, 0.125, 0.000, -0.250, 0.000, 0.125, 0.125, -0.125, -0.250, 0.125, -0.250, 0.125, 0.000, 0.125, 0.000, 0.125, -0.125, -0.125, -0.250, 0.000, 0.000, -0.125, 0.125, 0.000, -0.125, -0.125, 0.250, -0.125, 0.000, 0.125, 0.000, 0.125, 0.000, 0.000, 0.000, -0.125, -0.125, 0.000, 0.000, 0.125, 0.000, -0.125, 0.125, 0.000, 0.000, 0.125, 0.000, 0.125, -0.125, 0.000, -0.125, 0.000, -0.125, 0.000, 0.000, 0.000, 0.125, 0.000, -0.125, -0.125, 0.000, 0.000, 0.125, 0.000, -0.125, -0.125, 0.125, -0.125, 0.000, 0.000, 0.000, 0.000, 0.000, 0.000, -0.125, 0.000, 0.000, 0.000, -0.125, 0.125, 0.125, 0.125, 0.000, 0.000, 0.000, 0.000, 0.125, 0.125, 0.000, 0.000, -0.125, 0.000, 0.125, 0.000, 0.125, 0.000, -0.125, 0.125, 0.125, 0.250, 0.125, 0.000, -0.125, 0.000, 0.000, -0.125, 0.000, -0.125, -0.125, 0.125, 0.000, 0.000, 0.000, 0.000, 0.000, -0.125, 0.000, 0.000, 0.000, 0.000, -0.125, 0.125, 0.000, 0.125, 0.125, -0.125, 0.000, 0.000, 0.125, 0.125, 0.125, 0.000, 0.000, 0.125, -0.125, 0.000, 0.000, -0.125, 0.000, 0.000, 0.125, 0.125, 0.000, 0.125, 0.250, 0.000, 0.125, 0.000, 0.000, 0.000, 0.000, 0.000, -0.125, 0.000, 0.000, -0.125, -0.125, 0.000, -0.125, 0.000, 0.000, -0.125, 0.000, 0.000, 0.125, -0.125, 0.125, 0.000, 0.000, -0.125, -0.125, -0.125, 0.000, 0.250, -0.125, -0.125, 0.125, 0.000, 0.000, 0.000, 0.000, 0.000, 0.000, 0.000, 0.125, -0.250, -0.125, 0.125, 0.000, 0.125, -0.125, -0.125, -0.125, 0.000, 0.000, -0.125, 0.000, 0.000, -0.125, 0.000, 0.000, 0.000, 0.000, -0.250, 0.125, 0.125, 0.125, -0.125, -0.125, 0.125, 0.125, 0.000, 0.000, 0.000, -0.125, 0.000, 0.125, 0.125, 0.000, 0.000, 0.000, 0.125, 0.000, 0.000, -0.125, 0.125, -0.125, 0.000, 0.000, 0.125, 0.125, 0.125, 0.125, 0.000, 0.125, 0.000, 0.000, 0.000, 0.000, 0.000, 0.000, 0.000, 0.000, -0.125, -0.125, 0.000, -0.250, -0.250, -0.125, 0.125, 0.000, 0.250, 0.000, -0.125, 0.000, 0.125, 0.000, 0.125, 0.125, -0.125, 0.250, 0.250, 0.000, 0.000, 0.000, -0.250, 0.125, 0.000, -0.125, -0.125, 0.125, 0.125, -0.125, 0.000, 0.125, 0.000, 0.000, -0.125, 0.000, -0.125, -0.125, -0.250, 0.000, 0.125, -0.125, -0.125, -0.125, 0.250, 0.000, 0.000, 0.000, -0.125, 0.125, 0.250, 0.000, 0.000, -0.125, 0.125, -0.125, 0.000, -0.125, 0.125, 0.000, -0.125, -0.125, 0.125, 0.125, -0.125, 0.000, -0.250, 0.125, -0.125, 0.125, 0.000, 0.000, -0.125, -0.125, -0.125, 0.125, 0.000, -0.125, 0.000, 0.000, -0.125, 0.000, 0.000, 0.000, 0.000, 0.125, 0.000, 0.000, 0.125, 0.000, 0.125, 0.000, 0.000, -0.125, 0.000, -0.125, -0.125, -0.125, 0.125, 0.000, 0.125, 0.000, -0.125, 0.000, 0.000, -0.125, 0.000, -0.125, 0.000, -0.250, 0.125, 0.125, 0.000, -0.125, 0.125, 0.000, 0.000, 0.000, 0.125, 0.000, -0.125, 0.000, -0.125, -0.125, 0.125, 0.125, 0.000, 0.000, 0.000, 0.000, 0.000, 0.250, -0.125, -0.125, 0.125, 0.000, 0.000, 0.000, 0.000, 0.000, 0.000, -0.125, -0.125, 0.000, -0.125, 0.000, 0.000, 0.000, 0.125, 0.125, 0.125, 0.125, 0.000, 0.000, 0.000, 0.000, -0.125, 0.125, 0.000, 0.125, -0.125, 0.125, 0.125, 0.250, -0.125, 0.000, 0.125, 0.125, -0.125, 0.000, 0.000, 0.000, 0.000, -0.250, 0.000, 0.000, -0.125, 0.125, -0.125, -0.125, 0.000, 0.000, -0.125, -0.125, 0.125, 0.000, -0.125, -0.125, 0.125, 0.000, 0.000, -0.125, 0.125, 0.125, 0.000, 0.000, 0.000, 0.125, 0.000, 0.000, -0.125, -0.125, 0.000, 0.000, 0.000, -0.125, -0.125, 0.125, 0.000, 0.125, 0.000, 0.000, 0.000, -0.125, 0.000, 0.000, 0.000, -0.125, -0.125, 0.000, 0.125, 0.000, 0.000, 0.000, 0.125, 0.000, 0.000, 0.250, 0.000, -0.125, 0.000, 0.000, 0.000, 0.000, 0.125, 0.000, 0.000, -0.250, 0.000, 0.125, -0.125, -0.250, 0.000, 0.125, 0.000, 0.125, -0.125, -0.125, 0.000, -0.125, 0.000, 0.000, 0.125, 0.000, 0.000, 0.000, -0.125, -0.125, 0.125, 0.125, 0.125, 0.000, 0.125, -0.125, -0.125, 0.250, 0.125, -0.125, -0.125, -0.125, 0.000, 0.000, 0.125, -0.125, 0.000, 0.000, 0.000, 0.000, 0.000, 0.000, 0.125, -0.125, 0.000, 0.125, 0.125, 0.125, 0.125, 0.000, 0.000, -0.125, 0.000, 0.000, 0.000, 0.000, 0.000, 0.000, 0.125, 0.000, 0.000, -0.125, 0.000, -0.125, 0.000, 0.000, 0.000, -0.125, 0.125, 0.000, 0.125, 0.000, 0.000, 0.000, 0.000, 0.125, 0.125, 0.125, -0.125, 0.125, 0.000, 0.000, -0.125, -0.250, 0.125, 0.125, -0.125, 0.000, 0.000, 0.000, -0.125, 0.000, 0.000, 0.000, -0.125, 0.000, 0.000, 0.125, -0.125, 0.000, 0.000, 0.125, 0.125, 0.000, -0.250, -0.250, 0.000, 0.125, 0.125, 0.000, 0.000, 0.125, 0.000, 0.125, 0.000, -0.250, -0.125, 0.125, 0.125, 0.000, -0.250, 0.000, 0.000, 0.125, -0.125, 0.000, 0.000, 0.125, 0.125, 0.000, 0.000, 0.125, -0.125, 0.000, 0.000, 0.000, -0.125, -0.125, -0.125, 0.125, 0.250, -0.125, 0.125, 0.000, 0.125, 0.000, 0.000, -0.125, -0.125, 0.000, 0.125, -0.125, -0.125, -0.125, 0.125, 0.125, -0.250, 0.000, 0.250, -0.125, -0.250, -0.375, 0.000, 0.250, 0.125, 0.125, -0.125, 0.000, 0.250, -0.125, 0.000, -0.125, 0.000, -0.125, 0.125, -0.125, -0.125, 0.000, -0.125, -0.125, 0.000, 0.125, 0.125, -0.125, 0.125, 0.000, 0.000, 0.000, 0.125, 0.250, 0.125, -0.125, -0.125, 0.000, -0.125, 0.125, -0.125, 0.250, -0.250, 0.000, 0.125, 0.000, 0.000, 0.125, 0.000, 0.125, -0.125, 0.000, -0.125, 0.000, 0.000, -0.250, -0.125, 0.000, 0.000, 0.000, -0.125, 0.000, 0.000, 0.000, 0.125, -0.125, -0.125, 0.000, -0.125, 0.125, 0.000, -0.125, -0.125, 0.125, 0.000, 0.125, 0.000, -0.125, -0.125, 0.125, 0.125, 0.000, 0.000, 0.000, 0.000, -0.125, 0.000, -0.250, 0.125, -0.250, 0.125, -0.125, 0.000, 0.125, 0.000, 0.000, -0.125, 0.000, 0.000, 0.000, 0.000, -0.125, 0.000, 0.000, 0.250, -0.125, -0.125, 0.125, -0.125, 0.000, -0.125, -0.125, -0.250, 0.000, -0.125, 0.000, -0.125, 0.125, 0.000, 0.000, -0.125, -0.250, 0.000, 0.000, -0.125, 0.125, 0.000, 0.000, -0.125, 0.000, 0.250, 0.125, -0.125, -0.125, 0.000, 0.000, 0.125, 0.125, -0.125, 0.000, 0.000, 0.000, 0.250, -0.125, -0.125, -0.125, -0.125, 0.000, 0.000, -0.125, 0.125, -0.250, -0.250, 0.000, -0.125, -0.250, 0.000, 0.000, -0.125, 0.000, -0.125, -0.250, 0.125, 0.000, 0.000, -0.125, -0.125, 0.000, 0.000, -0.125, -0.125, -0.125, -0.125, 0.000, 0.000, 0.000, -0.125, 0.000, 0.125, 0.125, -0.250, 0.125, -0.125, -0.125, -0.125, -0.125, 0.000, 0.000, 0.125, 0.000, 0.000, 0.000, 0.125, 0.000, 0.000, -0.125, 0.125, 0.000, 0.125, 0.000, -0.125, 0.000, 0.000, -0.125, 0.000, 0.000, -0.250, 0.125, -0.250, 0.000, 0.125, 0.125, 0.125, 0.000, 0.125, 0.250, 0.000, -0.125, 0.000, 0.000, 0.125, 0.000, 0.000, 0.125, 0.000, 0.000, 0.000, -0.125, 0.125, 0.000, -0.125, 0.000, 0.125, 0.000, 0.000, 0.000, 0.125, 0.250, 0.000, 0.000, -0.125, 0.000, 0.000, 0.125, 0.125, 0.000, 0.125, 0.125, 0.000, 0.000, -0.125, -0.125, 0.000, 0.000, 0.125, -0.125, 0.250, 0.125, -0.125, 0.000, 0.000, 0.000, 0.250, 0.000, 0.000, -0.125, 0.000, 0.000, -0.125, -0.125, 0.000, 0.000, 0.125, 0.250, 0.125, 0.000, 0.000, 0.000, -0.125, 0.125, 0.125, 0.125, -0.125, 0.000, 0.125, 0.000, 0.000, 0.125, 0.000, 0.000, 0.000, 0.000, -0.125, 0.000, 0.000, 0.125, 0.125, 0.000, 0.000, -0.125, 0.125, 0.000, 0.125, 0.000, 0.250, 0.125, 0.125, 0.000, 0.000, 0.125, -0.125, 0.000, 0.000, 0.000, 0.000, 0.000, 0.125, -0.125, 0.125, -0.125, 0.000, 0.000, -0.125, 0.000, 0.125, 0.000, -0.125, -0.125, 0.000, -0.125, 0.000, -0.125, 0.000, -0.125, 0.000, 0.125, -0.125, 0.125, 0.000, 0.000, 0.000, 0.000, 0.000, 0.000, 0.000, -0.125, 0.000, 0.000, 0.000, 0.125, 0.000, 0.125, 0.000, 0.000, 0.125, 0.000, 0.000, 0.125, -0.125, 0.000, 0.125, 0.125, 0.000, -0.125, 0.000, 0.000, -0.125, 0.000, 0.000, 0.125, -0.125, 0.125, 0.000, 0.000, 0.000, 0.000, 0.000, 0.000, 0.000, 0.125, 0.000, 0.000, 0.125, 0.125, 0.125, 0.125, 0.250, 0.000, -0.125, -0.125, 0.000, 0.000, 0.000, 0.000, 0.125, 0.000, 0.000, 0.000, 0.125, 0.250, 0.000, 0.000, -0.125, 0.125, 0.000, 0.125, 0.000, 0.000, -0.125, 0.000, 0.125, 0.000, 0.000, 0.000, 0.000, 0.000, 0.125, 0.000, 0.000, 0.000, 0.000, 0.000, 0.000, 0.125, 0.000, -0.125, 0.000, -0.125, -0.125, 0.125, 0.000, -0.125, 0.000, -0.125, 0.000, 0.000, 0.000, 0.000, 0.000, 0.000, 0.000, 0.000, 0.000, 0.000, 0.000, 0.000, 0.000, 0.000, -0.125, 0.125, 0.000, 0.000, 0.125, 0.000, 0.000, -0.250, 0.125, 0.000, 0.000, -0.125, -0.125, -0.125, 0.000, -0.125, 0.000, 0.000, 0.000, 0.125, 0.125, 0.000, 0.000, 0.000, 0.000, 0.000, 0.000, 0.000, 0.000, 0.000, 0.000, 0.125, 0.125, 0.000, 0.125, 0.000, 0.125, 0.125, 0.125, 0.250, 0.125, 0.125, 0.000, 0.125, 0.000, 0.125, 0.000, 0.000, 0.000, 0.000, 0.125, 0.000, 0.000, 0.000, 0.125, 0.000, -0.125, 0.000, 0.125, 0.250, 0.000, 0.000, 0.000, 0.000, 0.000, 0.000, 0.000, 0.000, 0.000, -0.125, 0.000, -0.125, 0.125, 0.125, 0.000, 0.125, 0.125, 0.000, -0.125, 0.125, 0.125, 0.000, 0.000, 0.125, 0.000, 0.000, -0.125, 0.125, 0.000, 0.000, 0.000, -0.125, 0.000, 0.125, 0.000, 0.125, 0.000, 0.000, -0.125, 0.000, 0.000, 0.125, 0.000, -0.125, 0.125, 0.000, 0.000, 0.000, 0.125, 0.000, 0.000, -0.125, 0.125, 0.125, 0.000, 0.000, 0.000, 0.000, 0.000, 0.000, 0.000, 0.125, 0.125, -0.125, -0.125, 0.000, 0.000, 0.125, -0.125, 0.125, 0.250, 0.125, -0.125, -0.125, -0.125, 0.250, 0.125, 0.125, -0.125, 0.000, 0.000, -0.250, 0.000, 0.125, 0.000, 0.000, 0.000, -0.125, 0.000, 0.125, -0.125, -0.125, 0.000, 0.125, 0.125, 0.000, 0.000, 0.125, 0.000, 0.125, -0.125, -0.125, 0.000, 0.125, 0.000, -0.125, 0.000, 0.000, 0.125, 0.000, -0.250, 0.000, 0.000, 0.125, 0.250, -0.125, 0.125, 0.000, 0.000, 0.125, -0.125, 0.000, 0.000, -0.125, 0.000, 0.000, -0.125, 0.000, 0.000, -0.125, 0.000, -0.125, 0.000, 0.000, 0.125, 0.125, 0.125, 0.000, 0.125, 0.125, 0.125, 0.000, -0.375, -0.125, -0.125, 0.000, 0.000, 0.125, -0.250, 0.000, -0.125, 0.125, -0.125, 0.000, -0.125, -0.250, 0.000, 0.000, 0.000, -0.125, 0.125, 0.000, 0.125, 0.000, 0.000, 0.000, -0.125, 0.000, 0.000, 0.125, 0.000, 0.000, 0.000, -0.250, -0.250, -0.125, 0.000, 0.125, 0.000, -0.125, 0.000, -0.125, 0.000, 0.125, -0.125, 0.000, -0.125, 0.125, 0.125, -0.125, 0.000, 0.000, 0.000, 0.000, -0.125, 0.000, 0.125, 0.125, -0.125, 0.000, 0.000, 0.000, -0.125, -0.250, -0.125, 0.000, -0.125, 0.000, 0.000, 0.000, 0.250, -0.125, 0.125, -0.125, 0.000, 0.000, 0.000, 0.125, 0.000, -0.125, 0.125, -0.125, 0.000, 0.000, -0.125, -0.125, 0.125, 0.125, 0.000, 0.000, -0.125, 0.000, 0.125, 0.000, 0.125, -0.375, -0.125, -0.125, -0.125, 0.125, 0.000, 0.000, -0.125, 0.000, -0.125, 0.000, 0.000, 0.125, 0.000, 0.000, 0.000, -0.250, 0.000, -0.125, -0.125, 0.000, -0.125, 0.000, 0.000, -0.125, 0.000, 0.125, 0.000, 0.000, 0.000, 0.000, 0.000, -0.125, 0.000, 0.000, 0.125, 0.000, -0.125, 0.000, 0.125, 0.125, 0.125, 0.000, 0.125, -0.125, -0.125, 0.000, 0.000, 0.000, 0.000, 0.125, 0.000, 0.125, 0.000, 0.125, 0.000, -0.125, 0.000, -0.125, 0.000, -0.125, 0.000, 0.125, 0.125, -0.250, 0.000, 0.125, 0.125, 0.125, -0.125, -0.125, 0.000, -0.125, 0.250, 0.000, -0.125, 0.000, -0.125, 0.000, -0.125, -0.125, 0.000, 0.000, 0.000, -0.125, 0.000, 0.125, 0.000, -0.125, 0.125, 0.125, 0.000, 0.125, -0.125, 0.125, 0.000, -0.250, -0.125, 0.000, 0.000, 0.000, -0.125, 0.000, 0.000, 0.125, 0.250, -0.125, 0.000, 0.000, 0.000, 0.000, 0.000, -0.125, 0.000, 0.375, 0.125, 0.000, 0.125, 0.000, 0.000, 0.000, -0.125, 0.000, 0.000, -0.125, 0.000, -0.125, 0.000, 0.000, 0.000, 0.125, 0.000, 0.000, 0.125, 0.250, 0.000, -0.125, -0.250, 0.000, 0.125, -0.125, -0.125, 0.000, 0.125, 0.125, 0.000, 0.000, 0.125, 0.000, 0.000, 0.000, 0.000, -0.125, 0.000, 0.000, -0.125, -0.125, 0.000, 0.000, -0.125, 0.125, -0.125, 0.250, 0.000, 0.000, 0.125, 0.000, 0.000, 0.000, 0.000, 0.125, 0.000, -0.125, 0.000, 0.125, -0.125, 0.000, 0.125, 0.000, 0.125, 0.125, 0.000, 0.000, 0.125, -0.125, 0.125, -0.125, 0.000, 0.000, -0.125, -0.125, 0.000, -0.125, -0.125, -0.125, -0.125, 0.125, -0.125, 0.125, -0.125, 0.000, 0.000, 0.000, 0.000, 0.125, 0.000, 0.000, 0.000, -0.125, 0.000, 0.000, 0.000, 0.125, 0.000, 0.125, 0.000, 0.000, 0.000, -0.125, 0.125, 0.000, 0.000, 0.125, 0.125, 0.000, 0.125, 0.125, 0.000, -0.125, -0.125, 0.000, 0.000, 0.125, 0.125, 0.125, 0.125, 0.000, 0.000, 0.000, 0.000, 0.000, 0.125, 0.000, 0.000, 0.125, 0.000, 0.000, 0.000, 0.125, 0.000, 0.000, 0.125, 0.000, 0.125, 0.125, -0.125, -0.125, 0.000, 0.000, 0.000, 0.000, 0.000, 0.125, -0.125, 0.000, 0.125, 0.125, 0.000, 0.000, 0.000, -0.125, 0.000, -0.125, -0.125, 0.000, 0.125, -0.125, 0.000, 0.125, 0.000, 0.000, 0.125, 0.000, 0.000, 0.000, 0.125, 0.125, -0.125, -0.125, -0.125, 0.000, 0.000, 0.125, 0.000, -0.125, -0.125, 0.000, 0.125, 0.125, -0.250, 0.000, 0.000, 0.000, -0.125, 0.000, 0.000, -0.125, 0.000, 0.000, -0.125, 0.125, 0.125, -0.125, 0.125, 0.000, 0.250, 0.250, -0.250, -0.250, 0.000, 0.125, 0.125, 0.000, 0.000, -0.125, -0.125, -0.125, 0.125, 0.000, 0.000, 0.000, -0.125, 0.000, 0.000, -0.125, 0.000, -0.125, -0.125, -0.125, 0.000, 0.000, -0.125, 0.000, -0.125, 0.000, -0.125, -0.125, 0.000, 0.000, -0.125, 0.000, 0.000, 0.125, 0.000, -0.125, 0.000, -0.125, -0.125, -0.125, 0.125, 0.125, 0.000, -0.125, 0.000, 0.000, 0.000, 0.000, 0.125, -0.125, 0.000, 0.000, -0.250, 0.125, -0.125, 0.000, -0.125, 0.000, 0.000, 0.000, 0.000, 0.125, -0.125, -0.125, 0.000, 0.000, 0.250, -0.125, -0.250, -0.125, -0.125, -0.125, -0.125, 0.000, -0.125, -0.125, 0.125, 0.000, 0.000, -0.125, -0.125, 0.000, -0.125, 0.125, 0.000, 0.125, -0.125, 0.125, 0.000, 0.000, 0.125, 0.000, 0.000, -0.125, -0.125, 0.000, -0.125, 0.000, -0.125, 0.125, 0.000, 0.250, -0.125, 0.125, 0.000, 0.000, -0.125, 0.000, 0.000, 0.000, 0.000, 0.000, 0.000, 0.000, 0.125, 0.125, 0.000, 0.000, 0.000, 0.000, 0.000, -0.125, 0.000, 0.000, 0.000, 0.000, 0.000, -0.125, -0.125, 0.125, 0.125, 0.125, 0.125, 0.000, -0.125, -0.125, 0.000, 0.000, 0.000, 0.125, 0.000, 0.000, 0.000, 0.000, -0.125, -0.250, -0.125, -0.125, 0.000, 0.000, -0.125, 0.000, -0.125, -0.125, 0.125, 0.000, 0.000, 0.125, -0.125, 0.125, 0.125, 0.000, 0.000, 0.125, 0.000, 0.125, 0.000, -0.125, -0.125, 0.000, 0.000, 0.000, 0.000, -0.125, -0.125, 0.125, -0.125, -0.125, 0.125, 0.125, -0.125, 0.000, 0.000, 0.125, 0.125, -0.125, 0.125, -0.125, -0.125, -0.125, 0.000, 0.000, 0.125, 0.000, 0.000, 0.000, 0.000, -0.125, 0.000, -0.250, 0.000, 0.000, -0.125, 0.125, 0.000, 0.125, 0.000, 0.000, 0.000, 0.000, 0.000, 0.000, -0.125, -0.125, 0.125, -0.125, 0.000, 0.125, -0.125, 0.000, 0.125, 0.000, 0.000, 0.000, 0.000, 0.125, 0.000, 0.000, -0.125, 0.125, 0.125, -0.125, 0.125, 0.000, 0.125, 0.000, 0.000, 0.125, 0.000, -0.125, 0.000, -0.125, 0.125, 0.250, -0.125, 0.000, 0.000, 0.000, 0.000, 0.125, 0.000, -0.125, 0.125, 0.000, 0.000, 0.000, -0.125, 0.125, 0.000, 0.000, -0.125, -0.125, 0.000, 0.000, 0.000, 0.125, 0.125, 0.000, 0.000, 0.125, -0.125, 0.000, -0.125, 0.250, 0.125, 0.250, 0.000, 0.000, 0.125, 0.125, 0.000, 0.000, -0.125, 0.000, 0.125, -0.125, 0.000, 0.000, 0.125, 0.250, 0.250, 0.250, 0.000, 0.000, -0.125, -0.125, 0.125, 0.000, 0.125, 0.000, 0.250, 0.125, 0.125, 0.000, 0.000, -0.125, 0.125, 0.125, 0.000, 0.125, 0.125, 0.000, 0.125, -0.125, 0.000, 0.125, 0.000, -0.250, 0.000, 0.000, 0.000, 0.000, 0.125, 0.125, -0.125, 0.125, -0.125, -0.250, -0.125, -0.125, 0.000, 0.125, -0.125, 0.125, -0.125, 0.000, 0.125, 0.000, -0.125, 0.125, 0.000, 0.000, 0.000, 0.000, 0.000, 0.125, 0.000, 0.000, 0.125, 0.000, 0.125, 0.000, 0.000, 0.000, 0.125, 0.000, -0.125, 0.000, -0.250, 0.000, 0.000, 0.125, 0.125, 0.000, 0.125, 0.125, -0.125, 0.125, -0.125, -0.125, 0.125, -0.125, -0.125, 0.000, 0.000, 0.125, -0.125, 0.000, -0.125, 0.125, 0.250, 0.125, 0.000, -0.125, 0.000, 0.000, 0.250, 0.000, -0.250, 0.000, 0.000, -0.125, 0.000, 0.125, 0.125, 0.000, -0.125, 0.000, 0.000, 0.000, -0.125, 0.000, 0.000, 0.000, 0.000, 0.000, 0.000, 0.000, 0.000, 0.000, 0.125, -0.125, 0.000, -0.250, -0.125, 0.000, -0.125, 0.000, -0.125, 0.000, 0.000, 0.000, 0.125, 0.000, -0.250, 0.125, -0.125, 0.125, -0.125, -0.125, 0.000, 0.000, 0.000, 0.000, 0.125, -0.125, 0.250, 0.000, 0.000, 0.000, 0.000, 0.125, -0.125, 0.000, 0.000, -0.250, 0.125, 0.000, 0.125, -0.125, -0.125, -0.125, 0.000, 0.125, 0.000, 0.000, -0.125, 0.000, -0.250, -0.125, 0.000, -0.125, 0.125, 0.000, -0.125, -0.125, 0.125, 0.125, -0.250, -0.125, 0.000, 0.000, 0.250, 0.250, 0.125, -0.125, 0.125, 0.125, 0.125, -0.250, -0.125, 0.250, 0.000, 0.000, 0.000, -0.125, -0.125, 0.000, 0.125, 0.000, 0.125, 0.000, -0.125, 0.000, 0.000, 0.125, -0.125, 0.000, 0.000, 0.000, 0.125, 0.125, 0.000, 0.125, -0.125, 0.000, 0.000, 0.000, 0.125, 0.125, -0.125, -0.125, 0.000, 0.000, -0.125, -0.125, 0.000, 0.000, 0.000, 0.125, 0.000, 0.000, 0.000, 0.000, 0.000, 0.125, -0.125, 0.125, 0.000, 0.000, 0.125, -0.250, 0.000, 0.000, 0.125, 0.000, -0.125, -0.125, 0.000, 0.000, 0.125, -0.125, 0.000, 0.000, 0.125, 0.000, -0.250, -0.125, -0.125, 0.125, 0.125, 0.125, -0.125, -0.125, -0.250, 0.125, 0.000, -0.125, 0.125, 0.000, 0.000, 0.125, 0.000, 0.000, -0.125, -0.125, -0.250, 0.000, 0.125, -0.125, 0.000, 0.000, 0.125, 0.000, 0.125, 0.125, 0.125, 0.000, -0.125, 0.000, 0.000, 0.000, -0.125, -0.250, 0.000, -0.125, 0.000, 0.000, -0.125, 0.000, 0.000, -0.125, 0.125, 0.125, 0.000, -0.125, 0.125, 0.000, 0.000, -0.125, 0.000, 0.125, 0.000, -0.125, -0.125, -0.125, -0.125, -0.125, -0.125, -0.125, -0.250, 0.000, -0.250, 0.000, 0.125, 0.000, -0.125, 0.000, -0.125, 0.000, -0.125, -0.250, -0.125, -0.125, 0.250, -0.125, 0.000, -0.125, 0.125, -0.125, 0.125, 0.000, 0.000, 0.125, 0.125, 0.125, 0.000, -0.250, 0.000, 0.125, 0.125, 0.125, -0.375, -0.125, 0.125, 0.125, 0.000, 0.000, -0.250, 0.000, -0.250, 0.000, -0.125, 0.000, -0.125, 0.125, 0.000, 0.125, 0.000, -0.125, 0.125, 0.000, -0.125, 0.000, 0.000, 0.000, 0.000, 0.250, 0.000, -0.125, 0.000, 0.125, 0.000, 0.000, 0.125, 0.125, 0.000, -0.125, 0.125, -0.125, 0.000, 0.000, 0.125, -0.125, 0.000, -0.125, 0.000, -0.125, 0.000, -0.125, -0.125, 0.000, 0.000, 0.125, 0.000, 0.000, 0.000, 0.000, 0.000, 0.000, 0.125, 0.250, -0.125, 0.000, -0.125, 0.125, -0.125, 0.000, 0.125, 0.125, -0.125, 0.000, 0.000, 0.000, 0.125, -0.125, 0.000, 0.000, 0.000, 0.000, 0.000, 0.000, -0.125, 0.000, -0.125, 0.125, -0.125, -0.125, 0.125, 0.125, 0.125, 0.000, -0.250, 0.250, 0.125, 0.125, 0.000, 0.000, -0.125, -0.125, 0.000, 0.000, -0.125, -0.125, -0.125, 0.000, 0.000, -0.125, 0.000, -0.125, 0.000, -0.125, -0.125, 0.125, 0.000, 0.000, 0.000, -0.125, 0.000, 0.000, 0.000, 0.000, 0.000, 0.000, 0.250, 0.125, 0.000, 0.000, 0.000, -0.125, 0.000, -0.125, -0.250, 0.000, -0.250, 0.125, 0.125, -0.125, 0.000, -0.125, 0.000, 0.000, -0.125, 0.000, -0.125, -0.250, 0.000, -0.125, 0.125, 0.000, 0.125, 0.000, 0.000, 0.000, 0.000, -0.125, -0.125, 0.000, 0.000, 0.125, 0.000, 0.125, 0.000, -0.125, -0.125, -0.125, -0.125, -0.125, 0.125, 0.000, 0.125, 0.000, 0.125, 0.125, 0.125, 0.000, 0.000, 0.000, -0.125, -0.125, 0.000, 0.000, 0.000, -0.125, 0.125, -0.125, 0.125, 0.000, -0.125, 0.125, 0.000, -0.125, 0.000, 0.000, 0.000, -0.250, 0.000, 0.125, 0.000, 0.125, 0.125, 0.000, 0.125, 0.000, 0.000, 0.000, 0.000, 0.000, 0.000, 0.125, 0.000, -0.125, 0.000, -0.125, 0.000, 0.000, 0.000, 0.125, 0.000, 0.125, -0.250, 0.000, 0.000, 0.000, 0.000, -0.125, 0.125, 0.000, -0.125, 0.125, -0.125, -0.125, 0.125, -0.125, 0.125, 0.000, 0.000, 0.125, 0.000, 0.125, -0.125, -0.250, 0.125, -0.125, 0.125, -0.125, 0.000, 0.000, 0.125, 0.000, -0.125, 0.000, 0.000, -0.125, 0.000, 0.000, -0.125, 0.125, 0.250, 0.000, -0.125, -0.125, -0.125, 0.000, 0.000, 0.125, 0.000, 0.000, -0.125, 0.000, -0.125, 0.000, 0.000, 0.000, 0.125, -0.250, 0.125, 0.125, 0.000, 0.000, 0.125, -0.125, -0.125, -0.125, 0.125, -0.125, -0.125, 0.000, 0.125, 0.000, 0.125, 0.000, 0.125, 0.125, -0.125, 0.000, 0.125, 0.125, 0.125, 0.125, 0.125, 0.125, 0.125, -0.125, 0.000, -0.250, 0.125, 0.125, 0.000, 0.000, 0.000, 0.125, 0.000, -0.125, 0.000, 0.000, 0.000, 0.000, 0.000, 0.000, 0.000, 0.125, -0.250, 0.000, 0.000, 0.000, 0.125, 0.000, -0.125, -0.125, 0.000, 0.000, 0.000, 0.000, 0.125, 0.000, 0.000, 0.125, -0.125, 0.125, 0.000, 0.125, 0.000, 0.000, -0.125, 0.000, 0.250, 0.125, 0.000, 0.000, 0.000, -0.125, 0.000, -0.125, -0.125, 0.000, 0.000, -0.125, 0.125, 0.125, -0.125, 0.000, -0.125, 0.125, -0.250, -0.125, -0.125, 0.000, 0.000, 0.125, -0.250, 0.125, 0.125, 0.000, -0.125, 0.000, 0.000, 0.000, 0.125, 0.000, -0.125, -0.125, 0.000, -0.125, 0.000, -0.250, -0.375, -0.125, 0.125, 0.000, 0.125, -0.125, -0.125, 0.000, 0.000, -0.125, 0.000, 0.000, 0.125, 0.125, 0.125, 0.000, -0.125, 0.000, 0.000, 0.125, 0.000, 0.125, 0.000, -0.250, 0.000, 0.000, 0.125, 0.000, 0.000, 0.000, 0.000, -0.125, -0.250, 0.125, 0.125, 0.000, 0.000, 0.125, -0.250, 0.000, 0.125, -0.125, 0.000, 0.000, 0.000, 0.000, 0.125, 0.000, 0.000, 0.000, -0.125, 0.000, 0.000, 0.000, -0.125, -0.250, -0.125, -0.125, 0.125, -0.125, 0.000, 0.000, -0.125, 0.000, -0.250, 0.125, 0.125, 0.000, 0.125, 0.000, 0.000, 0.000, 0.000, 0.000, -0.125, 0.000, -0.125, -0.125, 0.125, 0.125, 0.000, 0.250, 0.000, 0.000, 0.125, 0.000, 0.125, -0.125, 0.000, -0.125, -0.250, 0.125, 0.125, 0.125, -0.125, -0.250, 0.000, 0.000, 0.000, -0.125, 0.000, 0.000, 0.125, -0.125, -0.125, -0.125, 0.125, -0.125, 0.125, -0.125, -0.125, 0.000, -0.125, 0.125, 0.000, 0.000, -0.125, 0.000, -0.125, 0.000, 0.000, 0.000, 0.000, 0.000, -0.125, 0.000, -0.250, -0.125, -0.250, 0.125, 0.125, -0.125, 0.125, -0.125, -0.125, 0.250, 0.125, -0.125, -0.125, -0.250, 0.000, 0.000, 0.000, 0.125, -0.250, 0.125, -0.125, -0.125, -0.125, -0.125, -0.250, -0.250, 0.125, -0.250, -0.250, 0.125, 0.000, 0.125, -0.250, -0.375, -0.125, -0.250, 0.000, -0.125, -0.125, -0.250, 0.125, 0.000, 0.125, 0.000, 0.125, -0.250, 0.125, -0.250, 0.000, 0.125, 0.000, 0.000, 0.000, 0.125, 0.125, -0.125, 0.125, 0.000, 0.000, 0.000, -0.250, 0.125, 0.125, -0.125, 0.000, 0.125, 0.125, 0.000, 0.000, -0.125, -0.125, 0.250, 0.000, 0.000, 0.125, 0.000, 0.125, 0.000, 0.000, 0.000, 0.000, 0.125, 0.000, 0.000, 0.000, 0.000, 0.000, 0.000, 0.000, 0.000, 0.000, -0.125, 0.000, 0.000, 0.000, 0.000, 0.125, -0.125, 0.000, -0.125, 0.000, 0.000, -0.125, -0.125, 0.125, 0.000, 0.000, -0.125, 0.125, 0.000, 0.000, -0.125, 0.000, -0.250, 0.000, 0.000, -0.125, -0.125, 0.000, -0.125, -0.125, -0.125, 0.125, 0.125, 0.000, 0.000, 0.125, -0.125, 0.000, 0.000, 0.000, 0.125, 0.000, 0.000, -0.125, -0.250, 0.000, 0.125, 0.125, 0.000, 0.125, 0.125, -0.125, 0.000, 0.000, 0.000, 0.000, 0.000, -0.125, -0.125, 0.125, 0.000, 0.000, 0.125, -0.125, 0.125, -0.125, 0.125, -0.125, -0.250, 0.000, 0.000, 0.000, 0.125, 0.000, 0.125, -0.125, 0.000, 0.125, 0.125, 0.000, 0.000, 0.125, -0.125, 0.125, 0.000, -0.125, -0.125, 0.125, -0.125, 0.125, 0.000, 0.000, 0.125, 0.125, 0.000, 0.125, 0.125, 0.125, 0.125, 0.000, 0.000, 0.000, 0.000, 0.000, -0.250, 0.000, -0.125, -0.125, 0.125, -0.125, -0.125, -0.125, 0.000, 0.000, -0.125, 0.000, -0.125, 0.000, -0.125, 0.000, 0.125, 0.125, 0.000, 0.125, 0.000, 0.000, 0.000, 0.000, 0.000, -0.250, 0.125, 0.000, 0.125, 0.000, -0.125, -0.125, 0.000, 0.125, 0.250, 0.000, -0.125, 0.000, 0.000, -0.125, -0.125, 0.000, 0.125, 0.250, -0.125, 0.125, 0.125, -0.125, 0.000, 0.250, -0.125, -0.125, 0.125, -0.125, -0.125, 0.000, -0.125, -0.125, 0.000, 0.000, 0.000, 0.000, -0.125, -0.125, 0.125, 0.125, 0.125, -0.250, -0.125, 0.000, 0.000, 0.125, 0.125, 0.000, 0.000, -0.125, 0.000, 0.000, -0.125, 0.000, 0.000, 0.000, 0.000, 0.000, -0.125, -0.125, 0.000, 0.000, -0.125, -0.125, -0.250, 0.000, 0.000, -0.125, -0.125, 0.000, 0.000, 0.125, 0.125, -0.125, 0.125, -0.250, 0.000, 0.125, 0.000, 0.000, 0.000, 0.125, 0.000, 0.000, -0.125, 0.125, 0.125, 0.125, 0.000, 0.000, 0.000, -0.125, -0.125, -0.125, 0.000, 0.000, 0.000, 0.125, 0.125, 0.125, 0.000, -0.125, 0.125, 0.000, 0.000, -0.125, 0.125, -0.250, 0.000, 0.000, 0.000, 0.125, 0.125, 0.000, 0.125, -0.125, 0.000, -0.125, 0.000, 0.000, 0.000, 0.000, -0.125, 0.125, 0.125, 0.000, -0.125, 0.000, 0.125, 0.000, 0.000, 0.000, -0.125, 0.125, 0.000, 0.000, -0.125, -0.125, -0.125, 0.000, -0.125, -0.125, -0.125, -0.125, 0.125, 0.000, 0.125, 0.000, 0.000, -0.125, 0.125, -0.125, 0.000, 0.000, 0.125, 0.000, 0.000, 0.000, 0.125, -0.125, 0.000, -0.125, 0.125, -0.125, -0.125, -0.125, -0.250, 0.125, 0.000, 0.000, -0.125, 0.125, 0.125, 0.250, 0.000, 0.000, 0.000, 0.125, 0.000, 0.125, 0.000, -0.125, 0.000, 0.000, 0.000, 0.125, 0.000, 0.000, 0.125, 0.125, 0.000, -0.125, 0.125, 0.000, 0.125, -0.125, -0.125, 0.125, -0.125, 0.000, -0.125, -0.125, -0.125, -0.125, 0.125, 0.000, -0.125, 0.000, -0.125, 0.000, -0.125, 0.000, 0.125, -0.125, 0.000, -0.125, 0.125, 0.000, 0.000, 0.000, 0.000, 0.125, 0.000, -0.125, 0.250, 0.000, 0.125, 0.000, 0.000, 0.000, -0.125, 0.000, 0.125, -0.125, 0.000, 0.000, -0.125, 0.000, 0.125, 0.125, 0.000, -0.125, 0.000, 0.125, 0.125, 0.000, 0.125, 0.125, -0.125, 0.125, -0.125, -0.125, 0.125, 0.000, 0.125, 0.000, 0.000, -0.125, -0.125, 0.000, -0.125, 0.000, -0.125, 0.125, 0.000, -0.125, 0.000, 0.125, 0.000, 0.000, 0.000, 0.125, 0.125, 0.000, 0.000, 0.000, -0.125, 0.125, 0.000, -0.125, 0.000, 0.125, 0.000, 0.000, 0.125, 0.000, 0.125, -0.125, 0.125, 0.000, 0.000, 0.000, -0.125, 0.125, 0.000, 0.125, 0.125, -0.125, 0.000, 0.000, 0.000, 0.000, 0.000, 0.000, 0.000, -0.250, 0.125, -0.125, 0.000, 0.125, 0.125, 0.125, 0.000, 0.000, 0.000, 0.125, 0.000, 0.000, 0.000, -0.125, 0.000, 0.125, 0.000, -0.125, 0.000, 0.000, 0.000, 0.000, 0.000, 0.000, 0.125, 0.000, 0.000, 0.000, 0.000, 0.000, 0.000, 0.000, -0.125, 0.000, 0.125, 0.000, 0.125, 0.000, 0.000, -0.125, 0.000, 0.125, 0.125, -0.125, -0.125, 0.000, -0.250, 0.000, 0.000, 0.000, 0.000, 0.125, 0.000, 0.250, 0.000, 0.125, 0.000, 0.000, -0.125, 0.125, -0.125, 0.000, 0.125, -0.125, 0.000, -0.125, 0.125, -0.125, 0.125, -0.125, 0.000, -0.125, 0.250, 0.000, 0.125, 0.000, 0.125, -0.125, 0.125, 0.000, 0.125, -0.125, 0.000, -0.125, 0.000, 0.000, 0.125, 0.000, -0.250, 0.125, -0.125, 0.125, 0.125, 0.000, -0.125, 0.000, -0.125, 0.125, -0.125, -0.125, 0.125, -0.125, -0.125, 0.000, -0.125, 0.000, -0.125, -0.125, -0.125, -0.125, 0.125, 0.000, 0.125, 0.000, 0.000, 0.000, 0.000, 0.000, 0.000, -0.125, -0.125, 0.125, 0.125, -0.125, -0.125, 0.000, -0.125, -0.125, 0.000, -0.125, -0.125, 0.125, -0.125, 0.000, -0.125, 0.000, 0.125, 0.000, -0.125, 0.125, -0.125, 0.250, -0.125, 0.000, 0.000, 0.000, 0.125, 0.000, 0.000, 0.125, 0.000, 0.000, 0.000, 0.125, 0.000, 0.000, 0.125, 0.000, 0.000, 0.125, 0.125, 0.125, 0.250, 0.000, 0.125, 0.000, -0.125, 0.000, 0.125, 0.000, 0.125, 0.000, -0.125, 0.000, -0.125, 0.000, 0.000, 0.000, 0.000, 0.000, 0.125, 0.000, 0.000, 0.000, -0.125, 0.000, 0.000, 0.125, 0.000, 0.000, -0.125, 0.000, 0.000, 0.000, 0.000, 0.000, -0.125, 0.125, -0.125, 0.125, 0.000, -0.125, 0.125, 0.000, 0.000, -0.250, 0.250, 0.000, -0.125, -0.125, -0.125, 0.000, 0.000, -0.250, 0.000, 0.125, -0.125, 0.000, 0.125, 0.000, -0.250, 0.000, -0.125, 0.000, 0.125, -0.125, 0.000, 0.000, 0.000, 0.000, -0.125, -0.125, 0.125, 0.000, 0.000, 0.000, 0.000, -0.125, 0.000, 0.000, 0.125, 0.125, 0.000, -0.125, -0.125, 0.000, 0.000, -0.125, -0.125, 0.000, 0.000, -0.125, -0.125, 0.000, 0.000, 0.000, -0.125, 0.000, 0.000, -0.125, 0.125, 0.000, -0.125, 0.125, -0.125, -0.250, 0.000, 0.000, 0.125, 0.000, 0.000, 0.125, -0.125, 0.000, -0.125, -0.125, -0.125, 0.125, 0.000, -0.125, 0.000, 0.000, 0.125, -0.125, -0.125, -0.125, -0.125, 0.125, -0.125, -0.125, 0.125, 0.000, 0.000, 0.000, 0.125, 0.125, -0.250, 0.125, 0.125, -0.125, 0.000, 0.000, 0.125, 0.000, 0.000, 0.000, 0.125, 0.000, 0.000, 0.000, -0.125, 0.000, 0.125, 0.000, 0.125, 0.125, -0.125, 0.000, 0.125, 0.000, 0.000, 0.000, -0.250, 0.000, -0.125, 0.000, 0.000, 0.000, 0.000, 0.000, -0.125, 0.000, -0.125, 0.000, 0.125, 0.000, 0.000, 0.125, 0.000, 0.000, -0.250, 0.000, 0.000, 0.125, -0.250, 0.000, 0.000, -0.125, 0.000, 0.000, 0.000, 0.000, -0.125, 0.000, -0.125, -0.125, 0.000, -0.125, -0.125, -0.125, 0.125, 0.000, 0.000, 0.000, 0.000, 0.000, -0.125, 0.000, 0.000, 0.000, 0.000, -0.125, 0.125, 0.000, -0.125, 0.125, 0.250, -0.125, 0.000, 0.000, 0.000, -0.125, 0.000, 0.000, 0.000, -0.125, 0.000, 0.000, 0.125, 0.000, 0.000, 0.000, 0.000, -0.125, 0.000, 0.125, 0.125, 0.125, -0.125, 0.125, -0.125, 0.000, 0.125, -0.125, 0.125, -0.125, 0.125, 0.250, 0.125, -0.250, 0.125, 0.125, 0.000, -0.250, -0.125, -0.125, -0.250, 0.000, -0.125, -0.125, 0.125, 0.125, -0.125, -0.125, 0.000, 0.000, 0.000, 0.125, -0.125, -0.125, -0.125, 0.125, 0.250, 0.125, -0.125, 0.000, 0.125, 0.000, 0.125, 0.000, 0.000, -0.125, 0.125, 0.000, 0.000, 0.000, 0.125, -0.125, 0.000, 0.125, 0.125, 0.000, 0.500, -0.125, 0.000, 0.000, 0.125, 0.000, 0.125, 0.000, 0.000, -0.125, 0.000, 0.000, 0.250, 0.125, -0.125, 0.000, 0.250, -0.125, 0.125, 0.125, 0.125, 0.000, 0.125, 0.000, 0.000, -0.125, -0.125, 0.000, 0.000, 0.125, 0.000, -0.250, 0.125, -0.375, 0.000, -0.125, -0.250, -0.125, 0.000, -0.250, -0.250, -0.250, 0.000, 0.125, 0.125, -0.125, 0.000, -0.125, -0.250, 0.000, -0.250, -0.250, -0.125, -0.250, 0.000, 0.000, -0.250, 0.125, 0.000, 0.250, -0.125, -0.125, 0.375, -0.250, 0.000, -0.250, 0.000, 0.000, 0.000, -0.125, 0.125, 0.000, 0.000, 0.125, 0.000, -0.125, 0.000, -0.125, 0.000, 0.000, 0.000, -0.250, -0.125, -0.125, 0.125, 0.000, 0.125, 0.125, 0.125, 0.125, 0.000, 0.000, 0.000, -0.125, 0.000, -0.125, 0.125, 0.000, 0.125, -0.125, -0.250, 0.000, 0.000, -0.125, 0.000, 0.000, 0.125, 0.000, -0.125, -0.125, 0.000, 0.000, -0.125, 0.000, -0.250, -0.125, -0.125, 0.000, 0.000, 0.125, 0.000, -0.125, -0.125, 0.000, -0.125, 0.125, 0.000, 0.000, -0.250, 0.000, -0.250, -0.125, 0.000, 0.000, -0.250, 0.000, -0.125, 0.000, 0.000, 0.000, -0.125, 0.000, -0.125, 0.000, -0.125, 0.000, -0.125, -0.125, 0.000, -0.125, 0.000, 0.000, -0.125, 0.000, 0.000, 0.125, -0.125, 0.000, 0.000, -0.125, -0.250, 0.125, 0.000, 0.125, 0.000, 0.000, 0.125, 0.000, 0.000, -0.125, -0.125, 0.000, -0.125, 0.000, 0.125, 0.125, 0.000, 0.000, 0.125, -0.125, -0.125, 0.000, -0.250, 0.000, 0.000, 0.125, 0.000, -0.250, 0.125, -0.125, 0.000, 0.125, 0.000, 0.000, -0.125, -0.125, 0.000, 0.125, 0.000, 0.000, 0.000, 0.000, 0.000, -0.125, -0.125, 0.000, 0.000, 0.125, 0.000, -0.125, -0.125, -0.125, 0.000, 0.000, -0.125, 0.000, 0.000, -0.125, 0.000, -0.250, 0.125, 0.000, -0.250, 0.125, -0.125, -0.125, 0.000, 0.125, -0.125, 0.125, 0.125, 0.000, 0.000, 0.125, 0.000, -0.125, 0.125, 0.125, 0.000, 0.125, -0.125, -0.250, 0.000, -0.125, -0.125, 0.125, -0.125, -0.125, 0.000, 0.000, 0.250, 0.000, 0.125, 0.000, -0.125, 0.000, -0.250, 0.000, 0.000, 0.125, -0.125, 0.000, -0.125, 0.000, 0.125, 0.000, 0.000, 0.125, 0.000, 0.125, 0.000, 0.000, -0.125, 0.125, 0.125, 0.000, -0.125, -0.125, 0.000, 0.000, 0.000, 0.000, 0.000, -0.125, 0.000, 0.000, 0.125, -0.125, 0.125, 0.125, 0.000, 0.000, 0.000, -0.125, 0.125, 0.125, 0.000, -0.250, -0.125, 0.125, 0.000, 0.000, -0.125, -0.125, 0.000, 0.000, 0.125, 0.125, 0.125, -0.125, 0.000, 0.000, 0.000, 0.000, 0.125, 0.125, -0.125, 0.000, -0.125, -0.125, 0.000, -0.125, 0.000, 0.000, 0.125, -0.125, 0.125, 0.000, 0.000, -0.250, -0.125, 0.000, -0.125, 0.000, -0.125, -0.125, 0.000, 0.125, -0.125, 0.000, -0.125, 0.000, -0.125, 0.000, 0.000, -0.125, 0.000, 0.125, -0.125, 0.000, 0.125, -0.125, 0.000, 0.000, 0.125, -0.125, 0.125, -0.125, -0.125, 0.000, 0.000, 0.000, 0.000, 0.000, 0.125, 0.125, -0.125, -0.125, 0.000, 0.125, 0.000, 0.000, 0.000, 0.000, -0.125, 0.000, 0.000, 0.000, 0.000, 0.125, 0.000, 0.125, 0.000, 0.000, 0.000, 0.000, -0.125, 0.000, 0.000, -0.125, 0.000, 0.000, 0.125, 0.000, 0.000, -0.125, 0.000, 0.125, -0.125, -0.125, 0.000, 0.125, 0.000, 0.000, 0.000, -0.125, -0.125, -0.125, -0.125, -0.125, 0.125, 0.125, 0.125, 0.125, 0.000, 0.000, 0.000, 0.125, 0.000, 0.000, -0.125, 0.125, 0.000, 0.000, 0.000, 0.000, 0.000, 0.000, 0.125, 0.000, -0.250, 0.000, 0.000, -0.125, -0.125, 0.000, -0.125, 0.000, 0.125, 0.000, 0.000, 0.125, 0.000, 0.000, 0.125, 0.000, -0.125, -0.125, -0.125, -0.125, 0.000, 0.000, 0.000, -0.125, 0.000, 0.000, 0.000, 0.000, 0.000, 0.125, -0.125, 0.000, -0.125, -0.125, 0.125, 0.000, 0.000, -0.125, 0.000, -0.125, 0.000, 0.125, -0.125, 0.000, 0.000, 0.125, 0.125, -0.125, 0.000, -0.125, -0.125, -0.250, 0.000, 0.000, 0.000, -0.125, 0.125, 0.000, 0.125, 0.250, -0.125, 0.000, -0.125, -0.125, 0.125, 0.000, -0.125, 0.000, 0.000, -0.125, -0.250, 0.000, 0.000, 0.125, 0.125, -0.125, -0.125, 0.125, -0.125, 0.000, -0.125, -0.125, 0.250, 0.125, -0.125, 0.000, 0.125, -0.125, -0.125, 0.000, 0.125, 0.000, 0.125, -0.125, 0.250, -0.125, 0.125, 0.000, 0.125, 0.125, 0.000, -0.250, -0.125, -0.125, 0.125, 0.125, -0.125, 0.000, 0.000, 0.125, -0.125, 0.000, -0.125, 0.125, 0.000, 0.000, 0.125, 0.000, 0.000, 0.000, -0.125, 0.125, 0.000, 0.000, 0.000, 0.000, 0.000, 0.125, -0.125, 0.000, 0.000, 0.000, 0.125, 0.000, 0.125, 0.000, -0.125, -0.125, 0.000, 0.000, -0.125, -0.125, 0.125, 0.000, 0.125, 0.125, 0.000, -0.125, 0.000, 0.000, -0.125, -0.125, 0.000, 0.000, 0.000, 0.000, 0.125, -0.125, 0.125, -0.125, -0.125, -0.125, 0.000, 0.125, -0.125, -0.125, 0.000, 0.000, 0.000, 0.125, 0.125, 0.000, 0.125, 0.125, -0.125, -0.125, 0.000, 0.000, 0.000, 0.000, -0.125, -0.125, -0.125, 0.125, 0.000, -0.125, 0.125, 0.000, 0.000, 0.000, -0.125, -0.125, -0.125, -0.125, 0.125, 0.000, 0.125, 0.000, -0.125, -0.250, 0.000, 0.000, 0.000, 0.000, -0.125, 0.000, 0.125, 0.000, 0.250, 0.000, -0.125, -0.125, 0.125, 0.000, 0.000, -0.125, 0.000, 0.125, 0.000, 0.125, 0.125, 0.000, 0.000, 0.125, 0.000, 0.000, -0.125, 0.000, 0.000, 0.000, 0.000, -0.125, 0.125, 0.125, 0.000, 0.000, 0.000, 0.000, 0.000, -0.125, -0.125, 0.000, 0.000, -0.125, -0.125, 0.125, 0.125, 0.125, 0.125, 0.000, 0.000, 0.125, 0.125, -0.125, 0.000, 0.125, 0.000, 0.125, 0.125, -0.125, -0.125, 0.000, 0.125, 0.000, 0.000, 0.000, -0.125, 0.125, 0.000, 0.125, -0.125, -0.125, -0.125, 0.000, 0.000, 0.000, -0.125, 0.000, -0.125, 0.000, 0.000, -0.250, 0.000, 0.125, 0.000, -0.125, 0.000, 0.000, -0.125, 0.000, 0.000, -0.125, 0.000, -0.125, -0.125, -0.125, 0.000, -0.125, 0.000, 0.000, 0.125, 0.000, 0.000, 0.000, -0.125, 0.000, 0.000, 0.000, -0.125, 0.000, -0.125, 0.125, 0.000, -0.125, 0.000, 0.000, 0.000, -0.125, 0.125, 0.000, 0.000, 0.000, 0.000, 0.000, 0.000, -0.125, 0.000, 0.125, -0.125, 0.000, 0.000, -0.125, -0.125, 0.000, 0.125, 0.000, -0.125, 0.000, 0.125, 0.125, 0.000, 0.000, 0.000, 0.125, -0.125, -0.125, -0.125, 0.000, 0.000, 0.000, -0.125, 0.125, -0.125, 0.125, 0.000, 0.125, -0.125, -0.125, -0.125, -0.125, 0.125, 0.000, -0.125, 0.125, 0.000, -0.125, 0.000, 0.000, 0.000, 0.000, -0.250, -0.125, 0.125, 0.000, -0.125, 0.125, 0.000, 0.000, 0.125, 0.000, -0.125, -0.125, 0.125, 0.125, 0.000, -0.125, 0.000, 0.000, 0.000, 0.125, 0.000, 0.125, 0.000, 0.000, 0.000, 0.125, 0.000, 0.000, 0.000, 0.125, 0.125, 0.125, -0.125, 0.000, 0.000, 0.000, 0.000, 0.000, 0.125, 0.000, 0.000, 0.125, -0.375, 0.125, 0.000, 0.000, 0.250, 0.000, 0.000, 0.000, -0.125, 0.125, 0.125, 0.125, 0.125, 0.125, 0.125, 0.000, 0.000, 0.125, 0.125, 0.125, -0.125, 0.000, 0.125, 0.125, 0.000, -0.125, 0.000, -0.125, 0.000, 0.000, 0.000, 0.000, -0.250, -0.125, 0.125, 0.000, 0.125, -0.125, 0.000, 0.000, 0.000, 0.125, 0.000, -0.125, 0.000, 0.000, 0.000, 0.000, 0.000, 0.000, 0.125, 0.000, 0.000, 0.125, -0.125, -0.125, -0.125, 0.000, 0.000, -0.250, 0.000, 0.000, 0.000, 0.000, -0.125, -0.125, 0.125, 0.125, 0.125, 0.125, 0.125, -0.125, 0.000, 0.125, -0.125, 0.000, 0.000, 0.000, 0.125, 0.000, 0.000, 0.000, 0.000, -0.125, 0.125, 0.000, 0.000, -0.125, 0.125, -0.125, -0.125, 0.000, 0.000, -0.125, -0.125, 0.125, -0.250, 0.125, 0.000, -0.125, 0.125, 0.125, 0.125, -0.125, 0.000, -0.125, -0.250, 0.000, 0.000, -0.250, -0.125, 0.125, 0.125, -0.125, 0.000, 0.125, -0.125, 0.125, -0.250, 0.125, 0.000, 0.125, 0.125, -0.125, -0.125, 0.000, -0.125, 0.250, -0.250, 0.125, 0.125, 0.125, 0.125, -0.125, 0.125, 0.000, 0.000, -0.125, -0.250, 0.000, 0.125, 0.000, 0.125, 0.000, -0.125, -0.125, 0.125, 0.000, -0.125, -0.125, -0.125, -0.125, 0.000, 0.000, 0.000, 0.125, -0.125, 0.000, 0.125, 0.125, -0.250, 0.125, 0.000, 0.125, 0.000, 0.000, 0.125, 0.000, 0.000, 0.125, 0.125, 0.000, -0.125, 0.125, 0.000, 0.000, -0.125, 0.125, -0.125, 0.000, 0.000, 0.125, -0.125, 0.000, 0.000, 0.000, 0.125, 0.000, -0.125, 0.000, -0.125, 0.000, 0.125, 0.125, -0.125, -0.125, 0.000, -0.125, 0.125, 0.125, -0.125, 0.000, 0.000, -0.125, 0.125, 0.000, 0.000, 0.000, 0.000, 0.000, 0.000, 0.000, 0.125, 0.000, 0.000, 0.000, 0.000, 0.000, 0.000, 0.000, 0.125, 0.125, 0.000, 0.000, -0.125, -0.125, -0.125, 0.125, -0.125, 0.125, 0.000, 0.125, 0.000, 0.000, 0.000, 0.000, -0.125, 0.000, -0.125, 0.000, 0.000, 0.125, 0.125, 0.125, -0.125, 0.000, 0.000, 0.125, 0.000, -0.125, 0.000, 0.000, -0.125, -0.125, 0.000, 0.000, -0.250, 0.000, 0.000, 0.000, -0.125, 0.000, 0.000, 0.125, 0.000, 0.000, 0.000, -0.125, 0.125, 0.000, 0.000, -0.125, 0.000, 0.125, 0.000, -0.125, 0.000};

#endif

#endif
