//Numpy array shape [3, 3, 8, 16]
//Min -0.951229631901
//Max 0.665516138077
//Number of zeros 0

#ifndef W5_H_
#define W5_H_

#ifndef __SYNTHESIS__
conv2d_1_weight_t w5[1152];
#else
conv2d_1_weight_t w5[1152] = {0.1189817339, 0.2129408419, -0.1861148775, -0.1085770726, 0.4865338504, -0.1682381183, 0.1689879894, 0.2226948589, 0.5420824289, 0.4972888231, -0.1331425309, -0.0774421915, 0.0082154283, 0.1595598757, -0.5219289660, -0.0081872176, 0.1814303249, 0.3830019832, -0.3646713197, 0.3516154885, -0.2659394741, -0.2540611029, 0.0003085202, -0.2099995166, 0.2164188623, 0.2238584012, -0.1870303303, -0.0940608606, 0.0584893487, 0.2108252048, -0.2725528479, -0.0292254873, 0.1382815540, 0.4278480113, -0.1019456983, 0.2323452383, -0.2273048013, -0.0411033481, -0.3833219111, -0.1685892045, -0.2255654037, 0.2095148563, -0.2368524224, 0.0528997108, -0.3094831109, -0.3176680207, 0.0164986551, -0.0988156199, -0.0507420637, 0.4308197796, -0.0256003253, 0.0435808674, -0.1886858195, 0.1094074994, -0.2732573450, -0.0475430787, -0.0595426299, 0.2559591234, -0.0304245055, 0.2281751037, -0.2176169604, -0.1469257474, -0.1883048117, -0.4151148498, -0.3993205726, -0.2714535594, 0.0251404326, 0.2139523327, -0.1686400175, -0.3039806187, 0.0913469419, -0.0242083911, -0.1016286984, -0.1681827903, 0.0779618397, 0.1573518366, 0.1818859875, -0.0355680548, 0.2557951510, 0.1823904514, 0.2171140164, -0.1572408825, 0.2248341590, -0.2223111689, 0.1627851576, 0.1998713166, -0.1250852346, 0.1278354973, 0.0960357487, -0.2165621817, 0.3681501150, -0.2550765574, 0.1562417001, 0.1037516445, -0.0596057810, 0.2143921554, -0.1154195219, 0.1041444764, 0.1258521825, -0.4090448916, -0.1188345402, 0.2222050428, -0.2713154256, 0.0008555573, -0.1560786217, -0.1895229369, 0.4502978027, -0.2344065905, -0.0592933260, 0.1977283210, -0.3230356276, 0.0026941346, -0.1749224812, -0.0816298947, 0.3823661804, -0.2853398323, 0.1252648085, 0.1615821421, -0.1805185676, -0.0448504724, -0.0116058160, -0.0702056661, 0.6291002035, 0.2916784883, -0.0899161920, 0.1884479225, 0.3082343936, -0.0306980163, -0.4797242880, -0.2039215565, 0.3248800337, 0.2019922286, -0.0273408871, -0.1040244848, 0.3327462375, 0.1401679218, -0.3416521549, 0.1522985399, 0.1689122617, 0.0994625539, -0.1580555737, 0.1401631385, 0.0536994077, 0.0388645381, -0.0935247466, -0.0040814797, -0.0856146961, -0.3230400085, -0.0240716375, 0.2921759784, -0.1790247113, 0.2703821659, -0.0512061864, -0.4082724154, 0.1713951677, -0.0830847621, 0.1407894045, -0.1718626916, 0.2011304647, 0.1725423187, 0.1688359380, -0.0550490096, 0.2690522373, -0.1899887919, 0.0856545866, 0.0266310573, 0.0340379365, -0.0912076607, -0.2000884563, -0.2442757040, -0.2654735446, 0.0258872565, -0.1424374729, 0.0243498068, 0.1096296087, -0.0017887867, 0.1667568386, -0.2741095126, -0.1556918472, -0.2404432297, -0.0844639465, -0.1658723056, 0.0955760479, 0.1702218354, 0.3055033386, -0.0259956215, -0.2004827559, -0.2552355528, -0.0494297780, -0.1218365654, -0.0272171367, 0.2182728052, -0.0710418671, 0.0013405783, -0.1072671413, -0.2163753361, -0.2520238459, 0.1283856332, -0.1190001592, 0.0419929847, -0.0291951150, -0.1805076301, -0.1219912693, -0.0232817587, 0.0031660839, -0.1107286811, 0.1001605541, 0.2322060019, 0.1593310833, -0.2326477319, -0.0907478482, -0.1312742978, 0.1556436718, -0.1069401354, 0.1587812155, 0.1227311641, -0.0616869368, -0.2069175988, 0.3775056005, -0.1959990561, 0.1908295602, 0.1159719378, 0.1888834834, 0.0053037242, 0.0338586122, -0.1136174947, 0.5637552738, -0.4785867035, -0.0270892512, 0.3972478807, -0.3829093575, 0.1616597772, -0.0696048215, 0.3267026544, 0.2160235494, -0.6093204021, -0.2377146184, 0.3638919890, -0.4129404724, 0.1344948411, -0.0880182311, -0.2398763448, 0.4671634436, 0.0409960970, -0.2676244378, 0.4924019873, -0.2823740244, 0.0895596892, -0.5025379658, -0.0197951570, 0.2202870548, 0.4441370070, -0.2450449467, 0.3645402491, 0.2690359056, 0.2046068013, -0.3041023612, -0.1326903999, 0.0148305735, 0.3025814593, -0.2190548480, 0.0040050242, 0.2682029903, -0.0095818033, 0.0291745216, -0.4234003425, 0.0894382149, 0.4633890986, 0.2729824781, -0.6235055327, 0.5197876096, 0.2254503965, -0.2997845411, -0.0573030412, -0.1520857364, 0.4110906124, 0.2787652314, -0.2022375464, 0.2728016376, 0.1090016961, -0.1132276952, 0.0500774942, -0.1247837916, 0.1353783309, 0.0456604734, 0.3506186604, 0.1305427998, -0.1111627072, 0.1947421432, -0.3523341417, 0.2267081887, -0.0784434080, -0.0545285158, -0.0658663139, -0.1309891045, -0.0585156307, 0.1517144740, -0.0709704831, 0.5981023312, 0.0211309735, -0.0099858399, -0.0504246503, -0.0240812227, 0.0280294903, -0.0171108637, -0.1427147985, 0.6064373255, -0.0406710505, -0.3823780119, -0.3261276782, 0.0327893384, -0.3802302778, 0.0958337635, -0.3457731009, 0.0114044929, -0.3245790005, 0.1696991473, 0.0879943073, -0.1574997902, 0.0581290275, 0.1291753799, -0.4184296131, 0.2358014733, -0.2005842924, 0.2042348832, -0.1403480470, 0.0403793491, 0.0832277313, 0.0611500144, -0.0142465644, 0.0175662059, -0.1781157404, -0.0347978771, -0.2019379139, -0.0354101956, 0.0371729657, -0.2302504629, -0.2655775845, 0.1145911366, -0.3107439876, -0.1395293921, 0.0128553957, -0.1532475650, 0.2718947828, 0.0292935707, 0.0408809073, -0.1324907690, -0.0660335794, 0.1854103804, -0.3003596067, -0.0016457912, 0.3035387099, -0.0033532316, -0.1613389403, -0.1449609250, 0.0868778899, 0.2209407389, -0.3686103523, -0.1629436165, -0.0171403121, 0.0048371474, -0.0407132618, -0.1877976209, -0.0209995285, 0.0940906480, 0.1989709884, -0.1154409721, 0.0366125144, -0.3433583081, -0.0260579139, -0.2646107376, 0.0301614944, -0.1436188370, -0.0220282022, -0.0643529519, 0.0662766621, -0.3262861371, -0.2837773263, -0.2593566775, 0.2123424560, 0.3500707150, -0.3300223947, 0.2518859506, 0.3547621667, -0.2605268657, 0.0418743119, 0.0607606322, 0.0005099461, -0.2948026955, 0.2616344988, -0.0801610276, -0.1582738012, -0.7861909270, 0.0226457864, -0.2893499434, 0.1833341569, 0.0187601466, -0.0522480831, 0.0754635110, 0.2626491487, -0.0814744532, -0.1781401485, -0.6366063952, 0.3313991427, 0.3067391813, -0.2911793292, 0.4842458069, 0.2184130400, -0.3514050841, 0.1018453762, -0.1796515733, 0.0786545798, -0.3788760304, -0.0774962306, 0.1484007388, -0.2587230504, -0.1008576229, 0.0977421626, -0.3731803596, 0.0299411416, 0.0988705829, -0.4731001258, 0.1267380118, 0.1585108936, 0.1285128444, 0.1667572409, -0.3088236451, 0.2560238540, 0.1400968283, -0.2837503850, 0.0867808610, 0.1465242654, 0.1477261186, -0.1282793134, 0.1226353273, 0.3290903568, -0.0319160335, 0.0229589064, 0.0398711078, -0.0540611893, 0.1114037484, -0.0244944729, 0.1039788350, -0.2296842337, -0.3250883818, -0.0558268055, -0.1407975405, -0.1281545460, 0.1705109179, -0.0962403789, 0.4564603865, -0.3579334021, -0.2658115029, 0.0435025394, -0.1708608121, -0.2508569956, 0.1453562230, -0.2725054622, 0.1996223927, -0.0792774111, 0.1439249068, -0.2473103404, -0.0036407870, 0.0503849089, -0.2457154542, -0.2056117058, 0.3668745160, 0.1424328387, -0.1652659774, -0.2164763361, 0.1905126274, 0.2303447872, -0.0016680090, 0.1084042639, 0.3268035054, -0.0021985020, -0.1911872029, 0.1756285280, 0.0312719978, -0.1510490328, 0.2015112191, -0.3029527068, -0.0321328714, -0.2023251504, 0.4438378215, 0.0610831082, 0.1203421354, 0.0067576780, -0.1754380167, -0.1514586210, 0.3081717193, -0.2167122364, 0.1885148585, 0.3718121648, 0.0476771295, 0.0997225866, 0.0378605239, -0.1822335869, 0.3583017588, -0.1478774101, 0.3331378996, 0.3959026635, 0.1000243053, 0.2804906964, -0.1369840950, -0.0070478395, -0.0430031009, 0.0611114092, 0.1933606118, -0.1034092084, 0.1982789636, 0.0476992391, -0.3721987009, -0.2702002525, 0.1627449840, 0.1368951648, 0.0203247946, -0.0887954682, 0.0865570307, 0.0049276538, -0.3041701019, -0.2752011418, 0.0852885246, 0.2496999204, 0.0008271468, -0.3413771093, 0.0568053499, -0.2015282214, -0.1627179980, -0.1274947226, 0.1591928005, -0.0742485151, 0.1814792305, 0.2122838348, 0.1073266789, 0.0441302843, -0.0663093701, 0.0170927346, 0.0460929461, -0.1134303808, 0.0953985676, 0.1823749840, -0.0654524341, 0.3273783922, -0.0206698980, -0.1369781792, 0.0533326603, 0.0170754008, 0.2198670208, 0.1546771079, -0.1343741268, 0.0123904590, -0.0814061835, 0.1846291870, 0.4762609899, 0.0381661281, -0.0830301344, 0.1670530885, -0.2741584480, -0.0232319832, -0.3033699989, -0.0928083956, 0.1141716912, -0.0298756100, -0.1490762830, 0.2285459191, 0.0060691065, 0.0074344375, -0.0618757233, 0.2487386465, -0.1297217160, -0.0634681135, -0.2304311842, 0.0989844352, -0.1200150922, -0.0576530583, 0.2506781816, 0.3481706679, -0.4455378950, 0.0761785656, 0.0942690596, -0.2649096847, 0.1411196589, 0.2587598562, 0.2851677835, 0.1859376431, -0.2376066744, -0.2085439563, -0.0443085246, -0.0866016522, 0.0927674249, 0.0924784094, -0.0700746998, 0.0495383851, -0.1527305990, 0.0281754434, -0.2094347030, 0.0032703676, 0.2569802105, 0.2368827313, 0.3928110301, 0.2976236343, -0.7560815811, -0.3406758308, -0.1065993011, -0.1386036873, 0.3741681576, 0.0581666417, 0.3749540150, 0.1488715708, -0.1965850890, 0.0114078633, -0.1241378859, -0.0164663065, 0.1839019060, 0.0675570667, 0.0320748612, -0.1558329761, -0.2564938068, 0.0463961884, -0.1705191284, 0.0289330222, 0.0486637950, -0.0792101622, 0.1082524657, 0.1897115409, -0.4293626845, -0.0729263648, 0.1160246134, 0.0153811388, 0.2597008049, 0.1184355393, 0.0180382803, -0.0761375129, -0.1780719012, 0.0301410314, -0.0261979606, -0.0813533962, 0.1177668422, 0.1195218861, 0.0231633522, 0.1985868365, -0.0161917433, 0.0026949542, 0.0341011621, 0.2823276520, 0.1944551617, -0.2124728113, 0.2659054399, 0.1357969791, -0.1980791539, -0.2185336053, 0.0502128080, -0.0731322467, -0.0248233154, 0.0198480263, -0.1529950798, -0.0023095638, -0.2237862647, 0.1218596995, -0.2306197733, 0.0896537229, 0.1468476504, 0.2017812282, 0.0773100704, -0.2003897578, -0.2729533911, 0.0056453892, 0.1674474031, -0.1179441214, 0.3575724363, 0.2634615302, 0.0776352510, 0.3019531667, -0.3057438433, 0.2847559750, 0.0638444424, -0.0880125836, 0.2005393356, 0.0405073352, -0.4005521834, -0.2368462831, -0.4731333256, 0.3349282444, -0.1574014276, -0.2947245240, 0.2651596963, 0.2144562006, 0.0978907719, 0.3614512682, -0.4111401141, -0.0591120236, 0.0105270352, 0.0827981383, 0.1499933600, -0.0376712270, 0.1280278116, -0.0770340040, -0.3293613493, 0.0974010602, -0.0536623001, -0.1129300445, 0.1606689394, -0.0801456273, 0.3241669834, 0.1975720525, -0.0441417806, -0.0848728940, 0.0366102010, 0.0309977550, 0.0295962021, -0.0386947915, 0.3319208324, 0.4072000086, -0.3782093525, -0.0853567868, -0.1122252569, -0.1376914382, -0.1084667891, 0.0068429997, 0.0115799913, -0.0402860045, 0.1169516742, -0.3149742782, 0.1617332399, 0.1834338754, -0.1166324243, 0.3546836674, 0.6655161381, -0.4975224435, 0.0617518611, -0.2157399803, -0.0124271726, -0.1262375116, 0.0297115222, 0.1892580837, 0.5398899317, -0.0145376800, 0.4653393030, -0.1201528087, -0.1673735231, -0.0274365619, -0.1975248158, -0.0047344565, -0.1414251477, -0.2635011077, 0.1037026048, -0.1865231097, -0.2813456059, -0.0532177687, -0.1027681231, 0.0606015027, 0.3220436573, -0.9512296319, 0.4507919848, -0.5120910406, 0.1989024431, -0.0053448183, -0.2256937027, 0.2846752405, 0.2648397386, -0.4660470486, 0.3140358627, -0.2227856070, 0.2668482661, -0.0899219736, 0.0308642015, 0.1378729790, -0.3293929398, 0.1791845560, 0.0646839589, 0.2778211832, -0.2050480396, -0.2153502107, 0.0629179180, -0.2698558867, -0.2404261827, -0.5429114103, 0.1481179744, -0.3509663641, -0.1152964607, -0.0622451343, -0.0389621966, 0.1686522067, -0.1249099746, -0.3551846147, 0.2338978797, -0.4507206976, -0.0285006631, 0.2587893009, -0.2688219249, 0.0010414047, -0.2226591110, -0.2513965070, -0.4473182261, 0.1846233606, -0.0521674268, -0.5679398179, 0.2048996985, -0.0683183670, 0.0928619727, 0.0883075967, -0.2013416886, -0.0159298591, 0.1212767661, 0.0090240799, 0.0390257724, 0.0139148859, 0.0624042191, 0.3820707202, 0.0664973632, -0.4561596811, -0.0378142148, 0.2406010032, -0.3143226206, 0.2359539270, -0.0903034359, 0.1851135790, -0.1418600827, 0.1719477028, -0.0696833953, -0.1809123755, 0.0876587778, -0.1605634689, 0.2385111600, 0.1575098932, -0.0942854211, -0.1186383814, -0.0530214198, 0.1935795248, -0.3705207407, 0.0616782717, 0.0215887725, -0.0127236182, 0.1830968708, 0.1319775581, -0.2444465160, 0.1499880850, 0.1471011490, 0.0868495256, -0.0514249951, 0.2718317807, 0.0070243636, 0.0097315973, 0.0897177905, 0.2557450831, -0.1061911508, 0.1568064988, -0.2055705339, -0.2505555153, 0.1127787232, 0.1149553657, -0.0495760292, 0.0231509134, 0.1773015708, 0.3022748828, -0.2801334858, -0.2255287915, -0.0741425380, 0.1654257029, 0.0927894339, 0.0111335767, 0.1012377292, -0.0395391509, -0.0685890466, -0.2623096108, 0.6442213058, -0.4007321894, 0.1441796124, 0.3969085515, -0.2888729274, 0.2614282072, -0.2094753683, -0.2251892835, 0.2870732546, -0.4856073558, 0.0251897406, 0.2919405103, -0.1896265149, 0.2228225470, 0.1135474667, -0.0395197459, 0.0743520111, 0.1876141876, 0.1600916386, 0.0749487206, 0.2064630091, 0.0711684227, -0.0208778717, -0.0691072345, 0.6645532846, -0.1052980945, -0.3178378046, -0.1670031846, -0.1689264178, -0.2487527579, -0.0897127837, -0.2270766646, 0.3822269142, -0.3781052828, -0.0947890654, -0.0185137354, -0.1984354407, -0.2536194921, 0.1321220845, -0.3498454392, 0.5068886280, -0.0751237571, 0.0640181229, 0.1847158819, 0.0989911854, 0.0106808776, 0.5956282020, 0.0093792044, 0.3350982368, 0.0699064210, 0.1153813377, -0.5032388568, 0.0108556077, 0.1002080962, 0.4646841586, -0.1757441461, 0.2432284802, 0.0272577293, -0.0058438326, -0.2882339656, -0.1475870162, -0.1730096489, 0.0300370995, -0.0282489825, 0.0036439407, 0.2118403465, -0.3074439764, -0.2707941234, -0.0342423096, 0.0327718668, 0.2117801905, -0.0466247015, -0.0643197894, -0.0032217535, -0.0496120453, 0.0314513259, 0.0095940391, -0.1195591465, 0.2909962833, 0.0679119080, -0.2042448074, 0.2904503644, 0.1754860431, -0.0960718542, 0.2565885186, 0.0678946301, 0.0436185040, 0.0433397181, -0.0279882401, 0.4002524614, 0.0688278675, 0.0320801921, 0.3347785473, 0.0853615031, -0.0535368025, 0.0629551709, 0.2060230970, -0.0352992639, -0.2163837552, 0.0613113642, -0.4719306529, -0.0967612490, 0.0799435303, -0.1132753193, 0.2334936261, 0.0913073048, 0.1130264848, 0.2055006325, -0.1499099582, -0.0156827234, -0.3292306960, 0.0164723266, 0.1671857536, 0.2383251935, 0.2952448428, 0.2787622809, -0.0059025981, 0.1854511201, -0.0502584390, -0.1099720225, 0.2556224167, 0.1251444966, -0.4144231379, -0.2647689581, 0.0496337265, -0.4890265167, -0.0896157175, -0.3984118402, 0.4310663342, -0.1710351706, -0.4070903957, 0.1427824944, -0.4251784086, -0.4394898415, -0.4123564363, -0.0856640190, 0.6597003937, 0.0232026689, -0.3418454528, 0.4572822154, -0.4250860512, -0.3724835515, -0.1787437648, -0.0137058273, -0.0823178515, -0.2024658322, -0.0759114847, -0.5327411890, -0.1087518930, -0.0350777097, -0.2056753933, -0.0601987690, -0.1801611185, 0.0489933230, -0.0272928923, -0.2718882263, 0.2201754302, 0.0229968298, -0.1342238486, -0.0412653238, -0.0890877321, 0.1212981343, 0.1046696529, -0.0743993148, -0.0858245939, 0.2315246016, -0.2093724161, -0.0677062348, -0.1775004268, -0.2275699526, 0.2351144850, -0.2777534425, -0.1188855842, -0.0056283297, -0.1437816471, -0.0060329060, -0.1948138922, 0.0239653494, 0.2669970095, -0.0955089629, 0.0001169016, -0.0284264646, 0.0060034883, -0.2085031718, -0.0682982877, -0.1587299258, 0.0323465988, 0.1751121432, -0.1774561852, 0.0269966219, -0.1000456288, 0.0133817447, -0.2826015055, -0.0610189326, 0.2724310160, 0.0724923164, -0.1809059530, -0.0631171688, 0.0327411070, -0.1213427261, -0.0452005155, -0.3870700300, -0.0398053601, 0.1520282477, -0.5891008973, 0.0938806757, -0.0801842809, 0.0602821000, -0.1140042394, -0.1335026324, -0.0325110108, 0.3026247025, -0.1727766842, -0.1087336466, 0.2687029839, 0.0471697822, 0.3985243142, -0.1433087736, 0.0406017601, 0.1900143772, -0.1426601112, -0.0176043399, -0.0888887420, -0.1371383518, 0.0536651239, 0.3142448664, 0.1029234603, 0.0590508766, 0.2750540674, -0.0561791994, -0.1132210419, 0.0253810622, -0.2207278013, -0.0110496301, 0.1824860424, 0.1708522439, -0.0141344955, -0.1210336462, -0.0900627077, 0.0608352348, 0.4724326432, -0.3088688850, 0.1292627305, 0.2666101456, -0.3801525533, 0.2331737876, -0.0873080939, 0.0006598490, 0.4121953845, -0.2096421570, 0.0689760149, 0.1982544065, -0.1001189053, -0.0529210567, 0.0434627384, 0.5078766942, -0.0417203046, 0.0112993456, -0.2054904699, 0.0998125449, -0.4233367741, -0.1605868787, -0.2796782851, -0.0602067150, 0.5007228851, -0.1754157096, -0.2687818408, 0.1304299384, -0.4093034863, -0.3246593177, 0.0010493513, 0.0138037438, 0.0987776592, 0.0078777736, -0.2541967034, 0.2352788746, -0.2322215289, -0.3170149624, -0.0737971961, 0.2749269307, -0.0825150982, 0.2560726404, -0.2539233267, -0.0764632523, 0.0325597376, -0.2344730049};

#endif

#endif
