//Numpy array shape [400, 16]
//Min -0.702770769596
//Max 0.606819331646
//Number of zeros 0

#ifndef W9_H_
#define W9_H_

#ifndef __SYNTHESIS__
dense_weight_t w9[6400];
#else
dense_weight_t w9[6400] = {0.0377522074, 0.2100729495, -0.0688612387, -0.1445702165, -0.1130516902, 0.0361675471, 0.0496811830, 0.1636190116, 0.0235055704, -0.0650117248, 0.0557057597, -0.0159135312, 0.1080581173, 0.1311439425, 0.1152086034, 0.0025886311, -0.1457003653, 0.0857742056, 0.0148789017, 0.1269928813, 0.1012016013, -0.0275793727, 0.2010081559, 0.1127988845, 0.0796849281, 0.0150907654, -0.0148438178, -0.0970343202, -0.0226019789, 0.1809650213, -0.0473079458, 0.0183990784, -0.2829211354, 0.1000479907, -0.0053957910, -0.0624795556, 0.0849465355, -0.1622093767, 0.0184286404, -0.0441201180, -0.0027585544, -0.1147784069, -0.0612275638, 0.0165787525, 0.1805242300, 0.2809043825, 0.0927178636, -0.1132989153, -0.3332579136, 0.1719826758, 0.1154380664, -0.0972618088, -0.0206298865, -0.1628787518, 0.0619539246, 0.0544850677, 0.0758368224, -0.1081260368, 0.0970660970, -0.1706043333, 0.1351175606, 0.2317095101, 0.1027440280, -0.0745103583, -0.0909733996, 0.1500596851, 0.0530420393, -0.0408993624, 0.0448466241, -0.1496887505, 0.1239436641, -0.0889855549, -0.0071525876, -0.2006947696, -0.0018680107, -0.0011964112, -0.2485171407, 0.0062839878, -0.0298315231, -0.2777787447, -0.0646028891, 0.0132129611, -0.0826719552, -0.0668749735, -0.0111287134, -0.1757932901, -0.1301920414, 0.2396261990, -0.0634065792, -0.1724874824, -0.0884966478, -0.2065183222, -0.0488593131, 0.0810595453, -0.0351637714, 0.0264367480, -0.1624822468, 0.2574786544, 0.0735086948, 0.0183086954, 0.0422377102, 0.0094071552, 0.0652449876, 0.2153736055, -0.1454208791, -0.0295470413, -0.0294894185, -0.0986849070, 0.1189387888, 0.0982235596, 0.1424864382, 0.3137073815, 0.0052803271, 0.1106700003, 0.0052003008, 0.0719749629, 0.1204527915, 0.1403524429, 0.0607140809, 0.1336372346, 0.0277537629, -0.1123875678, -0.1604018509, -0.0541257076, 0.2314258963, 0.3268480003, 0.1803584695, 0.2324279249, 0.0181755163, 0.1323246360, 0.0054164492, -0.0610082410, 0.0469662771, 0.0680420622, 0.0172705594, 0.1456934065, -0.0702480823, 0.0011276723, 0.0770667642, -0.0171884913, -0.0455231518, 0.0300547890, -0.0041940687, 0.0392171405, 0.0476579554, 0.0312266648, 0.0768992826, -0.2187584490, 0.0269917510, -0.0255819708, -0.1616853923, 0.0146205677, -0.0366473645, 0.1896401048, -0.1164005399, 0.1701624840, 0.0036517791, -0.0294137709, 0.1306224614, -0.0159356296, 0.0285457429, -0.0853232667, -0.1446607560, 0.1875000447, 0.0100815771, -0.0758663937, 0.0798438713, 0.0516659133, -0.2630020082, -0.1621550620, -0.3314722180, -0.2903033495, 0.1709879786, 0.1123489439, -0.0976890549, 0.2254667878, 0.0857248530, -0.1656071693, -0.0316120610, 0.3785360157, 0.0125806099, 0.0254428163, -0.0494095087, 0.0385240577, -0.2410133332, -0.0832600296, -0.6676527858, 0.0265918709, -0.0410373881, -0.0531131960, 0.0946264267, 0.2171389461, 0.3162264824, -0.0476605743, -0.1198008507, 0.0452462025, -0.3457658589, 0.0512941666, -0.1629956216, 0.0374382883, 0.1601141244, 0.0635401458, -0.3597687483, 0.1084755361, -0.1388496310, 0.0950809494, 0.1519966722, -0.0120427525, -0.1625341475, -0.0077000055, -0.1083334982, -0.0538692065, 0.1722204983, 0.0683778077, -0.1929220110, -0.1122161597, 0.1035022214, -0.0158809125, -0.0427465402, 0.1270779967, 0.0693674907, 0.2397072464, -0.1922620088, -0.0790284202, 0.0433651693, -0.0683303103, 0.1424008608, -0.1276838779, -0.0785228238, 0.0271325782, -0.0415818542, -0.0110376058, 0.0741679668, 0.0149709489, 0.0511857271, 0.0595557988, 0.1037278920, 0.1638086736, -0.0860772133, -0.1290624589, 0.0506668277, -0.1103221104, -0.1646353304, -0.0167006794, 0.1612297595, 0.0509714894, 0.0508041121, -0.2437053025, -0.0203845128, -0.1663989872, -0.0745822638, -0.0404220447, -0.0791441426, -0.0688960627, -0.1331508458, -0.2783735096, 0.1647871584, -0.0851253346, 0.0670447499, 0.1913167089, 0.2588996887, 0.0114328787, 0.1355948746, -0.0943957791, -0.1147537008, -0.0712715611, -0.3074507713, 0.0163310003, -0.1321808547, 0.0838078707, 0.0592961796, -0.0073131048, 0.1348813474, -0.0847591013, -0.0191788338, 0.0548608936, 0.1825246364, -0.1342588663, 0.1513019502, -0.0507119745, 0.1088581979, 0.0198483542, 0.0462321080, 0.1396630406, -0.0540763363, 0.0006052386, -0.1885387301, -0.3149160445, -0.0520144738, -0.0711280927, -0.0623851605, 0.0625147149, 0.1466666162, 0.1286984235, 0.1731142551, 0.0806345195, 0.0390541777, -0.0371384285, -0.0154927252, 0.1243918389, -0.0192618985, -0.0965382084, -0.0359066911, -0.1410148591, 0.1070785075, -0.0150188403, -0.1451371610, -0.0288256053, -0.1176501885, 0.1581832916, 0.1049265116, 0.1676443219, -0.1180659756, -0.0960940719, 0.0403560661, 0.1115140095, 0.0870072842, 0.0526248552, 0.0159337465, 0.1124349758, -0.0546382144, -0.0284642074, 0.0637215897, 0.0990589038, 0.1890118420, -0.0536646284, -0.0501061715, -0.0730214268, 0.2381516844, -0.0556030162, 0.0734978095, 0.0554894246, -0.0828560963, -0.1587103754, 0.0694972947, -0.0715697631, 0.1528811753, 0.0296076033, 0.0675872415, 0.1363712102, 0.0614132918, 0.1228346303, 0.0611665733, -0.0485593453, -0.0365459733, -0.0306780692, -0.1303070784, 0.0063555585, -0.1100101620, -0.1333598346, 0.1388036609, -0.0805223882, -0.0024075664, 0.0661807060, 0.0406525247, 0.0904072523, 0.1817325354, 0.0189029910, -0.0474434495, 0.1030366793, 0.0902233273, 0.1928947568, 0.1771946698, 0.0171327535, 0.1628971249, -0.0271169636, 0.0821912438, -0.0864619762, -0.0321015604, -0.0150374193, 0.0395303406, 0.0345623307, 0.1393621564, 0.1026286557, 0.0835429132, 0.0978793055, -0.0036810141, -0.0301350560, 0.0139232045, 0.0453261472, 0.0191408135, 0.0195630323, 0.0441253111, -0.0119103258, 0.1716734022, 0.1690202504, 0.0120759709, -0.0053956555, -0.3321430087, 0.0288198497, -0.1169477478, 0.0997433588, 0.0599724762, -0.0952315405, -0.0118227154, 0.0962966308, 0.2294308990, 0.0432626680, -0.0872752443, 0.2275714129, -0.0399843343, -0.1078183651, 0.1012622938, 0.0068870662, 0.0131700505, 0.0661389828, -0.0774601400, -0.0452575572, 0.0275259521, 0.0410964899, -0.0658504218, -0.0424598232, -0.0826342851, 0.0656014681, 0.1060121283, 0.0273136143, 0.0038268918, 0.0754148141, -0.1270510256, -0.0480755903, -0.1218801811, 0.0916743204, -0.0388446711, 0.0255248994, -0.1186488047, -0.1069380268, 0.0632896200, -0.1147481278, 0.0810608789, 0.0100502511, -0.0860726386, 0.0685804188, -0.0385434106, -0.0646766424, -0.0043878830, -0.0978918076, 0.0258827750, 0.0731087998, 0.0799934566, 0.0404866971, -0.0696232915, 0.0140667828, 0.0605781302, 0.0533060208, 0.0552925244, 0.0538257621, 0.0770119131, 0.0595947839, -0.0549164489, 0.0826094374, 0.0612933822, 0.0544098243, -0.0275753159, -0.0105285011, 0.0544781871, 0.0577956215, -0.0523271151, -0.1355484426, 0.0676388294, -0.0387815163, -0.0035858036, -0.0559443980, -0.1084766537, 0.0224313866, -0.0550317951, -0.1034201235, -0.1130311862, -0.0050345557, -0.0059716441, 0.0344777927, 0.0155435307, 0.0366064794, -0.0990058780, -0.0301395506, -0.0035519165, 0.0365422592, 0.0710331723, -0.1066251770, 0.0543658286, -0.0313390605, -0.0440913178, -0.0128339892, -0.0638927072, 0.0944399089, 0.0497075282, -0.0609794222, -0.0658697113, -0.0999194980, 0.0385389142, -0.1271978021, 0.0942563191, 0.0037568766, 0.0440978743, -0.0123392055, -0.1249635294, -0.1037805676, -0.0469969213, -0.0202124827, 0.0357722603, 0.0305862743, -0.0255938321, 0.0627379343, -0.0429002568, -0.0090964176, -0.1140198410, -0.1195603386, -0.0953134000, -0.1056716070, 0.0863207430, -0.0795121491, 0.0947601125, 0.0545747206, -0.1142712533, -0.0888958797, 0.0441681817, -0.0183292329, -0.0792977363, -0.0624953993, -0.1184601262, 0.0931021348, -0.1253395230, 0.0374723859, 0.0155106485, -0.1314296722, 0.0702085048, 0.0458534807, -0.0999334008, 0.0081087425, 0.0056832405, -0.0994977877, 0.0099999793, -0.0710301921, -0.0741921887, -0.0162524674, 0.0177538879, 0.0452959687, -0.1434640139, 0.0537840873, -0.1486320943, -0.0924656317, -0.0608043000, 0.0525320470, -0.0358818918, -0.0576233119, -0.0116835218, -0.1049563885, -0.0233007967, 0.0178128537, 0.0081061730, -0.0198087338, -0.1035080999, 0.0562382564, -0.0318320915, 0.0459988676, -0.1410798877, -0.0832478032, -0.0460523069, -0.0740652382, -0.1182332635, 0.0687126219, 0.0397214964, -0.1340017319, -0.0040183025, 0.0399419852, -0.0072849519, 0.0633224696, -0.1443557739, -0.1188075319, 0.0011818568, -0.0479038209, 0.0987867042, -0.0344115719, 0.0936589837, -0.1438428909, -0.1114105508, 0.0394765884, -0.0965754092, 0.0927597210, -0.0112391328, 0.0511011481, -0.1444763541, -0.0034999577, -0.0917214379, -0.0643389076, 0.0783591792, 0.0493777879, -0.0121554593, -0.1162501052, -0.0154192513, 0.0487104617, -0.1141654179, 0.1148351952, -0.0150774419, -0.0926806927, 0.0157216452, 0.1062473357, 0.0221119057, -0.1172780767, -0.1440296173, 0.0360144861, 0.0324230269, 0.0765386149, 0.0262292475, -0.0159661081, -0.0413741544, -0.0733076483, -0.0040295166, 0.0921722278, -0.0101378839, 0.0881630704, 0.0475908853, 0.0638446659, -0.1202499941, -0.0841023326, -0.1176786870, 0.1034791023, 0.0515201278, -0.1280328482, -0.0179260485, -0.0248824917, -0.0885366723, -0.1119092330, -0.0839880630, 0.0581517927, -0.0114751309, 0.1115149781, 0.0257132966, -0.0195331611, -0.0331265479, -0.1260898262, 0.0036893177, -0.0746026561, 0.0182762183, 0.0536804050, -0.0642492697, 0.0594042912, -0.1084289849, -0.0118835550, -0.0266544446, -0.0910012648, -0.1213880405, 0.0629338324, -0.0630462840, -0.0527012236, 0.0493835732, -0.1135319993, 0.0202860776, -0.1017329618, 0.0477658473, -0.0360267684, -0.0309366193, -0.0308452863, 0.0766434669, -0.0969242379, 0.0319548734, 0.0569288917, 0.0930140540, 0.0879993066, -0.1497488618, -0.0441130549, 0.0048630652, -0.0807796046, 0.0759318471, -0.0731776133, -0.0635753870, 0.0565252714, 0.0709495619, -0.0672878176, 0.0250168499, 0.0220552236, -0.0827283785, 0.0435198918, -0.0204765219, 0.0470513292, -0.0996180922, 0.0298345592, -0.1183645800, 0.0845377892, -0.0728634596, 0.0016381553, -0.0413972326, -0.0804336295, -0.0679392442, -0.1042462215, -0.1220858917, 0.0463448204, 0.0124246283, -0.0829357132, 0.0713835508, 0.0727588907, -0.0655133203, -0.1049341559, 0.0248902105, 0.0526427068, 0.0623553060, -0.0733973235, -0.1200446337, -0.0757976323, -0.0698818788, 0.0887625813, -0.1001324132, 0.0378174372, 0.0214821938, -0.0908382013, 0.0544015765, -0.1012682021, -0.1184293628, -0.1307654530, 0.0021032435, -0.0053645275, 0.0166460276, -0.0695351213, 0.0732833669, -0.1285122484, 0.0647114441, 0.0573333800, 0.0871694684, 0.0970287025, 0.0849262476, 0.0134657584, 0.0796635449, -0.0978227928, -0.0729818940, 0.0843750760, 0.0173555985, -0.1191342026, -0.0791798979, 0.0934093297, 0.0748012513, -0.1059633419, -0.0282086916, -0.1308446527, -0.0716129914, 0.0945523456, -0.0503482856, -0.1357963532, 0.1016521230, 0.0894684419, 0.0776545256, -0.0354995020, 0.0064028190, -0.0958016813, 0.0014706044, -0.0793517679, -0.0613476597, -0.0364320539, 0.0983312353, 0.0636855289, 0.0528709330, -0.0815160125, -0.0588968173, 0.1079963595, 0.0137433922, 0.0299872812, 0.0427632183, 0.0623436049, -0.1182525158, -0.1285334826, 0.0501563884, 0.0610764846, -0.0951958299, 0.0418548994, -0.0892258808, -0.1339288503, -0.0387178846, -0.0782002956, 0.0264905524, -0.1053134277, -0.0813170969, 0.0653145611, 0.0776876211, 0.0958548784, 0.0672557503, 0.0702305064, -0.0858463570, -0.1064631492, 0.0210291483, -0.0762117356, 0.0102863098, -0.0843031928, -0.0183843356, 0.0420967266, 0.0270386823, 0.0051537403, -0.0249606576, -0.0399379395, 0.0383811630, 0.0672025532, 0.1064503565, -0.0762534142, 0.0697028711, 0.0580880642, -0.1421957314, -0.1390729100, 0.0642968118, -0.0474692248, -0.0595807470, -0.0145461634, -0.0761082619, -0.0294549651, 0.1954890341, -0.0265533458, 0.1417895257, 0.1479502320, 0.0510350578, -0.0055062496, -0.0585154891, -0.2103952467, -0.0281878244, -0.0429253541, 0.0363390706, 0.1930806190, -0.3217628002, 0.0513555668, -0.2291516513, 0.0508912057, 0.1951473355, -0.2654232383, 0.0105697373, 0.1237274408, -0.1200224459, 0.1493222564, 0.1291458160, 0.1643887013, 0.1759987473, -0.0233447533, -0.1746918112, 0.1303154975, -0.4045860767, -0.0575496629, 0.2696466744, -0.1791401058, 0.1649889797, -0.0507720150, -0.0449024029, 0.2835666239, -0.0676545426, -0.0560442992, 0.3444458842, 0.1189367920, 0.0864496753, -0.1673209518, 0.0741911009, 0.1274199635, -0.4131249189, -0.1653327197, 0.2964425385, 0.3320249617, 0.1434064507, -0.0176125336, -0.3028288782, 0.1211082190, 0.0431276783, 0.0003877118, 0.3119657636, 0.3268392980, 0.1374640018, 0.0580692366, -0.0642979816, 0.2871847451, -0.3174062073, 0.0665736645, 0.2359092832, 0.5105504394, 0.1108113751, -0.0104584750, -0.2189421803, 0.0592949800, 0.0006333567, -0.1383894235, 0.1837008893, 0.1406397969, 0.0092891911, 0.0873541683, -0.1935322583, 0.0781272799, 0.0643567294, 0.0362641141, 0.0939289331, 0.4011783004, 0.0288804155, -0.0673982054, 0.0046273977, -0.0445678160, -0.1584065109, 0.1659070700, 0.0346542299, -0.0932062119, -0.0517010689, 0.1479507238, 0.0954432562, -0.0492988341, -0.0277292747, -0.0852237120, 0.1086810380, -0.1480227411, -0.1453982443, 0.0888662785, 0.0633360445, 0.0307560302, -0.2169805616, 0.1336166263, -0.0560639985, 0.2059927732, 0.0096323853, 0.2224833220, 0.1679987311, 0.0759484321, -0.1099097952, -0.0298521221, 0.0898469314, 0.0253559016, -0.0702417716, 0.0809189975, 0.2330720276, 0.1491803080, 0.1810903102, -0.0763996318, -0.0377313197, 0.2638389468, 0.0507714339, 0.0955259427, 0.1582944840, 0.1083494648, 0.0536005273, -0.1563042104, 0.0959219038, 0.0548619591, -0.0449168831, 0.3558077812, 0.0673461109, 0.2623234987, -0.0277596377, -0.3186101615, 0.1069322526, 0.0793731287, -0.1762984842, -0.1631325483, 0.0738470554, -0.1104675308, 0.2471674830, 0.1051772907, 0.0478439815, 0.2528147995, 0.0172318015, 0.3679541051, 0.0924694240, 0.2405497879, 0.2448843271, -0.1097191274, 0.0265127663, 0.1935402155, 0.0021323343, -0.3541810811, 0.0181097295, -0.0993853211, 0.1695648879, 0.2243022472, 0.1091617644, 0.3701013029, -0.0480737686, 0.0774777681, 0.0635831654, -0.3527113199, 0.0276200380, -0.0880321711, -0.2129858434, -0.0098667610, 0.2389705926, -0.0813963115, 0.2475682944, 0.0107853524, -0.0384379476, 0.1187359169, -0.1018374935, 0.0089075109, -0.1293336600, 0.0385130830, 0.2105667442, -0.1869315207, -0.0069232518, -0.0290041007, -0.0471635945, -0.1215266585, 0.1305732578, 0.0824914202, 0.3738687932, -0.0525924265, 0.3552876413, 0.0819019526, -0.0228158571, -0.2374514192, -0.2548859715, 0.0707075745, 0.3088488579, -0.0153728705, 0.1364371330, 0.2091891170, 0.0189093407, -0.0063190665, -0.0069722850, 0.1624824256, 0.2205131650, -0.1119266748, 0.1859140098, -0.0491100997, 0.0366593264, 0.1498237997, 0.2718340158, 0.0077867783, 0.1697371304, 0.1508485079, -0.0334806517, -0.0937542617, 0.0154823801, 0.1388184726, 0.0775508955, -0.0292394944, 0.1145743877, 0.1326368898, -0.1149576753, 0.0214074496, 0.0711467266, 0.0409744196, 0.0232461747, 0.0787207782, -0.0565118343, 0.0573380813, -0.0542342514, 0.0708031654, -0.2565356195, -0.0295981821, 0.0188361444, -0.0510355644, -0.0471519120, -0.1627918482, 0.1460083425, -0.0038459275, -0.0004591079, 0.1420283616, 0.0385770425, -0.0178912673, 0.0386230797, 0.0087279230, -0.0052822004, -0.1068457589, -0.0346205570, -0.1469926238, 0.0375298299, -0.1214204356, -0.0424082838, -0.0224788617, -0.0340764672, 0.0930983424, -0.1780653298, 0.1407410055, -0.0581042171, 0.0898412317, 0.1121155173, 0.0767333806, -0.1178621575, 0.0183116775, 0.0324150249, 0.0018735712, 0.0908683017, -0.0260351803, 0.2809029818, 0.2269540876, 0.2206210196, 0.1183904931, 0.0224320404, 0.0592900924, 0.0580071099, 0.0808862224, 0.1058425978, 0.0824541524, -0.1741529554, 0.0301856194, -0.1585904509, 0.1133623868, 0.2039698213, 0.0409636125, -0.0217596069, 0.0309226271, 0.0016632496, 0.1149560809, -0.0376957878, 0.0513019115, 0.0198529642, 0.0337893367, -0.0139318313, -0.0694329962, 0.1554072797, 0.0588786080, 0.0136307366, -0.0517042652, 0.2153014392, 0.0636702403, 0.1213567778, -0.0358676985, -0.1281514019, 0.1778344065, -0.1143394411, -0.0272245705, 0.0359913483, -0.1130906567, 0.0673163235, -0.1243800670, 0.1289827675, 0.0312664136, -0.0053202887, -0.3046187460, 0.2087506950, 0.0940162465, 0.0798989087, -0.0648678094, 0.0115370201, -0.1711911708, -0.0192977432, -0.2897827923, 0.0103477249, -0.0033033767, 0.0622297674, -0.0533367209, 0.0040122462, -0.0120898299, 0.0725318044, -0.0635176450, -0.1214204654, 0.0661527216, 0.2099743336, 0.1455851942, -0.1373444051, 0.2136026621, -0.0049839648, -0.0979372561, -0.0551022813, 0.1264781654, 0.0186176337, 0.1936098039, -0.0228197016, 0.1817468107, 0.0832333416, 0.1328016669, 0.0551477224, 0.0189290214, 0.1197373495, 0.1918980926, -0.0072729397, 0.1398283541, 0.0520758480, 0.1073614135, 0.0733544007, 0.0030161075, 0.0156172933, 0.0916468799, 0.0920418277, 0.0814687833, 0.1143629998, -0.0097985705, 0.1096733883, 0.0659318492, 0.0339482129, 0.0933266506, 0.0434278622, 0.0144007001, -0.0121151675, 0.0175924227, 0.0532941334, -0.0942422003, -0.0987146422, -0.0252289288, -0.1062904224, 0.0397460982, 0.0366867669, 0.0060550985, 0.2419936657, 0.0910692215, -0.0365962349, 0.0056496230, -0.2420887202, -0.1134677306, 0.0188178290, -0.0749024227, 0.0928812847, -0.2301434726, 0.1459785402, -0.2041779608, -0.0079930173, 0.2924906909, 0.0226473492, -0.0927897170, 0.0871734396, 0.2200500965, -0.0028625806, 0.0084858686, -0.2357757092, -0.0734352320, 0.0316947214, -0.0610664301, -0.1107379049, 0.0785405710, -0.0172606744, -0.1460044235, -0.0904930681, 0.1238545924, -0.1230052114, -0.1020643637, 0.0226710606, 0.0979717225, -0.1611487120, -0.1918115467, 0.2370531410, 0.0704015419, 0.0102217477, -0.0500531755, 0.0763721019, -0.0483920947, 0.1178664267, 0.0429540388, -0.0902115926, 0.0781898424, -0.0166622791, 0.0755899176, 0.1484399736, 0.2057603151, 0.0548755266, 0.2223227173, -0.0653897300, -0.1170850396, 0.0027449497, 0.2151796371, 0.4264808297, -0.0622035377, -0.1061749533, -0.0227046087, 0.0420024619, 0.0111728795, -0.0468318872, 0.0548370965, 0.1738841087, 0.1710267216, 0.1431621760, 0.0598674379, 0.1136396602, -0.0369164161, 0.0744640529, 0.0309050083, -0.1075132564, -0.1606747359, 0.1746966541, -0.0767850950, -0.1163603365, -0.0800989568, -0.1167283133, 0.2235130817, -0.0966936499, -0.0944275633, 0.1910451353, -0.1389768124, 0.0198313110, 0.0012669275, 0.2016741931, 0.0527292006, -0.0417984016, 0.1312144548, 0.0811526552, -0.4057147503, 0.0683240891, -0.1516019702, -0.1648224890, 0.3065596521, -0.0865234211, -0.0417769030, 0.2518278062, -0.1306292266, 0.1014206260, 0.1851544827, -0.0814736038, 0.2295280397, 0.0032054477, 0.0229385979, 0.0221184734, 0.0280027725, -0.0140325706, 0.1296595782, 0.0386896655, -0.1295854896, 0.2442829907, 0.1842342913, -0.1844572127, 0.0740676820, -0.1924227476, 0.0057636919, -0.0967447534, 0.0513142459, 0.2406977862, -0.0186901893, -0.0899742395, -0.0407615863, -0.0515174046, -0.0744008571, -0.1014414802, -0.0612680689, 0.0178479850, 0.1127267852, -0.1635621488, 0.0348394476, 0.0157049429, -0.0556383766, -0.0809535235, 0.1090463474, 0.2418632507, -0.1023632661, -0.1897595823, -0.0982241407, -0.2137316763, -0.0751991495, 0.0045002741, -0.0192486718, 0.1168269441, 0.1500590295, -0.0624241121, 0.0822702348, -0.0312788822, 0.0643383414, -0.0128778452, 0.0256681852, 0.0345806442, 0.0173074622, -0.0521503799, 0.2263993770, -0.0233712401, 0.0379936658, -0.1116886809, -0.0405514501, 0.1373942345, -0.1565929204, 0.1829311848, 0.2447350174, -0.0312617235, 0.1513289064, -0.1800063550, 0.0952263847, -0.0624370761, 0.0909840912, -0.0757707134, 0.2755311131, -0.0518117361, 0.0198381282, 0.0757725164, -0.0924704522, 0.0413788483, -0.2168646008, 0.1062172130, -0.0859234110, 0.0458771102, -0.0995132402, -0.2535986006, -0.0178301055, 0.0363105275, -0.1441207826, -0.0611050837, 0.2151541263, 0.0778362229, 0.1143982187, 0.1154871583, -0.0926166102, 0.1024304777, 0.1279271096, -0.1850195527, 0.1138827503, -0.0558919050, -0.1375696212, -0.1056533530, -0.0145590175, 0.1060394421, -0.0409191474, 0.1283889264, 0.3173874617, 0.1343734413, 0.0557454489, 0.1366402805, 0.0741324127, 0.0761832446, 0.0028475053, -0.1726963073, 0.0700388700, -0.0584389977, -0.1742396802, 0.1774937361, -0.0434880629, -0.1995347738, -0.0579555593, -0.1208881885, 0.2129642516, 0.2435725182, 0.0234305710, 0.4171296954, -0.0667867884, 0.0105141615, -0.0153118959, -0.0496539399, 0.2114028782, -0.0996050760, -0.2593659163, 0.0132096820, 0.0409909114, 0.1199547946, -0.0820015892, -0.0572547801, 0.1795738637, 0.1042660475, -0.1187078655, 0.1202242598, -0.0496976301, -0.0072390069, -0.0490842834, -0.1236461923, -0.0262361038, -0.1755905747, -0.2880144417, -0.1435050368, -0.1020966843, -0.0867375955, -0.0074853040, 0.0383660160, 0.1261638105, 0.0260107685, 0.0515182987, -0.0447996892, -0.0532252640, -0.0780827105, -0.0743359253, 0.0032198334, -0.0514092222, -0.0886656493, -0.1822278351, 0.0215035286, -0.1576994956, -0.1856323630, 0.0639306754, 0.1342896819, -0.1982275695, -0.1038923711, 0.2313498259, -0.1620624065, 0.0656140298, 0.1013272405, 0.1665383130, -0.0187694281, -0.1237120181, -0.1332809180, -0.2005995363, -0.0560246035, -0.2070104331, -0.2313478440, -0.1404219270, 0.1586529016, -0.2993609011, -0.0674830675, 0.2191892713, -0.1369454414, -0.0337776244, 0.0398902334, 0.2477422655, -0.0328265689, -0.0772085711, -0.2883868515, -0.4765252769, 0.2238956839, 0.0614820793, -0.1860608906, -0.0061424188, 0.0754658952, -0.0072498717, -0.0350322872, 0.0056944075, -0.0880608037, -0.0000908464, 0.1105019152, 0.2246388346, 0.0180707965, 0.2388336658, -0.2271074057, -0.1415531039, 0.1027751341, 0.2633171082, 0.0713974983, 0.1166151688, 0.0021970861, -0.0161458533, 0.0764627382, -0.3062392473, -0.0169226471, -0.0489362180, 0.1139285937, 0.1382843256, 0.0253180396, 0.0280992370, -0.1336235851, -0.0121177975, 0.0476320498, 0.1115845442, -0.1121576428, 0.1865069270, -0.1304448098, 0.0285437871, -0.0622946136, -0.2179585248, 0.0335292071, 0.1520505548, 0.0169245843, 0.1213216335, -0.2047345191, 0.1785285473, -0.0851397216, 0.2954683304, 0.1440952867, 0.1896356493, 0.0830907300, 0.0682206005, 0.1737120450, -0.2822338045, -0.2374862880, 0.0914269686, -0.4985798597, -0.2360214442, -0.0914865807, 0.0883864239, 0.0751437023, -0.2561491728, 0.0167498365, -0.0152646089, -0.0179877672, -0.0584218837, 0.0138477720, 0.2029017061, 0.1225978136, -0.4829300940, -0.0131204883, 0.0540320314, -0.2669797242, 0.0842915177, 0.1161611974, 0.0092313094, 0.1889906228, -0.0280826353, 0.1040117666, 0.0266968664, 0.0958212838, -0.0387087651, -0.2263117135, 0.0222756825, 0.0531032868, -0.0268692821, -0.0657264367, -0.3549996912, 0.1589252204, 0.0071811019, 0.0845539570, -0.0393307582, 0.1910302937, 0.1274827272, 0.0689996630, 0.0805407092, -0.0425202586, 0.1075795367, -0.1959831119, 0.0975576118, 0.1529445350, 0.1622550040, 0.1165173054, -0.3411042988, 0.0850110352, 0.1758332402, -0.1247412786, -0.0071113794, 0.2084267884, 0.0359877422, 0.1584398746, 0.2325906605, 0.0873970091, 0.1193993762, 0.0116410200, 0.0872767344, 0.1427634954, 0.2410402298, 0.1959149539, -0.0831014886, 0.3327571750, 0.1842107773, 0.0279598329, -0.0918407887, 0.1650078595, -0.0557887964, 0.2175592184, 0.1845826805, 0.1241404191, 0.0336459279, -0.0719321221, 0.1291488707, -0.0637181029, 0.1346140951, 0.0522836670, -0.1349757463, -0.0416418426, -0.0344959237, 0.0005888831, -0.2117976099, 0.0619423315, -0.0769636333, 0.0820770338, -0.0500370041, 0.0170021597, -0.0392210633, -0.0501080491, 0.0890789181, -0.0892603174, -0.0030294305, 0.0679370910, -0.0506378934, 0.1476009190, 0.0802005306, -0.0462704301, 0.0008480627, 0.0709116533, 0.0804299936, -0.1035065576, 0.2141433805, 0.0117611652, 0.2950792611, -0.3060307801, 0.1896538585, -0.1115944609, 0.2682889402, 0.1438024938, -0.2254823297, 0.1650544256, 0.2172644138, 0.0699655265, -0.1272073686, -0.0523443818, 0.0216047429, -0.0645057335, 0.3125056326, -0.0494658723, -0.0428445973, -0.3994033337, 0.2892889977, 0.0588568375, 0.0774420276, 0.1536987871, -0.3419379890, 0.1001880243, 0.0644412413, -0.1239401549, -0.4558379948, 0.0988782048, -0.0998196453, 0.0812331885, 0.1971620023, 0.1275119483, -0.1749225110, -0.1160546318, -0.0042841057, 0.1773790121, -0.3382938802, 0.0851460472, -0.7027707696, 0.0694943443, -0.0503403433, 0.0015530023, -0.5040920973, 0.2215628475, -0.4624884725, 0.0299286321, -0.2522677481, 0.0795267895, -0.5096571445, 0.0398626626, 0.0890263319, -0.1839269251, 0.0891545489, -0.0902675241, -0.2229166478, 0.2193677574, 0.2060007751, 0.0851123184, -0.0320638940, -0.3070823252, 0.0253609121, -0.0694683120, 0.1018616930, 0.1685496122, 0.1325522661, 0.0204009023, 0.1625659317, 0.0355105661, 0.2455860078, -0.1774596125, 0.0249209702, 0.1936453283, 0.3521264195, -0.1725665629, 0.0904883817, -0.1495388299, 0.0960050002, -0.0454223529, 0.1898310333, 0.1233014241, 0.2568516433, -0.1506587863, 0.3209687173, 0.0050720936, 0.2148101330, 0.0167640783, 0.1473516226, -0.0818103179, 0.2972548604, -0.1365311295, 0.0876658186, 0.0160351396, 0.1789284945, -0.0807129368, 0.2206462771, 0.0995931849, 0.0130610857, -0.2004467249, 0.1917878538, 0.1628488004, 0.1795710772, 0.1372848153, 0.1190712973, -0.0470962524, 0.0675930381, -0.0411740467, -0.0377948917, 0.0614238232, 0.0829659477, 0.0962686464, 0.1998461038, -0.0191351902, -0.0362922587, -0.0544852801, 0.0296198241, 0.2043683231, -0.1379835457, -0.0399417467, -0.1195526719, -0.1097899079, -0.3120061755, 0.0008714878, 0.0587851554, 0.3205905855, -0.1935708374, 0.0008118943, -0.3452329338, -0.1612371355, -0.2843777537, 0.1246670336, -0.0183773320, -0.2070708573, -0.0371409431, -0.1419956684, -0.0752749071, 0.0536295585, 0.0622910596, -0.0705268458, -0.0612848997, -0.1071569547, -0.0414517112, -0.0573399253, -0.0013283158, 0.0356623307, 0.3239652514, 0.1570059061, 0.0726327077, -0.1566683501, 0.2630289495, 0.0168435797, 0.0536109284, -0.0297416784, 0.0881756470, -0.1066356301, -0.0818927065, -0.1570344567, -0.0259240642, 0.1372208744, 0.2887740731, -0.0236451197, 0.2701819241, -0.1003546193, 0.0333906710, -0.0110817142, 0.1834813952, -0.1924266219, 0.1750790626, -0.0310435519, 0.0526302494, -0.2683412433, 0.0851540864, -0.2466090620, -0.0175501909, -0.0555868819, 0.3839032352, -0.0244388748, 0.1038456932, 0.0254761390, 0.0561511442, 0.0554679073, 0.1681324244, 0.0977117270, 0.0845584422, -0.1174217090, 0.0147867445, -0.1038584933, -0.1127569303, 0.0144336559, 0.1717429906, -0.1505270600, 0.0244146474, 0.1326024085, 0.0056576715, 0.1125349551, -0.2461593151, 0.0844899565, -0.1050880700, -0.1923601478, 0.0770482197, -0.0113161141, -0.1634392440, -0.0230796151, 0.0706979334, 0.0214762632, 0.0886128172, -0.0694377869, -0.0193532426, 0.1351530105, -0.1547172815, 0.1911085993, -0.0007955020, -0.0481867641, -0.2453829050, 0.0671125650, -0.1978843659, 0.0241594668, -0.1289570779, 0.0607925206, -0.2050987929, -0.1038969234, -0.0677695498, 0.0377763771, -0.1122375280, -0.0190616082, -0.1380854696, -0.0383388251, -0.0942307189, -0.0780758262, -0.0075426721, 0.0562168993, -0.2854445279, 0.0369040743, 0.0828907341, 0.0667257458, -0.1901168525, -0.0833541378, -0.1917574108, 0.1110712588, 0.2709876895, -0.1688093841, 0.0944023430, -0.1212249026, 0.1393859237, 0.0256217048, 0.1299766302, -0.1317648739, 0.0459368080, 0.0143935354, 0.1509159356, -0.1486400515, 0.0056938087, -0.2680836022, 0.0034993656, 0.0357842222, 0.1936884224, 0.0046246252, 0.1959771365, 0.1966817975, -0.0353855006, 0.0241727624, 0.1211433411, -0.0639756098, 0.1120601371, -0.1338998228, 0.0689673275, 0.0962666944, 0.0025548337, -0.0369568206, 0.1015728265, 0.0149576338, 0.0265805963, 0.0038752824, -0.0974076241, 0.1648830622, -0.2385114729, -0.0794368833, -0.1165722087, -0.2008042037, 0.1125677153, -0.0505033471, -0.0503173843, -0.0106399385, 0.2240158021, -0.1456859410, 0.1538537443, -0.1526091993, 0.0777026340, 0.1845579445, 0.0662644655, -0.0494146012, -0.1174060851, -0.0764440447, 0.0173061602, 0.2442798913, -0.0366653800, 0.0999634862, 0.0260769371, 0.0706723779, -0.0372857563, 0.0097512174, 0.0739645287, 0.0604651831, 0.0152194034, 0.0312789045, 0.0567567013, 0.1356407255, 0.1459415555, -0.1985852122, 0.1839848310, 0.2283979952, 0.0706829503, 0.0780236870, 0.0749169365, -0.0124427015, -0.0339577794, -0.0229929928, -0.0961758122, 0.0325445309, 0.1090342626, -0.0030040443, 0.2401006222, 0.1992535293, 0.1698033065, -0.1470916122, 0.2991726995, 0.0615514293, 0.0843078196, -0.0264024343, 0.0434431061, -0.2440339923, 0.0617349334, -0.0249940734, 0.1069488376, 0.0839284435, 0.0041796505, -0.0286247991, 0.0791720077, 0.0984713510, 0.1730174571, -0.0079880841, -0.0944315493, 0.0449919105, 0.0883703083, -0.0092491815, -0.0016158897, -0.0859273970, -0.0504483096, 0.0252103489, 0.0999401808, -0.0221071783, 0.0495330654, -0.0791093335, 0.0236037858, -0.0500790551, -0.0318520293, 0.1443817914, -0.1664012969, 0.0669179186, 0.0461364910, 0.1793622077, 0.0266740955, -0.1117976010, -0.0989942849, 0.1572399139, -0.0357595868, 0.0416527875, -0.0022687681, 0.0306112934, -0.0753807947, -0.0450877212, 0.0143743558, 0.0397456475, -0.0859211907, 0.0844016597, -0.0951980501, 0.0282054469, 0.0266430527, -0.0648465902, 0.0170509890, 0.2036424726, -0.0680032521, 0.0990517810, -0.0470710993, 0.2762692571, -0.0821577460, -0.1895414144, 0.2047039121, 0.2067924887, 0.0163790416, 0.1788043827, 0.0401190333, 0.1276013851, -0.0926170200, 0.0639797449, 0.0394828022, 0.2069687843, 0.1203886047, 0.3783733249, 0.2127027065, -0.0370449349, 0.0838661119, -0.0599793270, 0.1612612605, 0.1016580313, -0.0122366007, 0.1117510051, 0.1880482584, -0.1224769875, -0.1361547858, 0.2401956767, 0.1875521690, 0.0886279419, -0.1099756211, 0.5204605460, 0.1415996850, 0.0241460316, -0.3007352054, 0.2227595299, -0.0584283210, 0.1748195738, -0.0900087059, -0.0309641957, 0.2073881328, -0.0155077549, -0.1319274902, 0.1796269566, 0.1759593189, -0.0881963372, -0.0141404765, 0.2156909406, 0.0049595567, 0.0016674742, -0.0028541149, 0.2449293286, -0.1208395436, -0.1062060222, -0.0256026965, -0.1018937528, 0.1332934201, -0.0488465279, 0.0699763298, 0.1768219918, 0.1445044130, -0.0202973727, 0.1367456019, 0.1441242993, -0.0711184442, 0.1264538616, 0.2277435362, -0.0992247909, 0.0689003468, -0.0018026897, -0.0794772953, -0.0718812943, -0.1702838242, -0.1338464618, 0.1501616687, 0.1109885797, 0.0270970929, -0.0337370597, 0.0268737804, 0.1083108187, 0.0709237158, 0.0910428390, 0.1359705478, 0.0088331206, 0.1028961241, 0.1810021102, 0.1862109452, 0.0096846214, 0.0382083803, -0.1716907769, -0.1033600196, 0.1980086416, 0.1965549737, -0.2026324868, 0.0278719068, 0.0559766740, 0.0389111154, 0.0062746974, 0.0701474398, 0.1988034248, 0.0775032490, -0.0317969695, -0.0909474790, -0.2764810920, 0.0234136768, -0.0307833552, -0.0790326819, 0.1984096467, 0.0580948591, -0.1115615293, 0.1562246680, -0.2978011370, -0.0084964950, -0.2401299924, -0.1460461468, 0.2683667839, -0.0004017187, -0.0227710456, 0.1071483567, -0.1317412108, 0.1158656776, -0.0294614118, -0.1662240475, 0.0572188944, -0.0044650822, -0.0442986637, -0.0113338921, -0.1803735644, -0.0989621282, -0.1111628041, -0.0411861613, 0.2311143875, -0.1088166758, -0.2846897840, 0.1047124639, -0.1996791959, 0.1039226875, -0.1652451307, -0.0186321754, -0.0023979563, 0.2390543967, -0.2344229817, 0.0167547856, 0.0443645194, 0.0296223145, -0.1270292252, 0.3322668672, 0.0755119026, 0.1209862679, -0.1976304054, 0.0961221159, 0.0524141155, -0.1943750232, 0.1147017106, 0.0701356679, -0.1019183397, -0.1533147842, -0.0036594113, -0.0123713771, 0.1212250218, 0.3242365718, 0.0859849826, 0.0527931638, 0.0357301012, 0.0078670736, -0.0440185294, 0.0378097259, -0.0765623823, 0.0304101538, -0.1973802000, 0.0181495734, -0.0387872569, 0.0063700248, -0.0326956101, 0.1340970099, -0.1167441159, 0.2823351920, -0.1063646823, -0.0370298922, -0.1478979290, 0.1531396210, 0.0377632827, 0.0835549310, 0.1005936116, -0.1057952046, 0.1342093647, 0.1820840389, -0.0684015155, 0.0531126820, -0.0192997288, 0.0420144163, -0.0841596574, 0.0968533754, 0.1104118973, -0.0330178253, -0.1629149467, 0.1817315817, -0.0266997181, 0.0915963948, 0.0575010814, -0.1720144749, 0.0935758129, 0.1397070140, -0.0546511412, 0.0878989697, 0.0049967561, 0.1127803624, 0.1026724800, -0.0537833869, 0.1800708473, 0.0311568100, 0.0980949625, 0.0338244736, -0.1901877522, 0.1995420754, -0.1074237749, -0.4291277826, 0.0402012579, 0.0313269421, 0.1338873208, -0.2785024345, 0.0490386337, -0.0157130267, -0.0737669244, 0.2434014231, 0.0135332886, 0.2472536415, -0.1311065704, 0.0731513202, -0.0882489309, 0.1670149416, 0.3113130331, -0.1862861365, 0.2485439479, 0.1333759874, -0.1140340716, -0.2871911824, -0.0263266489, 0.1156165078, 0.1937386245, 0.0602511056, 0.0535345599, -0.0134021342, -0.1446763426, 0.1478597671, -0.0549474619, 0.2597467601, 0.1756417006, -0.0928531960, 0.1062288210, -0.0346849635, -0.0966821909, -0.2114053071, 0.0279134214, -0.1099220663, 0.1731462777, 0.0914315209, 0.0284549780, -0.0163829960, -0.3571008444, 0.2969674170, 0.2241970748, 0.1780818999, 0.0610111468, 0.0009552576, -0.0538013652, 0.1221945286, -0.3068898916, -0.1580608040, 0.2401775867, 0.2935367823, 0.3231287003, 0.1020991802, -0.0095600616, 0.0786549076, -0.0013737072, 0.2215252519, 0.1749317646, 0.3179851174, 0.0856874362, 0.0294676740, 0.0137927597, -0.0664046481, -0.0048775878, -0.1665960401, 0.2084258348, 0.0459243394, 0.2819667161, -0.0538948327, -0.0069877319, -0.0142449597, -0.0663206801, -0.0738257989, 0.1036513820, 0.0333968587, 0.1703809798, -0.1735009998, 0.1892360300, -0.1449253112, 0.0618018173, 0.0118328528, 0.1597503573, -0.1427766532, -0.0175380856, -0.1089987829, -0.1456039697, -0.3576662242, 0.0420613177, 0.0844224617, 0.0404428951, 0.0524242073, 0.0877481923, 0.0195077918, 0.2248386741, 0.1036421657, 0.0259207599, -0.1652934104, -0.0524827987, 0.0714470595, 0.2525614202, 0.2628512383, 0.1794653684, 0.1949269623, -0.0515968129, 0.0304930136, -0.0504829437, 0.3851988316, 0.2755582333, 0.0977901220, 0.3318537176, 0.1253443658, -0.0788527802, -0.2328261137, 0.0015328126, 0.0160966311, 0.0468242243, 0.0947890282, 0.0585355051, 0.1717662811, -0.3174451590, 0.1892107576, -0.0797743350, 0.3935775459, -0.0509886444, 0.0795579329, 0.1344531924, 0.0634342879, -0.2292093635, -0.0850094035, -0.1374193281, 0.0414822102, -0.1476130337, -0.1853678077, 0.0291532204, 0.1923446506, 0.0620654784, 0.1265671551, 0.2288011760, 0.0812429637, 0.1079897955, 0.2662411928, 0.0083329855, 0.1515389830, 0.1758740395, 0.0996867269, 0.0998469666, 0.0993200988, -0.0835033283, -0.1570485234, 0.1250752062, -0.2528546751, -0.1399510801, -0.0998820439, 0.1000641361, 0.0010892744, 0.1896136552, 0.1661422551, 0.0690723136, 0.0344812237, 0.1777143031, 0.1429065317, 0.3043567836, 0.1597498804, -0.0530821905, 0.0298981667, -0.0128344269, -0.1438001692, 0.1855927557, 0.3067916334, 0.0095347278, 0.0234478787, -0.1120851487, -0.2370388955, 0.0716135502, 0.2280263901, -0.0796220750, -0.1547804624, 0.3426114619, -0.0809338540, 0.2781364024, 0.1692838669, 0.0086718472, 0.2479293346, 0.0459739305, 0.1370634884, 0.1000417620, -0.0849708617, 0.0219794065, 0.0793251693, -0.0096624345, -0.0417943560, -0.0940855145, 0.0315116383, 0.1991455406, -0.0835076720, 0.3315738738, 0.2460271716, -0.1114532202, 0.0056657796, 0.1092708558, -0.2594452500, 0.3675828874, 0.0359581858, 0.2318796515, 0.3311099112, -0.1151144728, -0.2716745734, 0.0774824843, 0.2687356770, 0.1053365991, 0.1003493741, 0.1459632814, 0.1160229445, 0.0458644554, -0.0220504683, 0.2319876999, -0.0300189462, 0.2801383436, 0.0825816318, 0.1056409627, 0.2963042557, 0.0477405787, -0.1812338829, 0.1267836839, 0.1564704180, 0.0743860826, -0.0648113489, 0.0988689438, 0.2588919103, 0.1744957715, 0.0634104535, 0.1443292648, -0.2876522541, 0.2779834270, -0.1228802577, -0.0926617756, 0.2678423524, 0.1241003349, -0.1138229966, 0.0015579438, 0.2861071825, 0.0936393812, -0.1597716063, -0.0897421986, -0.0199480541, 0.0925519094, -0.0402595364, 0.1104634628, 0.1474003643, -0.1537817717, 0.0291711241, 0.1967414469, -0.1794750988, 0.0996462256, 0.0981990099, 0.0388659313, -0.2624306679, 0.2199696898, 0.1145826504, 0.1773638874, 0.1983618140, -0.0689167529, 0.0962785631, 0.0633994713, 0.1875098646, 0.0951656103, -0.1398201436, 0.1348156333, -0.2120882273, 0.1177419573, -0.0164977573, -0.0937247202, -0.0076167579, 0.0840118229, -0.1865478158, 0.0815692097, 0.0681893677, -0.0236179791, 0.2801843882, 0.3217771351, -0.0407053269, 0.1150150001, -0.0335780010, 0.1929935664, 0.3802671731, -0.0767797157, -0.1045889556, -0.0839315206, 0.1388324946, 0.0897056609, 0.0245785285, -0.0858916864, 0.1238068864, -0.1080019698, 0.2596050501, 0.1406129748, -0.2308475375, -0.0813145489, -0.4474213719, 0.0345544443, 0.5140622854, 0.1104991958, -0.2550832629, 0.1515472829, 0.0644311607, 0.0155790923, 0.0206548739, -0.0182728190, -0.0651975125, 0.2909343541, -0.3219872713, -0.0389933102, -0.3238455653, 0.0971390605, -0.4507302046, -0.1300712973, 0.2265385836, -0.0877113342, -0.3893977106, 0.1547100395, 0.2600283027, -0.0802210122, 0.0719517842, -0.4109513760, -0.1913031042, -0.0409664959, -0.1164337769, 0.3359383345, -0.1550074518, 0.0503856279, 0.2978342772, 0.1160738915, 0.0976151600, 0.1955506057, 0.0715258121, 0.1489955336, 0.0341840051, -0.2557029128, -0.0238955151, 0.0629746988, -0.0738441497, -0.1273454130, 0.2550035417, 0.1273774207, 0.0001587727, 0.0376013741, 0.4047411084, -0.0849484727, 0.2264215350, 0.0526797362, 0.2230048329, -0.1410143673, -0.0374159105, -0.3592384458, 0.0830575600, -0.2530132532, -0.0965880752, 0.0451720878, 0.3696562350, 0.3609471321, -0.1948180199, 0.0963437259, -0.0941518173, 0.2079741508, 0.2882452905, -0.1616000086, 0.0363274701, 0.0628881752, 0.1605257392, -0.1917950958, -0.2685049176, 0.0630457923, -0.0826772079, 0.2471413761, -0.0841790289, 0.0563329086, -0.3324878812, 0.0698142946, -0.5129957199, -0.0192915052, 0.0820968971, -0.0827357098, -0.1134734601, 0.2772997022, 0.0628513917, 0.1160162240, 0.0334157534, -0.1028593332, 0.1582940668, -0.1266480982, -0.0419891775, 0.2183897048, -0.1732393205, -0.0705796480, -0.3522923589, -0.2737193108, 0.2925632894, 0.0686810985, -0.0827117041, 0.2085794955, 0.3313890696, 0.1347743571, 0.0880931467, -0.3211148381, -0.0623491816, -0.0044919793, 0.0508017391, 0.3328457773, -0.1092725918, -0.0257463120, 0.1282788366, -0.0327581279, 0.1676122248, -0.0430838652, -0.0729355589, 0.0854906887, 0.0602138937, -0.1489505768, -0.0092098238, -0.1680175215, 0.1077413112, 0.1305217594, 0.1003677174, 0.4284115732, -0.1664479077, 0.0152498726, -0.0870311856, -0.1354223639, 0.1652557105, -0.0217240434, -0.0049618101, 0.0712294281, 0.0956951082, -0.2883968055, -0.0073452862, -0.0694147125, -0.1124539450, 0.1153393537, 0.2128290236, 0.6068193316, 0.0159621388, 0.1595839709, -0.2870008051, -0.0568288080, 0.2645183802, -0.0029994093, -0.1051378921, 0.0318146870, 0.2162296474, -0.1202830747, -0.0509741567, 0.1261099875, 0.1191758737, 0.0295195300, 0.1620062143, 0.3461929560, -0.1360406280, -0.0256052185, -0.0796099678, 0.0037691151, 0.0665429160, 0.1799925715, 0.0133607471, 0.2493514419, 0.0460848846, 0.0412420332, 0.2690527737, -0.1096016243, 0.0858213007, 0.2141765505, 0.2976004481, 0.1160268411, 0.3521302938, -0.0847020820, 0.2923392653, -0.0505532250, 0.0417873189, 0.1703346670, 0.2733671665, 0.1154014468, 0.1163348556, -0.1916658282, 0.0662147254, 0.0892547667, 0.3136157095, 0.1270885020, 0.2108985782, 0.1761421263, 0.0584316850, 0.0839893445, 0.1945185959, -0.0581765659, 0.2087498456, -0.0107282372, 0.0217538010, 0.1371421814, 0.1118239239, -0.1523353606, -0.0303384326, -0.0706770867, 0.0714539289, -0.0179235451, 0.0839935318, 0.2928174436, -0.1263752133, 0.1521597356, -0.2261090428, 0.0279379729, 0.0237553436, -0.0592636764, -0.0476427525, -0.0745529309, 0.1599313617, -0.0846807137, -0.2226872593, -0.0374748111, -0.0755567104, 0.1041438580, 0.0124541670, 0.1621663421, -0.0193318874, 0.2477856278, -0.2797685266, 0.1341129541, 0.2298813760, -0.1462878436, 0.0275805518, 0.0725530908, -0.0288145263, 0.0893443227, -0.2004646361, -0.0707699507, 0.0680164546, 0.1780695468, -0.1204681024, -0.0018190477, 0.2574150860, 0.0188837815, -0.1744410396, 0.2536717951, 0.1838490367, 0.1896875352, 0.1933531016, -0.0753836408, -0.1294326931, 0.3054724336, -0.3170247376, 0.1134922057, 0.1212437749, -0.0092683993, 0.2603807449, -0.0845954195, 0.3632709682, 0.1602587402, 0.1300434619, 0.3348430097, -0.2715455890, 0.0655680448, 0.3393888474, 0.0476661474, -0.4797316790, 0.1088880301, 0.0041974918, 0.2684105933, 0.2382330000, 0.1548709422, 0.1655886173, -0.0688040107, -0.1102030724, 0.0632920116, 0.0824437439, 0.1012033969, -0.0150158908, -0.0039127455, -0.0126909465, -0.1129714623, 0.1319659352, 0.0335551053, 0.0985672623, -0.0448418371, -0.0642260835, -0.0821304619, -0.0152773205, 0.1155747697, -0.1066397503, 0.0200919546, -0.1291994005, -0.0796423554, 0.0089183245, -0.1374212056, -0.0747786313, 0.0420725718, 0.0018344033, 0.0359481573, -0.0365821198, 0.1215521693, 0.0525018461, 0.0913859680, 0.0640066788, 0.2559352517, -0.1109084487, -0.1248949915, -0.0185906626, 0.1490214169, 0.0328804553, -0.1203199252, 0.0133756902, -0.0391417667, 0.0527199171, -0.0197017733, 0.0696509555, 0.1188972369, 0.0567526929, 0.0021171893, 0.1178554893, 0.1355108321, -0.0556892827, -0.0053593363, 0.0605277829, 0.0870816708, 0.0347652212, -0.0159074236, 0.1238899007, -0.1028337106, 0.0409099311, 0.0685322136, -0.0806557536, -0.0312378127, 0.0561612770, 0.0602380112, 0.0902082846, -0.0750528499, -0.0634498745, 0.2006739676, -0.1003521234, 0.1142072529, -0.0216302071, -0.0921613425, 0.0566362776, 0.0427335165, 0.0084507372, 0.2839685678, -0.0974506810, 0.0942961723, -0.0466515534, 0.0485192612, 0.0962127894, -0.0096581541, 0.1372622699, 0.0456678420, 0.1460172683, -0.0641191900, 0.0056107156, -0.0420445204, 0.1268228590, 0.0805294365, -0.0425418094, -0.0101578459, -0.0375329629, 0.0521667935, 0.0385236852, -0.0117171900, 0.0441231541, -0.0302503742, 0.0683931410, 0.0105472412, 0.2462115884, -0.1573880017, -0.0096141873, 0.0041841981, 0.0746392757, -0.0953256935, -0.0163579639, -0.0461658910, 0.1992478967, -0.0133066475, -0.0791739970, -0.0057280636, -0.0098033957, -0.1520154178, -0.0774079487, 0.0636802912, 0.2122824490, 0.0352495201, 0.0626854375, 0.0862041712, 0.0678588673, -0.1550152451, 0.0194291156, 0.0103265019, 0.0031233062, -0.0719254240, -0.2514799535, -0.0037932221, -0.1442901343, -0.0154279443, -0.0790114254, 0.0044001378, 0.1400870085, 0.0290858354, -0.0641110986, -0.0422403142, 0.0189517904, -0.0645441338, 0.1179144457, 0.1398516744, -0.0098944921, -0.0691001341, -0.1033123881, -0.0699451640, 0.0520442985, -0.0703928992, 0.0565074496, 0.0422407649, 0.0340344980, 0.1172032729, -0.0631581694, 0.1002479568, -0.0638839677, -0.0374151990, -0.0243074987, 0.1209860295, -0.0680367425, 0.0449501686, -0.0345840715, -0.0025131658, -0.0389347896, -0.0137322098, -0.1778884381, 0.1288104206, 0.1484423578, 0.0390972532, 0.1652324498, 0.0055602933, -0.1917890310, 0.0991291851, 0.1864724904, -0.1205930784, 0.2569036484, -0.0338126831, -0.0467884950, -0.0842363909, -0.0503169112, 0.1352280080, -0.2250495553, 0.0400276929, 0.0589398704, 0.0264030248, 0.1157236025, -0.1056161672, -0.2951350212, 0.1718527228, 0.1651199013, -0.0886069536, -0.0743502975, -0.0151306717, -0.2618598044, -0.1597734988, -0.2356140167, 0.0262936931, 0.0872078836, -0.0474882536, 0.0012686795, -0.0417329110, -0.0774505585, 0.0967388004, -0.1696019024, -0.0726903081, 0.2633901834, 0.1928946823, 0.0042497497, 0.1017250866, -0.0589239858, -0.0568949506, -0.2762131095, 0.0076806899, 0.2772360146, -0.0291970503, 0.1920381635, 0.1249456927, -0.0354406014, 0.2090778351, 0.1646400690, 0.0298499390, 0.1018767059, 0.1256860346, 0.2725416124, 0.1676879823, 0.2058032006, 0.1064594612, 0.1473654360, 0.0104445769, 0.2492740303, -0.0094568571, 0.1436103880, 0.3003391027, 0.2404244840, 0.0156899970, 0.0062303101, -0.1250009537, 0.0707157031, 0.0653077513, 0.0568650924, 0.2533034086, -0.0190719850, -0.0247126967, 0.0438596942, -0.1899338514, 0.0072013014, -0.0108818058, -0.2402153462, -0.0061208298, 0.0330120437, -0.1167528927, -0.1096242145, 0.1825644225, 0.1162734702, 0.0633492097, -0.1268736571, -0.1147040799, -0.0712667257, 0.0125748450, -0.0106600206, 0.0168373175, -0.1477051377, -0.0662388057, -0.1769453287, -0.0211539175, 0.0496425033, -0.0982955769, -0.1585278064, 0.0344336517, 0.0297124889, -0.0999742672, 0.0632245094, -0.0337372944, 0.0502026416, -0.0962590501, -0.2700678408, -0.1465759575, -0.0318228975, -0.0236308761, -0.0650960132, 0.0311883874, -0.1344683170, -0.0968299061, -0.0499984398, 0.1143673584, 0.0895145088, 0.2992819846, -0.0295148101, -0.1818987578, 0.0180814117, 0.0837016925, -0.0576642752, -0.1309213489, 0.1529387534, -0.0705257952, 0.1320677996, 0.1778499484, -0.1042442173, 0.0720630735, -0.0556867905, -0.0803043097, -0.0079776309, 0.0756485611, 0.0719448179, 0.0916560814, -0.0765910074, -0.0909009278, 0.0117632430, -0.0780402720, 0.0256228670, 0.2067529857, -0.0063756024, -0.0233824402, 0.2581793368, -0.0312112439, -0.1072543785, 0.0041254861, -0.0352714136, 0.1110110581, 0.1200650185, 0.0629489943, -0.0600484312, 0.0059168292, 0.0090783304, -0.2056321651, 0.0569609031, 0.1114882231, -0.0380275510, 0.1080684066, -0.0813295096, 0.0183032639, -0.0016155508, -0.0527995341, -0.1341074407, 0.1663979292, -0.1352820694, 0.0257989783, 0.1453009099, -0.0213709455, -0.1803019047, -0.2855114937, 0.1963570565, 0.1752592325, -0.1693531871, 0.0039413180, -0.0772494376, 0.1533454508, -0.0351698361, 0.3718415499, -0.2000657469, 0.0177041460, 0.0676063374, -0.0103891855, 0.0233459268, 0.0902102739, -0.0962223932, -0.2726093233, 0.1514335275, -0.0726346746, 0.1577984542, 0.1229626760, -0.2130309939, 0.3777617514, 0.2518027723, 0.1787902713, 0.1205725074, 0.2553206086, 0.0068332246, 0.1038943604, 0.0181555972, 0.1561429352, 0.0463078693, 0.1577019840, 0.0849718079, -0.1257948130, 0.2423233092, 0.1490174830, -0.3239318132, 0.1142292619, 0.1482206136, -0.0257472843, 0.1830137223, -0.2546899021, 0.3531967103, -0.0462313630, 0.0008300492, 0.1376508027, -0.0374372751, 0.2274499238, 0.0345839746, -0.1034360602, 0.0568098240, -0.4101330936, 0.1117520779, -0.3451411724, -0.2766310275, 0.2569697201, 0.3299115300, -0.4036717415, 0.1744167358, -0.3222207427, -0.0502690449, 0.0796174780, 0.0102242613, 0.0860855877, -0.1032367572, 0.0872381628, -0.1434648633, 0.0240914840, 0.0324913114, 0.0440161042, 0.0365011021, 0.0133481063, 0.1363564432, -0.0425640158, 0.1287774295, 0.1296398640, 0.0726727843, 0.0302370396, 0.0731138512, 0.0405752584, -0.1575900465, 0.1226303652, -0.0918985456, -0.0060934764, 0.1203551888, 0.0191038139, -0.1508977264, 0.0205643065, -0.0853377432, 0.1492236555, -0.0467457362, -0.0319793411, -0.0684008449, 0.0203662012, 0.0901603922, -0.0722677559, -0.2137004137, -0.0382884033, -0.1604754478, -0.1470558345, 0.0900837332, -0.1382181644, -0.1099927127, -0.0577023700, 0.0900127515, -0.0552501194, 0.0445396043, 0.0383606814, -0.0196577795, 0.1791012734, 0.1783256680, 0.0746449381, -0.1283482760, 0.1025661081, 0.0058131558, -0.1437881142, -0.0780492052, 0.0073212693, 0.2964996099, -0.0384171046, 0.0187824611, -0.0335625075, -0.0476905257, 0.0236090887, 0.1071178019, 0.1867480278, 0.2726715207, 0.0787859187, -0.0083503062, 0.0563567206, 0.1009070426, -0.1335113049, 0.1588380635, -0.0264679287, 0.0736517161, 0.2378971577, -0.0581692532, -0.0473506749, 0.2641240656, -0.2188420594, 0.2704774737, -0.1051203907, 0.2987895608, 0.1796526760, -0.1038936973, 0.0342228897, -0.0972223058, 0.0501041636, -0.0287381820, 0.0236951970, -0.0459210984, 0.0334069431, 0.0765420496, -0.0833877251, -0.1442267597, 0.0654174760, -0.0641710460, -0.2130959481, 0.0861236975, 0.0614225306, 0.1398409009, 0.1032606587, -0.0139191905, 0.0302879978, -0.0749166086, -0.1212115809, 0.0240129214, -0.1109869182, -0.0110332845, 0.1108847782, -0.1508920044, -0.0692695379, 0.0326840170, -0.0228689630, 0.0519635975, 0.1538760066, -0.0334023684, -0.0762483403, -0.0076370393, 0.0578753091, -0.0495584235, 0.0466006361, 0.1683146805, 0.0054538869, -0.1620045602, 0.0830593035, -0.0358396098, 0.1134589165, 0.0471442975, 0.0500604622, 0.1650924087, 0.0421552025, 0.1826370209, -0.0736074522, 0.0364110991, -0.1523839682, -0.1276071668, -0.0478588752, 0.3055454493, -0.2245172411, -0.1902333647, -0.0503484346, 0.0145459408, 0.2562194169, 0.1130953729, 0.0574030690, 0.1087478772, 0.0533741750, 0.0474496521, -0.1636757106, 0.2009043247, -0.0926088989, -0.1287944019, 0.0550849847, 0.1919935346, -0.1775010824, -0.1157050803, -0.3002514243, -0.1031252518, 0.1836943477, 0.4101737142, 0.1170781180, 0.2910824716, -0.0017390560, 0.0011049837, 0.1318650842, 0.1528503299, -0.0295230467, 0.0731963217, 0.0525423922, -0.1104196608, -0.0203859247, -0.0842682570, -0.2210527807, 0.0513532050, -0.0064337053, 0.0844606236, 0.0276500229, 0.0683355853, -0.0286980234, -0.0370776318, -0.0434342884, 0.1829280704, -0.0524965301, 0.1344380081, 0.1762378961, 0.0795968324, -0.0694527626, -0.0797878504, -0.1996698678, -0.0424059704, 0.0496699922, -0.0234400555, 0.0590798892, 0.0718891025, 0.0415795334, -0.0956209004, 0.0345598124, -0.0582167357, 0.0274250340, -0.0778508186, 0.2551278174, -0.0165726542, 0.0790127367, -0.0179580208, -0.0069641434, -0.0148989810, 0.0293885879, 0.0544676706, 0.0536295027, -0.0542002320, 0.0115701323, 0.1955101639, -0.0869524181, 0.1368170530, 0.1887469590, -0.1393311620, 0.0439346805, 0.0389189608, -0.1035744101, -0.0099396398, -0.0315764882, 0.0018461933, 0.1290530115, 0.2522777915, -0.0617751814, -0.0355799682, -0.1898120344, 0.1204701141, 0.1028584838, 0.1085012332, 0.1716095507, -0.0363669768, 0.0107289385, -0.0238518659, -0.1491350234, -0.2704716921, -0.0070363781, -0.1133728400, 0.1188792363, 0.2516804039, -0.0589747094, 0.0653110594, 0.0950748324, 0.0534729250, 0.0959094837, 0.0587532930, -0.0416925699, -0.0656757131, 0.2661678195, 0.0528793260, -0.0685554594, 0.1564458311, -0.0330883563, -0.0290669594, -0.1865633279, -0.0574558564, -0.0383512117, 0.1602686346, -0.0330042168, 0.0085894642, 0.0047477880, -0.0231495202, -0.0624087416, 0.0740678608, 0.0776278302, 0.0838816464, -0.0329702385, -0.0181870442, -0.0589152984, 0.0045975628, 0.0338762328, -0.1557282805, 0.1920569241, 0.1120944172, 0.2931451201, 0.0407577194, 0.0070116194, -0.1247023642, 0.0695142224, -0.0390452929, -0.0374284796, -0.0236437246, 0.0072025736, -0.0095942412, 0.1615820527, 0.0860450789, -0.1096079648, -0.0836778209, 0.0141637791, 0.0077754334, -0.0844914168, 0.0848850757, -0.0324242711, 0.0879675448, 0.3005821705, -0.0283912197, 0.2014490962, 0.0489665568, 0.0690305755, 0.1272988766, 0.1305886507, 0.0621757656, -0.0263263695, 0.1172562391, -0.0528775454, -0.0118044838, -0.1816667765, 0.2295525074, -0.0584719032, -0.0102142356, 0.1941543669, 0.0172767136, -0.0335838161, 0.1741907448, 0.1150823236, -0.1335637271, 0.1342144608, 0.1306558698, 0.1994116902, 0.1676480919, -0.0817161724, 0.1192762703, -0.0460870788, 0.0590394139, 0.0771519467, -0.0414345674, 0.0105277793, -0.0075635216, -0.0459120534, -0.0502774641, -0.0222913232, 0.0486677587, 0.0337344334, -0.0592592657, -0.0982974470, 0.1618980765, -0.0088541936, -0.1107110009, 0.1666598767, 0.1519307494, 0.0781469047, -0.1512360275, 0.0671550110, 0.0537693053, 0.0984557867, 0.0236112215, 0.1410838515, -0.1112949401, 0.1135816276, -0.0994565263, 0.1733733416, 0.2070118338, 0.1377317905, 0.0363306142, -0.0347892381, 0.1157122180, 0.0264567975, 0.2066891193, 0.2344876230, -0.1288514137, 0.3830041885, 0.2452358902, 0.1555202454, -0.0366990454, 0.0372365415, 0.1461917460, -0.0325954221, 0.0293706525, 0.2229014188, 0.2263545543, 0.0040957956, 0.2084855288, -0.1249920428, 0.2360301763, 0.1457206905, -0.1927230209, 0.1330291927, 0.0347044691, -0.0118180020, 0.1207571626, -0.1098421216, 0.1780999899, 0.0448508412, -0.0490795597, 0.0774863213, 0.0443181396, 0.1099329293, 0.1140227318, -0.0078079542, 0.2043212652, -0.1201731414, 0.0525828041, 0.0686256289, 0.0043276255, 0.0728057250, 0.2098392397, -0.0881365836, 0.1235161945, -0.0063446313, 0.2426585406, 0.1217521057, 0.1749678105, 0.1274132729, 0.0823178068, -0.0348748155, -0.0077224276, -0.1216312349, -0.0616233535, -0.0204921328, -0.0194510762, -0.0714713186, -0.1339651644, 0.0352860540, 0.1730365753, -0.1230092570, 0.0252328366, 0.1009855196, 0.0805979967, -0.0933968276, 0.1543506235, -0.0746929869, 0.1589197218, 0.0866483077, 0.0392326526, -0.0001405786, 0.0888448134, -0.0884884819, -0.0345156677, -0.0923617631, 0.2143587172, 0.1282843053, -0.0600566491, 0.1762702167, 0.0145671135, -0.3008855581, 0.4320422411, -0.1197173521, 0.1022988260, 0.1127892584, -0.1295467913, 0.1968527287, 0.2296567708, -0.1724746823, 0.0936873257, 0.0710361004, -0.0476164781, 0.0848816559, 0.0488804542, -0.0156983957, -0.0751999468, -0.4780385196, 0.2003939599, 0.2019035220, 0.1390383244, 0.1518967599, -0.3031190634, 0.0526313148, 0.1590849906, 0.0780123770, 0.0871880352, -0.0459922440, 0.0334154330, -0.0929356739, -0.0023573115, -0.1601494849, -0.4881829321, -0.0944983214, 0.0895121992, 0.0262734164, 0.0783089846, 0.1076403037, -0.3124702275, 0.1730058938, -0.1592319161, -0.0413204990, -0.2262662202, -0.0191543084, -0.1865493059, 0.2122501433, -0.1304430366, -0.0391889885, -0.1450301856, -0.1064512879, 0.0868432447, -0.1276407093, -0.0256946739, -0.0681729168, -0.0273524895, 0.1203507856, 0.0468623042, -0.1565105021, -0.0775520056, 0.0792752653, 0.0245626457, -0.0014178006, 0.0426283106, 0.1365205348, 0.1505676210, -0.1947880685, 0.0178876501, 0.0331909582, 0.0246807411, 0.0758235231, -0.1441869736, 0.0571919233, 0.0805358067, -0.0601776876, 0.0156990215, 0.1104440913, 0.0526180603, 0.1270699054, 0.1342697293, -0.0214458089, -0.1403416693, -0.2151966542, 0.1869050711, 0.0831125230, -0.0810036808, 0.0157057475, -0.1466616392, 0.0114727374, 0.1232135370, -0.1981217414, 0.0284363963, 0.2175040096, 0.0756766796, 0.1518718898, 0.0317405127, 0.0112146009, -0.1572269797, -0.1457676142, 0.2049414068, 0.1564601660, 0.0229754820, 0.1434039623, -0.0015325474, -0.0653317645, -0.1360013932, 0.1731816381, 0.0820477456, 0.0220803116, -0.0147032142, 0.0641176552, -0.3076899648, -0.1714093238, -0.2430077344, -0.1625853628, -0.2059771866, 0.1125354767, -0.1286991388, 0.0336770602, 0.2792945504, 0.0809957981, -0.0276966915, 0.0888053253, 0.2731018662, 0.0709938258, -0.0647978038, -0.0112448074, -0.2209554166, -0.1127759516, -0.3304679990, 0.0500182770, 0.2215471715, -0.0203737933, 0.2912747264, 0.1810424924, 0.0250595920, 0.2039503753, 0.0301448330, 0.0388403721, -0.0255556721, -0.0490160957, 0.0588794984, 0.0872957185, -0.0635082647, -0.0290263668, 0.1057660431, -0.1153323501, 0.1382640600, 0.1094676703, 0.2408918142, 0.0924063548, -0.0975131616, 0.3887477517, 0.0448615402, -0.1223850697, -0.0789908916, 0.1209886372, 0.2017004639, 0.0005912801, 0.1437260509, 0.0435097143, -0.0580703057, -0.0815806463, 0.1894121766, 0.0358267576, -0.0453830697, 0.0879222453, -0.1189778447, 0.1411197186, -0.0740761384, 0.0831561461, -0.0253366921, 0.2556776702, -0.0008692809, 0.0114246840, -0.2219095379, -0.0138419848, -0.0900122300, 0.0594058111, -0.0266214665, 0.1386796087, 0.1040454507, -0.0579037666, 0.0325604416, 0.1426055431, -0.2010877579, 0.1804568321, 0.1684318334, -0.0280216355, 0.0888940692, -0.1418630034, -0.0754967630, 0.0496070720, 0.0976728871, 0.2439767420, 0.0396438576, -0.0077673513, 0.1319937706, -0.2806121111, 0.1090337634, -0.0463392995, 0.2568054795, 0.2530898154, 0.4279314578, -0.1287313998, 0.4237266183, -0.0954837054, -0.0347950719, 0.1500194222, 0.1240194514, 0.0176526289, -0.0856953934, 0.1947301626, 0.2698118091, 0.1067559794, 0.1618993282, -0.1547143310, -0.0051393723, 0.0509479977, 0.2620425820, -0.0411119945, 0.0907107741, -0.0844546109, -0.0160018727, 0.1811417937, 0.1419342756, -0.1052025110, 0.1482836604, 0.1538642496, 0.2823221385, -0.1201905385, 0.2413025796, 0.1008095816, 0.0798987150, -0.0191709772, 0.4562871754, 0.1634696424, 0.3581188023, 0.1475728750, -0.2973158062, 0.0637521744, 0.0989353284, -0.1532585174, -0.0426145718, -0.0537743978, 0.1099819988, -0.1060527116, 0.0098233875, 0.1141272709, 0.1457935870, 0.2397551090, 0.0741570070, 0.0121020414, -0.0669432580, -0.1076105535, -0.3671759665, 0.1639520377, 0.0228274167, -0.0961903855, 0.1302225739, 0.0109458435, 0.0888829380, -0.0354473628, -0.1826432943, -0.0365451165, -0.0308874957, -0.0995051488, -0.0954437330, 0.0278288778, 0.0332899876, 0.0734939873, -0.1405305266, 0.1551600993, 0.0104827499, 0.0763572678, 0.1849265993, 0.0479275770, 0.3306785226, 0.0695191100, -0.1302324831, -0.0379302800, 0.2913913429, -0.0345873907, -0.1678109467, 0.0222029090, 0.0587749183, 0.2770599127, 0.2021883577, 0.0902018100, 0.2632778883, -0.1851562411, -0.0768260956, 0.0719671845, -0.1749101579, -0.0918413550, -0.0093252910, -0.1067570895, 0.1207378656, -0.1036470458, 0.1215649992, 0.1836354584, -0.0664877743, -0.0407034159, -0.0390334241, 0.1386605948, -0.1254829615, -0.0016123593, 0.0088362200, -0.0026531252, -0.1678035408, -0.1834983230, 0.0122899078, -0.2386859208, -0.0976916924, 0.1394835860, 0.0772256106, 0.0385013930, 0.0463012904, -0.0444852374, 0.0142378062, -0.0501934700, -0.1037384495, -0.1751671880, -0.1153523773, 0.0179833081, 0.0732151642, -0.1628903747, 0.0193015523, 0.0104412707, -0.1073506922, 0.2651083469, 0.2011282444, -0.0536464155, 0.0804358199, 0.0997938141, -0.0840520263, -0.2234635502, 0.0738373697, -0.1391444802, -0.1709649712, 0.1135793105, -0.1092357263, -0.1175796613, -0.1063223854, 0.0681310073, -0.1422321200, 0.0355345830, 0.1478478611, 0.0389508530, -0.0153037673, 0.0871435255, -0.1215426251, -0.1120333374, 0.0379215851, -0.0179151129, 0.0684446841, 0.0038497772, -0.1035024598, 0.2576597929, 0.0329029709, 0.1082471162, 0.0709784254, 0.1093589738, 0.0582438000, 0.1124719381, 0.0341857634, 0.1816756874, 0.0867529809, -0.0708237812, 0.0593939386, -0.0502084754, 0.0560802668, 0.1927266419, 0.0310658496, -0.0133787505, 0.0534569919, -0.0287286397, 0.0833415091, 0.0033731512, 0.0593362674, -0.0533075593, -0.0375476815, -0.0434976853, 0.0309638772, 0.1742707342, -0.0611293986, 0.0043983883, -0.0530586019, 0.1078030020, 0.0440294370, 0.0069202511, 0.0052641528, 0.0282944757, -0.0334084854, -0.0560401678, 0.1717112511, -0.0969881415, 0.1671658605, -0.1453525126, -0.1461039782, 0.0790917203, -0.0008678023, 0.0838406906, -0.0406433381, 0.0937494710, 0.1226622909, 0.0401219763, 0.1324080825, 0.0608593598, 0.0194701385, 0.1370261461, 0.0538365021, 0.1220953315, 0.0863661245, 0.2050557882, -0.0086972630, -0.0975019783, -0.0246716384, 0.0293808281, 0.1056545004, 0.0936518088, 0.0003124223, 0.1011624187, 0.2235346884, 0.0775376782, -0.0328669026, -0.0511481687, 0.0259278063, 0.0462193228, 0.0632480383, 0.2167031169, -0.1804042757, 0.0165997390, -0.3129972517, -0.0419529341, 0.0757865906, 0.0946208984, -0.0709511116, 0.1998106092, 0.0459823161, -0.0399764292, -0.1612587571, -0.0815906748, 0.1532891691, 0.2796582878, -0.1151500270, 0.1689444631, -0.0711396262, 0.0779984295, -0.2285651863, 0.1418461055, -0.1440771371, 0.1080705747, 0.2226786017, 0.0930964500, 0.1252551228, 0.0578376018, -0.0830751732, 0.1661695838, 0.1077321991, -0.1265968233, 0.2550828457, -0.1490063816, -0.1743668318, -0.0376179889, 0.0665415972, 0.2035737038, -0.1571341455, 0.1467876881, 0.2485674024, -0.1256672889, 0.3035318255, 0.1026068926, -0.1471738368, 0.1961952001, 0.0549807809, -0.1092535853, 0.2264525890, -0.0941738635, -0.1350961328, 0.0660813004, -0.2214448005, 0.1116790771, -0.1681808680, 0.0866395757, -0.0104567679, -0.0805734992, 0.0213456824, -0.0210895315, -0.2036647052, 0.1372306496, 0.3091379106, -0.0733698085, 0.0628878102, -0.2683016062, -0.1957140416, -0.0047484799, -0.3371691704, -0.0316339880, -0.1741658151, -0.0274596754, -0.1873671710, -0.1139127463, 0.1204242408, -0.1986812651, -0.1965438426, 0.1636212915, 0.2465146929, 0.1556776017, 0.1664702445, -0.2453906685, -0.0262843035, -0.1757983714, -0.0459739305, -0.1081512868, 0.0073227109, 0.1487742662, -0.2426288873, 0.1432324350, 0.0694346726, -0.0250434708, -0.0273337699, 0.0810900629, 0.1621629298, 0.1905077845, 0.0199681576, -0.0206799507, -0.1621583849, -0.1419912279, -0.1922092289, -0.1874006093, -0.1394392103, 0.1538511515, 0.0020866159, -0.0609073639, 0.2423797399, -0.1365013868, -0.1049677953, 0.1901623607, 0.1918930411, 0.0974217728, 0.1598277092, -0.3270520568, -0.1281827241, 0.0002901704, -0.1328131109, 0.0642209351, -0.2579684556, 0.0413612537, -0.1235317439, 0.0869283676, 0.1698608994, -0.0949624106, -0.0493527614, 0.2246489227, 0.1740101874, 0.3118316233, 0.1477795988, 0.0474650227, -0.1124990508, 0.0779811069, -0.2760578394, -0.0099073872, -0.0380706415, -0.0353286713, -0.0927520469, -0.1585478336, -0.2766313851, 0.1218975410, -0.0861052796, 0.1369446963, 0.0792844817, 0.2701781988, 0.2022121698, 0.0071228324, 0.1710935384, -0.0189338438, -0.1494338959, -0.0070220213, 0.0757906735, 0.1331255734, -0.0601739548, 0.0713135004, 0.0236073863, 0.0583758354, -0.0833425596, 0.0441355407, 0.1376543194, 0.1078215465, -0.0096048294, -0.2204632759, -0.0298610162, -0.1126854494, -0.0604478270, 0.0824879035, -0.0314001665, 0.1242009178, -0.2026084065, 0.0967770368, 0.3581514060, 0.2479886115, 0.0543651953, 0.1774351150, 0.1088204086, 0.0203955360, -0.0175638869, -0.1049558669, -0.0402109697, 0.1491542310, -0.1486846060, -0.2543724179, 0.0901730582, 0.1967112720, -0.1791286319, -0.2114049494, 0.2363601625, -0.2110355645, -0.0429277048, 0.0997631773, 0.2291585356, 0.2965913415, -0.0004298244, 0.1660246700, -0.1115165502, 0.1248265281, -0.1713861972, -0.2353085876, 0.0493640900, 0.0534676537, -0.2848274410, 0.1159073859, 0.0187176336, -0.0170703381, -0.0522347800, 0.0349436961, 0.0171355009, 0.2136053890, 0.1193987727, 0.0891863033, 0.0483794101, 0.0191913936, -0.2377277762, -0.2534191906, 0.1128273606, 0.0594282635, 0.1409886479, 0.0407191254, -0.1978539526, 0.2120126784, 0.0177531019, 0.0388804749, 0.1461196095, -0.0083890520, -0.0521208160, 0.1519638449, 0.0153422654, -0.1313531250, 0.0229118112, -0.1449103504, -0.0194011107, 0.0593537092, -0.0422479324, -0.0199101456, 0.0957235545, 0.0161144808, 0.0517822839, -0.0212167017, 0.0657951310, -0.1077421829, 0.0538030043, 0.0052481787, -0.1375394613, -0.0597454906, 0.2079709023, 0.1500535756, 0.1630406380, 0.0164752007, -0.0697960854, -0.0885676369, 0.2971547544, 0.0091020130, 0.1249200404, 0.1457373947, 0.1764260978, -0.1023253426, 0.1842376888, -0.0014539119, -0.0085134991, 0.2340001762, -0.0363015085, 0.0136758704, 0.1617870033, 0.0315708034, -0.1900191605, 0.1083523184, 0.0168308504, 0.0181897413, 0.0201136414, 0.0364611857, 0.1237597838, 0.0884596109, 0.0147516858, 0.1089573056, 0.0280858763, 0.1505577415, 0.0536884107, -0.4252983332, -0.0503800623, 0.0321624503, -0.1383302957, 0.1699614525, -0.0253262687, -0.0822796747, 0.1148354709, 0.1666048616, 0.1203869805, 0.0974032134, -0.0492486842, -0.0285578165, 0.0821305960, 0.1665000170, 0.1248393729, -0.1526511312, -0.0079964055, -0.0780060366, -0.0312442910, 0.1492407471, -0.1374453008, 0.0969737545, 0.0629852191, 0.1744681150, 0.0257063899, 0.1134349927, 0.1144033074, 0.0412636362, 0.1076541692, 0.0226306077, 0.1274428219, -0.0363784358, -0.0440912992, -0.0284431241, 0.1487560719, -0.0736804083, -0.0313115008, -0.0721040815, -0.0684099793, -0.0238586217, -0.1125423461, -0.1862899959, 0.1463555247, 0.0013788495, -0.0294419322, 0.1295065582, 0.0827506706, -0.0267020520, 0.0958156139, 0.0672721416, 0.0873888955, -0.0956429839, 0.0598540492, 0.0067010839, 0.0501277782, 0.0409115516, 0.1133619696, -0.0742206797, 0.0766155571, -0.1417171806, 0.0627653897, 0.2454448193, 0.0698141977, 0.0036701867, 0.1425932497, 0.0063531962, 0.0796166286, -0.0425561368, -0.0448134542, 0.0349391475, 0.0674179792, 0.0599649586, 0.1952307522, 0.0827334821, 0.0315410085, 0.1231431887, 0.0998008400, 0.0202274397, -0.0967609659, 0.1035591736, 0.1542192549, 0.1069785431, -0.0145674497, 0.0010224133, 0.0143065453, 0.1311299950, 0.1886803359, 0.1542928815, 0.1177639365, 0.0578580461, -0.0164776575, 0.4289838374, 0.2391955256, 0.0132478885, -0.0682924986, 0.2187977284, 0.1250891089, 0.0696526691, 0.0560023561, -0.0844152197, -0.0994971320, -0.1547387540, -0.0645460635, 0.1039168388, 0.0838036761, 0.0436706692, 0.0138566624, 0.3881220818, 0.1994865239, 0.0966827348, -0.3123976290, 0.1646499634, -0.0610580631, 0.0686821193, -0.0461656116, 0.0875867382, 0.0273236837, -0.0431484692, 0.0686224177, 0.0260435957, 0.0693802088, 0.0964505300, 0.0303829648, -0.2063367516, 0.0190312956, -0.0664085299, -0.1510890722, 0.0259709060, 0.0478268787, 0.0002172559, -0.0619144812, 0.0216610711, 0.2165585011, 0.0945234150, 0.0009845891, 0.0539384037, 0.1298814714, 0.1192145795, 0.0347979739, 0.1591154039, 0.0208751503, 0.0053130728, 0.1086532399, -0.0159085263, 0.0259919371, -0.0964620486, -0.1668405980, 0.0650336891, 0.0398534983, 0.1473032385, 0.0220126659, 0.0136262095, 0.0069059860, 0.2319722772, 0.1801369786, 0.2192092240, 0.2301966697, 0.0639588982, 0.0127966423, -0.0849614143, 0.1219880432, -0.1070137694, -0.0176023636, 0.1531829983, -0.0595662706, 0.1189403236, -0.0532721952, 0.1857379526, 0.0291193742, 0.0589184090, 0.0004527516, -0.0603743270, 0.1015693918, 0.0706396699, 0.0202666558, 0.0122186122, 0.0774682164, -0.0860055014, 0.0915729031, -0.0428382792, 0.0661296546, 0.0388936959, 0.0839091763, 0.0050544278, 0.0327285752, -0.0336501449, 0.0090244012, 0.0802492648, -0.0130895469, 0.0323114879, -0.1908953637, 0.2023964375, -0.1857546270, -0.0658093765, 0.2459522486, -0.1595757902, 0.2021116465, 0.1222344190, -0.1784829944, 0.0937762707, 0.1958739012, -0.2132529318, 0.0775764212, -0.0364685170, -0.2073826194, -0.0044061351, -0.0800086856, 0.2785744667, -0.0860837922, -0.0085774045, 0.0492140241, 0.0050449502, 0.1060389876, 0.0558459535, 0.1257305443, 0.1795197427, 0.0879975632, 0.0307004061, 0.2455036491, -0.0493556149, 0.0053643547, -0.0697501078, 0.1153869629, -0.0140268272, 0.0288579352, -0.0667741895, -0.0723337457, 0.0246435124, 0.0608572066, 0.0804049224, 0.0042214650, 0.0002308561, -0.0519322008, -0.2611189187, 0.0759720951, 0.2592422664, 0.0375897028, -0.1585547924, 0.0276685692, 0.1169108301, 0.0147129996, 0.0631168261, 0.0538625792, 0.0239211936, 0.1128193066, -0.0280891079, 0.0721885711, -0.0191467497, 0.0253907647, -0.2239011377, 0.0256906785, -0.0648166537, -0.1045291722, -0.1042538732, 0.0763245076, 0.0193772074, 0.0769825876, -0.0407552347, 0.0421456918, 0.0664273873, 0.2584285140, 0.0201903135, -0.0433850437, -0.0719023943, 0.0352947153, -0.0128266364, 0.1084609330, -0.0065940972, -0.2898739874, 0.0431682281, -0.1431995481, -0.0339129306, 0.0707220212, -0.0248224717, 0.2857256830, -0.1147450134, -0.1132534444, 0.3664211631, -0.0530608557, 0.0581093244, 0.0507079586, 0.0372364186, 0.3348343074, -0.0881846547, -0.0892094970, 0.2768605947, 0.0225029457, 0.1693405211, 0.2003830820, -0.0662279949, 0.3175134659, 0.0786060244, -0.1745597422, -0.0226859357, 0.1004308388, -0.0561098009, 0.1073712707, -0.0091712233, 0.2830082476, -0.0462525226, 0.0159884561, 0.1328234822, 0.1691033393, 0.1024838388, -0.1408872455, 0.0665768236, 0.0726204440, 0.2111618966, 0.0622558743, -0.0860482529, -0.1196962148, 0.0247095805, 0.0236039553, -0.1679672003, -0.0413010940, -0.0581170730, -0.0882943720, -0.1411109716, -0.0709963441, 0.1735020131, -0.0838827714, -0.0412193164, 0.0079878112, 0.0875302628, 0.1543463171, -0.2147707641, -0.0374393128, 0.0455495715, 0.1909686923, 0.0104513848, -0.0346539207, -0.0694207400, -0.0480079912, -0.0664891377, -0.1041783169, 0.1111611649, -0.0494150221, 0.1357707977, -0.2044543177, 0.2096226215, -0.0491836108, -0.0260243751, 0.0915447474, 0.1118096039, -0.0945733413, 0.0560955405, -0.0984264016, 0.0047166375, -0.1391190141, 0.1449996978, -0.1455255002, -0.1398556530, 0.1080226377, 0.0649899244, 0.0626515523, 0.2752803564, -0.1393614858, 0.1300474256, -0.0650197193, -0.0253645480, 0.0556519032, 0.0587320104, 0.0523511618, 0.1533103734, 0.0271332040, 0.1722162515, 0.0351671502, 0.0198461059, -0.0841486678, 0.1167269647, 0.1582347453, 0.0271648187, -0.1352855563, 0.0789414793, -0.0099301487, 0.0173200816, 0.0238402449, -0.0197230894, -0.0446718298, 0.1416928321, -0.1379682869, -0.0049784388, 0.0386142097, -0.1074735820, -0.0419794247, 0.1089414358, -0.0180810057, -0.0386583395, -0.0451007634, 0.0540477447, -0.0282169860, 0.0481724292, -0.0011029141, 0.0488171019, 0.0480588451, -0.0828044340, -0.1114254221, -0.0269610863, -0.0577697866, -0.1449687928, -0.0113796247, 0.0272617973, -0.1366308481, -0.0822446272, -0.0570656694, -0.0346235000, -0.1322912425, -0.0662405193, 0.0398146175, -0.0710960627, 0.0499054007, 0.0783899352, 0.0015959357, -0.1920082867, -0.2075796872, -0.3802631199, -0.0022600801, -0.0017373001, -0.2491588742, -0.1762140393, 0.0462636836, -0.1202209815, 0.0889496505, 0.0261488557, 0.0854141638, 0.1492220312, 0.0547338352, 0.0148617355, 0.0115328152, 0.0313875042, -0.0322199948, -0.0465575680, 0.1346598119, 0.0684034452, 0.0810065269, -0.0444717035, -0.2008198947, -0.0364482962, -0.0701270103, 0.1408137977, 0.1192378178, 0.0911018476, -0.0905119404, 0.1459638029, -0.1108826622, -0.0555553399, -0.1604131758, 0.1996136010, -0.1169261560, -0.1119136587, -0.0935662687, -0.1441228390, 0.0496639535, -0.2317119837, 0.0633098260, 0.1482468545, 0.0812060386, -0.1512106806, 0.0206719358, 0.0094715068, -0.1770090461, 0.0397591889, 0.0650000200, -0.0605931729, -0.1228858903, -0.0578895696, 0.0152911879, 0.0127069512, 0.0169383269, -0.0922299698, 0.0977753848, 0.1469870955, -0.0386508182, -0.0308105107, 0.1232279390, 0.0641537756, 0.0676419809, 0.1337862015, -0.0033140294, 0.0049671982, 0.0255883075, 0.0408871919, 0.0074928352, 0.1393917501, 0.0895777792, 0.0356547050, 0.0476884209, 0.0877424702, -0.0023747608, 0.0279834587, 0.0404560938, 0.0118311346, 0.0777159110, -0.0341070928, 0.1427172124, -0.0747625008, -0.0249752235, 0.2011346966, 0.0896298438, 0.0637896508, 0.0772255808, -0.0288030468, 0.0764212906, 0.0129286982, 0.2316854298, 0.1780454218, -0.0217173398, 0.0604577735, 0.0263891853, 0.1261009425, 0.0688019395, -0.2818730772, 0.0461450778, 0.3011498451, -0.1073646396, -0.0509187169, 0.1434589922, -0.1011882722, -0.0226743817, 0.0472561531, 0.1035492048, 0.1533350348, -0.0482845418, 0.1795572191, 0.0112880450, -0.0033939565, -0.0175340679, -0.1011068821, -0.1029026434, -0.0128571587, -0.0222544093, -0.0246319305, 0.2245012224, 0.0457788594, 0.0403361022, 0.0768331662, 0.0739239082, -0.1526630521, -0.1621690094, -0.0125229340, 0.0441985205, -0.0490683392, -0.1070896015, 0.1796115190, -0.0029132527, -0.0570351072, 0.1398187578, -0.1278507411, -0.0735901743, -0.0907747149, 0.0858535394, 0.0126665775, 0.0223067030, -0.1706206650, 0.0811232403, -0.0956467614, 0.1569506526, 0.0179230552, 0.0424584001, 0.0069771875, -0.0413807295, 0.0264579337, 0.0070040398, -0.0934258476, 0.0030589455, -0.0893023908, 0.0253937989, 0.0319184102, -0.0668324456, 0.0400836468, -0.0312049650, -0.0366490297, 0.0346261710, -0.0119932611, -0.0583454929, 0.1676956117, -0.0534953997, 0.0988446325, -0.0730166435, 0.1515089571, -0.0383572951, -0.1729316264, 0.0936798304, -0.1102470681, -0.0217775516, 0.2015319616, -0.0937010199, 0.1541156471, 0.0409516729, -0.0847927704, 0.0019125318, -0.2919001579, 0.1436025798, 0.0402517915, -0.2218674123, -0.1046747789, -0.0449433960, 0.0278450511, -0.0573002547, -0.1243967190, -0.1994170994, 0.0396384969, -0.0310268011, 0.1837791651, -0.0874055177, 0.0435826667, -0.1835100204, -0.0112154800, -0.0780098364, 0.0793195665, -0.0345053524, 0.1355501860, 0.2984560132, -0.0497277975, -0.1142585278, 0.0012979931, 0.2183438689, -0.0261819754, 0.0326195173, 0.0215343889, 0.0102946190, -0.1717803925, -0.2058039904, 0.1479309797, 0.2039853334, -0.0543108135, 0.2201187462, 0.0165204033, -0.0655275881, 0.1952852607, -0.0472771302, 0.0362082049, -0.0643552840, 0.0734718964, 0.1223381162, 0.1574916989, 0.1462634355, 0.0502429903, 0.1806077808, -0.1400418878, 0.1577198505, 0.0506903864, 0.1308401227, 0.0327199548, -0.0907507166, 0.0794264376, 0.0993207768, 0.0415805914, -0.0245026685, -0.0241471790, 0.1376557052, 0.1704953164, -0.1304543018, -0.1650064737, -0.0116821118, -0.0467093326, 0.1406708807, -0.0847697034, -0.0352387354, 0.2284177989, -0.2242459953, 0.1011014208, -0.0508057065, 0.0188196246, -0.1067231968, 0.1987753361, -0.1431184411, 0.1398898661, -0.0685366243, -0.2000418603, -0.0523753092, 0.0610894002, -0.1704848856, -0.1183568686, -0.0287527535, -0.0550481118, 0.1639639586, -0.1045756713, -0.2284997553, -0.1123685166, 0.1706008464, 0.0561896712, -0.0600794852, -0.0251962226, 0.0118400380, -0.1384057850, -0.0367601551, -0.0925434232, -0.1009559482, 0.0203260332, -0.1328390241, -0.1569323093, 0.1361151934, 0.0192965213, -0.0394125991, 0.0799220353, 0.1442425251, -0.0595247485, 0.1490808725, -0.1191556826, 0.1385272890, -0.1421852261, 0.1406484842, 0.1352172345, 0.0078175198, -0.0104577281, 0.2107310593, -0.0599107295, 0.0822945237, 0.1879238337, -0.0608835928, 0.0793076307, 0.0023080702, 0.1609758586, 0.1276286989, -0.0610248037, -0.1274267882, 0.0935995951, 0.0027810887, 0.0057121650, -0.1166898608, -0.0873306915, 0.0023863208, -0.0916543156, 0.2947243154, -0.0905842409, -0.1214391813, 0.0441548638, 0.2624619007, -0.0781691372, 0.0936894789, 0.1047198772, -0.2850898802, 0.1501188874, 0.0589959361, 0.2393363714, 0.0351513103, -0.0635976121, -0.1105836257, 0.1333783865, 0.0634706840, 0.0268154163, -0.0873946920, 0.0981521755, 0.1154755875, 0.2765935659, 0.3086113632, -0.0796535537, -0.2922446430, 0.0222588647, 0.0095480718, 0.1706920266, -0.2322125286, -0.0641486794, 0.0993858725, -0.0967247561, -0.0124170957, 0.0841776282, -0.1544484496, 0.0312992670, 0.2646980882, -0.1308159828, 0.1148677319, -0.3025602102, -0.1495089978, -0.0964414030, 0.0215524621, -0.0656731576, 0.0955996290, -0.0574695617, 0.0650373027, 0.0449976362, -0.2771911323, 0.1116541401, -0.0320117809, 0.1377967000, -0.1397859752, -0.0266197529, 0.1100859493, -0.0894232616, 0.1899907887, -0.0153613146, -0.0052221473, -0.0539295487, 0.0896010026, 0.0872969627, -0.2068248093, -0.0081033288, 0.0285440478, 0.0110373562, 0.1857891232, -0.1400193721, -0.0331464559, 0.0588962585, -0.0975260660, -0.2407436222, 0.1370548755, 0.0712742954, 0.0361952968, 0.2143212706, 0.0639572293, 0.1416542083, -0.1678132266, 0.0961483791, 0.0017502212, 0.0794574320, 0.0814992413, 0.1578898728, 0.1362007409, -0.0282607581, -0.0742398277, -0.2022260875, -0.0185386371, 0.0733772069, -0.1239207089, -0.2308801711, 0.0346419662, -0.0794932693, 0.0014881607, 0.1252249181, -0.1645184308, 0.2193480879, -0.0683467314, 0.1715218723, 0.0401079580, 0.0272544529, 0.0559410267, -0.2064990401, -0.0141272414, 0.2041115910, 0.0372957140, -0.1201545522, -0.1222360358, 0.0207261369, 0.1617194712, 0.1870064884, -0.0639470145, 0.4080451727, 0.0561871789, 0.0783923417, 0.0929120108, 0.1469779760, 0.0094603496, -0.0760959610, 0.1027652025, 0.0953129604, 0.0550766513, -0.1103941649, 0.1256352514, 0.0339735858, 0.1654264629, 0.1191943586, -0.2644578815, 0.2895853519, 0.1710639596, 0.0371021479, -0.1238402724, -0.0673200935, -0.0812315419, 0.0881495997, 0.1725955904, 0.0192850661, 0.0509985052, 0.0316758305, 0.0674865693, 0.0306472313, 0.0934182182, -0.0886919796, 0.1359379590, 0.2021406144, -0.0674005747, 0.0247302111, -0.0651302934, -0.0718542486, 0.0974225104, -0.0164729152, -0.0779868141, -0.1244756803, -0.1321832985, -0.1147677898, -0.0880426690, 0.1276671588, -0.1208625436, 0.1189628243, 0.1494044214, 0.1147603914, 0.0119692367, 0.0337264724, 0.2220502496, -0.1372121274, -0.1663640141, -0.0840309933, -0.2921511829, -0.0076761888, -0.1881900430, 0.1955804527, -0.0798896253, -0.1489374191, -0.0652315393, -0.0477130339, 0.0905918032, -0.0254645795, -0.1428640634, 0.0168291517, -0.0871166512, 0.0373719595, 0.0228425004, 0.1330374330, -0.1384294778, -0.0704303905, 0.0261054412, -0.0163000934, -0.0423291624, -0.2042597979, 0.0976383761, -0.1126177087, 0.1400062889, 0.0838288814, -0.2253408581, -0.1583284587, 0.1330991238, 0.1307719946, 0.1603391916, 0.0337889493, -0.0480642356, -0.2095642239, 0.0427208468, 0.0271461681, 0.1358014792, -0.0946005881, 0.2083056569, -0.1801035255, 0.4590464532, -0.0065049632, 0.0656314120, -0.0723788887, 0.2199739516, -0.0688896477, 0.3559350669, 0.1518672407, 0.1668266356, -0.0169440228, 0.1685855985, 0.0917815045, 0.0017623553, 0.1308165044, -0.0294798817, 0.2186039388, -0.0105127906, -0.0632503256, -0.0810252130, 0.0319615193, -0.1506169587, 0.0746642798, 0.0034496211, -0.0521606207, -0.0091823619, -0.1801462770, -0.1581816524, 0.1525644064, -0.1648729295, 0.3204071224, -0.1430409104, 0.2942288518, 0.1098840013, 0.1139288247, -0.0663416907, 0.1485201269, -0.0516921207, 0.2639068067, 0.0161055867, 0.1514469236, -0.1615626812, 0.0193807520, -0.0557095781, 0.1184477732, -0.3352410793, -0.2115971446, -0.1800644696, -0.1558246911, 0.0324807651, 0.1459322274, -0.0787127018, 0.1871171445, 0.1828405261, 0.0293206237, 0.0313539468, 0.2904333770, 0.1642723680, -0.0108544109, 0.2171080410, 0.1917714626, 0.0059997695, -0.0355984345, -0.0314964801, 0.1546256840, 0.0692031980, -0.0487130359, -0.1062534451, 0.1370665431, 0.1466299742, 0.0311708897, -0.2187833190, -0.0316614732, 0.2922480404, -0.0358722322, 0.1459591836, 0.0048576780, 0.0055123805, -0.1901735216, 0.1468535662, -0.0703164265, -0.0041450821, 0.1579274386, 0.1970402002, 0.0644509047, 0.0226126853, -0.2164722234, 0.1576782912, 0.0040795999, 0.2523309588, 0.1555202454, 0.2376051247, 0.1092836708, -0.1355217844, 0.1801107377, 0.0642782822, 0.1560791433, 0.1725566983, -0.0856288373, 0.1117258742, 0.0004136307, 0.0164347943, 0.1048125699, -0.0687551424, -0.1277951896, -0.0916733220, -0.0162330512, -0.1146563739, -0.0836913809, 0.1372624338, 0.0353175402, -0.1861828119, 0.1253924817, 0.0611482635, 0.0895598456, 0.2381959409, 0.1347920448, 0.0783681646, 0.2533582151, 0.0330279209, 0.0480797216, -0.0480250977, 0.2735603154, 0.2000939101, 0.3285849094, -0.0636800602, -0.1684388965, -0.2078939080, -0.1752506793, -0.2582683563, 0.0664538965, 0.1007347777, 0.4185997248, -0.1329013854, -0.1214698479, 0.2786622345, -0.0005405985, 0.1948463917, 0.0416431390, 0.1728623360, -0.2347982228, 0.0329463072, 0.0603609718, -0.0454607271, 0.1630153507, 0.1365127116, 0.0231508799, -0.0836066976, 0.1138516143, -0.0354182050, -0.0482452139, -0.1564487517, 0.2027666420, -0.0913014412, -0.2785406709, -0.0186602660, -0.0736314133, 0.0566909760, 0.0287047662, -0.2253980488, 0.1176310256, -0.1737272888, 0.3604714274, 0.0677816570, 0.0767023936, -0.0701636001, 0.0473851077, -0.1075113490, 0.0987246931, 0.0328321010, 0.0555248782, -0.0595352240, 0.0120795667, 0.0442994535, 0.0365319028, -0.0191676356, -0.1505050212, 0.0716815144, -0.0960813165, 0.1134861484, 0.0311872214, 0.0950953215, -0.0120613333, -0.0058142236, 0.0734751746, 0.0092393328, -0.0269993246, 0.1120660976, 0.1643549651, 0.2350444496, 0.2456790954, -0.0081124296, -0.0594271310, -0.1971068084, 0.1368818879, 0.1236793771, 0.0561663806, -0.1465926319, 0.0195661038, 0.0828660503, 0.1028601080, 0.1583601236, 0.1697528809, 0.0689282715, 0.1542379707, 0.0473335721, -0.0564521439, 0.3697350323, 0.0965371281, 0.1069399491, 0.3077963889, -0.0388954841, 0.0590660907, 0.0093701435, -0.1294308454, -0.1280930638, 0.1751737446, 0.0335437730, -0.0439732000, -0.0120859314, -0.0677604601, -0.0624362417, 0.0284955874, -0.3166478872, 0.0272652190, 0.2145616561, 0.0144966114, 0.2859767675, 0.1244270056, 0.1215429083, -0.0617594533, -0.0835498720, 0.0150068235, -0.0846204981, 0.1841801852, -0.0216857772, 0.2402032018, 0.1040052399, -0.0084359227, -0.0130267935, -0.1849562973, -0.1689563841, -0.0408413894, 0.2972905934, 0.0896886289, 0.0124911992, -0.0277797654, 0.0020481115, -0.0795688704, 0.2137677521, 0.3002548516, 0.3867742121, 0.2397584915, -0.0299395099, -0.0889017731, 0.0284863394, -0.1014059857, -0.0684197769, -0.1100491807, -0.1787209958, -0.0989755616, 0.0150054488, -0.3115226626, 0.2087982446, 0.0859467536, 0.0327088907, -0.1238112152, 0.2202270776, 0.1839336604, -0.0584028885, -0.0388317332, 0.2245204151, -0.0868915692, -0.0097954907, -0.1932803094, 0.0115730027, -0.0811369345, 0.0514384843, -0.0637110248, 0.0608654954, -0.0077710631, 0.0332954079, -0.0633331761, 0.0705543011, 0.3570228517, 0.0054253149, 0.0038652464, -0.1258838326, -0.0195225962, 0.3063616455, -0.2326500863, -0.0996263251, -0.0410774611, 0.2320396751, 0.0267243683, 0.0126186972, 0.0801790431, -0.0462813713, 0.0145293074, -0.1237642020, 0.1854892075, 0.0141732991, 0.2654570043, -0.1890958995, -0.3879797459, 0.2473664731, -0.2575129271, -0.2175882012, 0.0151705947, -0.0792980492, -0.0270881653, 0.0677030236, 0.1780247390, 0.0986839533, -0.1568711847, 0.0526098125, 0.1411079317, 0.1133518741, 0.1306178272, 0.0077526392, -0.1749243587, -0.1002784967, -0.1359233856, 0.0508754775, -0.0871025547, -0.0786842555, 0.0851490647, -0.1394322664, 0.3220506012, 0.1412778199, -0.0497838110, 0.0449217930, -0.0173008647, -0.0463731587, -0.0269523542, 0.0129489675, -0.0454752520, 0.0162509717, 0.1348122507, 0.0096960058, -0.0673699751, 0.0442640781, 0.0117582232, 0.1053615510, 0.0249230787, 0.0707308352, -0.0848887414, 0.0177299306, 0.0513571836, -0.0670865551, -0.1221835390, 0.0189591423, -0.1054123417, -0.1200873479, -0.0420981087, 0.0801481977, -0.0903858617, 0.0655628741, -0.1019756421, -0.0589243807, 0.0127086677, -0.0770635232, -0.0668755546, 0.0958655402, -0.0075999880, 0.0094968360, 0.0104594100, -0.0480369590, -0.1235740557, -0.0976807401, -0.1098704115, -0.1083713621, -0.0454926975, -0.0945889726, -0.0581239834, -0.1130228341, -0.0554929413, -0.0811245218, 0.0486049242, -0.0729947165, 0.0995760486, 0.0423585810, -0.0407600515, -0.1179980263, -0.0218530055, -0.0536198504, -0.0104383789, -0.1089441255, -0.1248437837, -0.0320650972, -0.1004197299, -0.0416257083, 0.0461224280, -0.0974769816, -0.0651117414, 0.1192938834, 0.0227517653, 0.0321147144, -0.0942914709, -0.0786155686, 0.0118456585, -0.0204512589, 0.0598232262, -0.0646303669, -0.1029513404, 0.0027281500, -0.0669757500, 0.0226362888, -0.0384079479, -0.1022161990, -0.0457233526, -0.0850437209, -0.0713763386, -0.0293378737, -0.0203106161, -0.0754708946, 0.0122593455, -0.1057124436, 0.1361058056, -0.0605139472, 0.0265312307, 0.0773350447, -0.0608918779, -0.0184926894, 0.0193352234, 0.0643472373, 0.1155355573, 0.0652815700, -0.1170438156, -0.0676220879, -0.0087057268, 0.0548089184, -0.1361427307, 0.0637177974, -0.1122730076, -0.1125653461, 0.0677999184, -0.0423120782, 0.0172103178, -0.0676987842, -0.0931822509, 0.0944607779, -0.0917104855, -0.0908876136, 0.0016056536, -0.0575940944, -0.1239491105, -0.0362529494, -0.1300632358, -0.0195673425, -0.0888680369, -0.0023958676, -0.1109463349, -0.0035767520, 0.0416291431, -0.0342118628, -0.0056826291, 0.0699469149, -0.1019709185, -0.0138996476, 0.0632129163, -0.0868282095, -0.0407915600, 0.0275831688, -0.0491408035, -0.0340762772, 0.0504264683, 0.0426011197, 0.0304557998, 0.0842484087, 0.0645200983, 0.0810700879, -0.0919839889, -0.0016926425, -0.0248195920, -0.0196778700, -0.0367585793, 0.0207095202, -0.0626493543, -0.0859055519, -0.0993440598, -0.1140618995, -0.0763489902, 0.0410873145, -0.0503005236, -0.0176906269, 0.0566598251, 0.0305668116, -0.0708308741, -0.1080270633, -0.0314661041, -0.1003167853, -0.1042335927, -0.0795957670, -0.0942531675, -0.0910821259, -0.0420171507, 0.0166437384, -0.0719904527, -0.0712833107, 0.0338199213, -0.0793028474, 0.0119079947, -0.1080273837, 0.0367101394, -0.0305677298, -0.0916281492, -0.1015819907, 0.0185232516, 0.0845290869, 0.0885828957, -0.0743319690, -0.1251376271, -0.0993430689, -0.0997553170, 0.0211310275, -0.0857362524, -0.0045653530, 0.0297882967, 0.0579156466, 0.0381385647, -0.0640667230, 0.0407791957, 0.0154095460, -0.0261037424, -0.1084780097, 0.0583650246, 0.0919201821, -0.0013739608, -0.0724477768, -0.0087060872, -0.1216156632, 0.0713256449, -0.0914693326, 0.0908678994, 0.0612088442, 0.0167155340, 0.0714818090, -0.0427518971, -0.1377052665, 0.0251174029, -0.0823097825, -0.0812285095, 0.0543550625, 0.0714205801, -0.1084248051, -0.0772250071, -0.0465693809, 0.0777812451, -0.0587676838, -0.0314900279, -0.0789173320, -0.0404677093, -0.0107963029, -0.0774931759, -0.0017137341, -0.1150386110, -0.1221379489, 0.0266460124, 0.0282025207, 0.0471376069, -0.0720879808, -0.0819459632, 0.0384532921, -0.0615788400, 0.0048621646, -0.0830940604, -0.0568081327, -0.0367178731, 0.0675277039, -0.0479839370, -0.1282601804, 0.0471876785, -0.1359813660, -0.0258936603, -0.0159141831, -0.0711749867, 0.0937552974, 0.0124713993, -0.0251571462, 0.0086066704, -0.0589654557, 0.0546722114, -0.0094946902, -0.0002884544, 0.0567999482, 0.0100298924, -0.0919195861, 0.1365411878, -0.1228305101, -0.0346638560, -0.1022986919, -0.1373299360, -0.0381490886, -0.0132898036, -0.1064176932, 0.0173702240, -0.0843433440, -0.0364445448, 0.0376989134, -0.1300311983, 0.0651796535, -0.1015799269, -0.1349345297, -0.0814639404, 0.0303592663, -0.0649075285, 0.0859112293, -0.1148981452, -0.0996153951, 0.0063327611, 0.0143736526, -0.0657163560, -0.0236155484, -0.1025389060, 0.0590639412, -0.1009825543, 0.0720764771, 0.1046791822, -0.0203127749, 0.0989383012, -0.0565819256, -0.1074228287, 0.0945860818, -0.0157038979, -0.0945480317, -0.0178914331, -0.0586262867, -0.0661824048, 0.0470961034, 0.0861500725, 0.0768945888, -0.0100038201, -0.1070211977, -0.0198657643, -0.0839938149, -0.0039999201, -0.0713704005, -0.0133688981, -0.0610399283, 0.0078621823, 0.0328685977, -0.0706636682, 0.0798361823, 0.0605529547, 0.0878088921, 0.1024571285, -0.0663152635, -0.1064520851, 0.0378377661, -0.0622255690, -0.0419688039, -0.0917657912, 0.0036950065, 0.0127154086, 0.0277066641, 0.0829097554, -0.1013759747, -0.0526217930, -0.0350841545, 0.0318506509, -0.0116536133, -0.0232096668, -0.0961369649, -0.0899609178, 0.0306636225, 0.0620858818, -0.0385849252, 0.0947642177, 0.0123664634, 0.0968306884, 0.0306077097, -0.0463564955, -0.1406468451, 0.0598256066, 0.0414141864, -0.0601807125, -0.1088849381, -0.0442675017, 0.0255952105, 0.0277242269, -0.0812848955, -0.0669049025, 0.0095116002, 0.0671013519, -0.0270858258, 0.0003329884, 0.0258098729, -0.1197105572, -0.1173628867, -0.0321101546, -0.0170665849, 0.0236026868, -0.0460164100, 0.0981803834, -0.0588130280, 0.0641556159, 0.0835604519, 0.0614027120, 0.0295556802, 0.0595667772, 0.1055319086, 0.0980345160, 0.1097428054, 0.0153862815, -0.0618688799, -0.0853498802, 0.0950191393, -0.0141661791, -0.1107324511, 0.0302018989, -0.0985631645, 0.0383192860, 0.0553444363, -0.0683940873, -0.0420830138, 0.0600536726, -0.0798433051, 0.0387370512, -0.1104443818, 0.1227913946, 0.0246541966, -0.0347918682, 0.0026731226, -0.0303735118, 0.0797361881, -0.0746877566, -0.1256753355, 0.1041848809, 0.0718930364, -0.0963095054, -0.0399890803, 0.0457682572, 0.1918197423, -0.0502917469, 0.0004434652, -0.1289216727, 0.1194748804, -0.0220463257, -0.1434827149, 0.0092350924, -0.0026933085, -0.1490244120, -0.0857986063, -0.0223982129, -0.0712053105, -0.2210546434, 0.0902473629, 0.0999472216, 0.1325912327, -0.0141579881, -0.0446057096, -0.0683455542, -0.0023039381, -0.0442053899, -0.2252245694, -0.1850651950, -0.0117769158, 0.0636130869, -0.1752317101, 0.2806290686, 0.2001995444, 0.0118817221, 0.2040859461, 0.2290352881, -0.1612357348, -0.2707611620, -0.0640920550, -0.1865481436, -0.1697561890, -0.1023711935, -0.1138593182, -0.0945215598, -0.1267713755, -0.1963527650, -0.1243276894, 0.3755394816, 0.1768513918, -0.0371820256, 0.4083568752, 0.1251761764, -0.0979838595, -0.1174873412, 0.0152840354, -0.1546365172, 0.0213346444, -0.1927832663, -0.0245568734, -0.0679127872, -0.1551724523, -0.1275229156, -0.0895199999, -0.0631033480, 0.3873635828, -0.1966448426, 0.3829251230, 0.0397937484, -0.1071400419, -0.0678132102, 0.0300374161, -0.1820179969, 0.0934091210, -0.1510398239, -0.1421256959, -0.0782142058, -0.2795636952, -0.3224924207, 0.1239019409, 0.0048209778, 0.0620475598, -0.1617636383, 0.3282693624, -0.1863390654, -0.0313119851, 0.2066121995, -0.0009110796, 0.1785146445, 0.0188794062, 0.2316221893, -0.0567441918, 0.1212824807, 0.1177937612, 0.1323481351, -0.0506749079, 0.0083503630, -0.1856666505, 0.0334960632, -0.1788860261, -0.1788212508, -0.1497990340, -0.0137280524, -0.2251600772, 0.2630001605, -0.0850440413, 0.1646254659, -0.1571571529, 0.1392533034, -0.1816581488, 0.3357475102, -0.1868875325, 0.0004384339, -0.0166808590, -0.0256252587, -0.0845391005, -0.0664898306, -0.2013505548, -0.1396085769, 0.0452807136, 0.0048050154, -0.0806498453, 0.2002633661, -0.0595428422, 0.2106018811, 0.0248122085, 0.1696897149, -0.0803149939, 0.1500948966, 0.1723907888, 0.1190221012, -0.0797049254, -0.0729359835, -0.1013846844, -0.1498286575, 0.0631296486, 0.0664649382, 0.1025161520, 0.2852161825, 0.1060824841, -0.0502021760, -0.2419806570, -0.0456416681, 0.0486499146, 0.0119307088, 0.1460048556, 0.0938310549, 0.0389356650, -0.1757035255, -0.0906387419, 0.0957287326, 0.2419525236, 0.0936187282, -0.0341399349, 0.1235125065, 0.1368413419, -0.0721521527, -0.0142931724, 0.0509273931, -0.2179404646, -0.1496296972, 0.0710472018, 0.0768170208, -0.0593287461, 0.0635293052, 0.1696178019, 0.0696488172, -0.1942144334, 0.1773240119, 0.0582821108, 0.1316814423, 0.1821123362, -0.0928218588, -0.0290424973, 0.1073801070, -0.1763361990, 0.0759104565, -0.0029262828, -0.0161073506, 0.0800021738, 0.0718644559, 0.0155865764, 0.1622980833, -0.2439769059, 0.0733210444, 0.0346521847, -0.1222143844, 0.0927114114, -0.0983690098, 0.1104164794, 0.0605516285, -0.0833808035, 0.0572187454, 0.0422361456, 0.1901193112, 0.0701182112, 0.3745886683, 0.0371760391, -0.0816334635, -0.0755141377, 0.1250563115, -0.0900323391, -0.1031928658, 0.1436490119, 0.0850331038, -0.0025798993, 0.2274421006, -0.0481561907, 0.3859752417, 0.1165070608, 0.0074829776, -0.0065247882, 0.0766630620, 0.2414434403, -0.0290230066, -0.0828558952, -0.0536089018, 0.1593397111, -0.1245836392, 0.0793394297, -0.0900170133, -0.0398324355, 0.1423382759, -0.1393571645, 0.3704346716, 0.2934647501, 0.0924904421, 0.3183935881, 0.0943969190, 0.0664953291, 0.1057816520, -0.0804945752, 0.1609929055, 0.1772575378, -0.0007123050, 0.2643269598, 0.0850495845, 0.1601780802, 0.1543527544, 0.0323209390, 0.1813046634, 0.0857057646, 0.1261297613, 0.1484775394, 0.1717907041, 0.0911906660, 0.1015601158, 0.0377058275, -0.0987699628, 0.0753412619, -0.2531607747, 0.0301431492, -0.0800115168, -0.0261489656, -0.1333687156, -0.0510121062, 0.0018150369, 0.0092587993, -0.0955283642, 0.1447326839, 0.3769870996, -0.0270009879, 0.0502419025, 0.1158631369, -0.1163153723, 0.0101624457, -0.2652921379, 0.0085928096, 0.2128645629, 0.1761790216, 0.1760838032, 0.1928189099, 0.0235379562, 0.1440559179, -0.1146402806, 0.0005264893, 0.0542036146, 0.0802902132, -0.0847708657, -0.0497161001, -0.1089368984, -0.1436038017, -0.2225417793, -0.1359881312, 0.0455310494, -0.1584915817, 0.0098034795, -0.2149358094, -0.0396683626, 0.0262791663, -0.1878400892, -0.0359109305, 0.0493581034, -0.1199875996, -0.0181479715, 0.0399154127, -0.0129794264, 0.2702932060, -0.0227512792, -0.1986884475, 0.0361473188, 0.0175436661, -0.1640320122, -0.1977245510, 0.0575269200, -0.0560446158, -0.2994193733, -0.0131987277, -0.0873637348, -0.0194506180, 0.0655372888, -0.0439832956, -0.0881065279, 0.3314492106, -0.0206783563, -0.0295664128, -0.0888474584, 0.3094398379, -0.1301818490, -0.0474883243, 0.0274529960, 0.0289843585, 0.0752056390, 0.0396873020, 0.1564680189, -0.1566170305, -0.0904506668, 0.1774950176, -0.0477906615, -0.0764070302, 0.0795302391, -0.0418395773, -0.0758446977, -0.0344508812, -0.0513948239, 0.0723772421, 0.0357252695, 0.0077452520, -0.0004874842, -0.0556819960, 0.3532249033, -0.0427210741, -0.1356417388, 0.0588407926, -0.0914009139, -0.1718372554, -0.1674731076, -0.2531836629, 0.1680438071, 0.1125096977, -0.1923751831, 0.0540340878, -0.1314230561, -0.0124563761, -0.0462315381, 0.1507229805, 0.1550432444, -0.0136886891, -0.0010273753, -0.0578708053, 0.0194111951, 0.1425729692, -0.0082052667, -0.0477509573, 0.0618432015, -0.0001608423, -0.1644653529, 0.0635240003, -0.0621107742, 0.0192953330, -0.0863399208, -0.1165551245, -0.0956201628, -0.1487879306, 0.1612111181, 0.0399363115, 0.0850934088, 0.4091993868, -0.0854790211, -0.0476446748, 0.0276122391, 0.0811716765, 0.0741834641, 0.0165629294, -0.1853744239, -0.0985770151, -0.1093166769, -0.1452859640, 0.1615718752, -0.0949425250, -0.1612137109, -0.1205613241, 0.0098201865, -0.0066408794, -0.0682822838, -0.2059811056, 0.2129367888, -0.0297740269, -0.1070756093, 0.1318646669, -0.1221454665, -0.2326607108, 0.0487889685, -0.0219761990};

#endif

#endif
